CID000003954,0.051847126334905624,0.03177030384540558,-0.02679980732500553,-0.03362991660833359,-0.014372682198882103,-0.01753922551870346,-0.03609582409262657,0.05074506625533104,-0.0222990270704031,0.04273645579814911,0.03250325843691826,-0.012855649925768375,0.023287326097488403,-0.03966488689184189,-0.014706484973430634,0.006089773960411549,0.007677728310227394,0.03335123136639595,0.050454042851924896,0.017586249858140945,-0.0067709339782595634,-0.01822841167449951,-0.037287358194589615,0.02235821820795536,-0.0014421697705984116,-0.02405422553420067,0.03562690690159798,0.022811831906437874,-0.02657938003540039,0.008293457329273224,0.010059194639325142,-0.020885514095425606,0.03314124047756195,0.02194054424762726,-0.006287319585680962,0.021665915846824646,-0.02065754123032093,-0.007339445874094963,-0.00327460584230721,0.03887627273797989,0.03544819355010986,0.02638613060116768,-0.0010318942368030548,0.015923909842967987,-0.022648725658655167,-0.023491960018873215,-0.032335955649614334,0.0022278737742453814,0.027420541271567345,0.01878180541098118,0.038371555507183075,-0.023783158510923386,0.01938421092927456,0.02148970402777195,0.05504346266388893,-0.04175586253404617,-0.025657154619693756,0.03808465600013733,0.020016038790345192,0.044352106750011444,0.020304279401898384,0.03440660610795021,0.01747269183397293,-0.028533916920423508,-0.0427093431353569,-0.005236722528934479,-0.012388236820697784,-0.039990413933992386,0.005951064173132181,-0.027607053518295288,0.010917017236351967,0.016736306250095367,-0.0075591071508824825,0.005076099187135696,-0.05314061790704727,-0.028669754043221474,-0.005487638525664806,0.006900080945342779,0.01988958567380905,0.010388280265033245,-0.03838019445538521,-0.0052009448409080505,0.02451648935675621,0.02838422730565071,-0.033928681164979935,-0.020082563161849976,0.005679097957909107,0.011167953722178936,-0.047560837119817734,-0.039644114673137665,-0.004020386375486851,-0.004072988871484995,0.01619618386030197,-0.04489360749721527,0.04610760509967804,0.034020740538835526,0.013268149457871914,-0.009458599612116814,-0.009862437844276428,-0.013035616837441921,-0.02102608233690262,-0.05042921006679535,-0.007389672566205263,0.014027143828570843,-0.01953735575079918,0.03259965777397156,0.019931068643927574,-0.06596057862043381,-0.03355170786380768,-0.04436083137989044,-0.010576579719781876,-0.0032790545374155045,-0.020790984854102135,-0.042988359928131104,-0.016453932970762253,-0.00029189884662628174,0.03691016510128975,-0.024072643369436264,0.0013895584270358086,0.0006906650960445404,0.0346292220056057,0.022134091705083847,0.02927364781498909,-0.024529868736863136,-0.05481507629156113,0.019446836784482002,0.057719044387340546,0.03306065499782562,0.04932872951030731,-0.015546884387731552,0.06538398563861847,-0.04163171350955963,-0.0334106907248497,-0.03215823322534561,-0.001551804132759571,0.02362806908786297,0.04526977986097336,0.03024955280125141,0.04484507441520691,0.040118761360645294,0.029220623895525932,-0.019994277507066727,0.04183652251958847,-0.018398545682430267,-0.020433416590094566,0.04207673668861389,0.048121776431798935,0.019095800817012787,-0.010342985391616821,-0.011916294693946838,0.043076448142528534,-0.013924093917012215,-0.03805629163980484,0.04053482413291931,0.022116219624876976,0.02050335332751274,-0.02318916842341423,0.025672970339655876,-0.015159325674176216,0.01311162393540144,-0.011119058355689049,-0.035408101975917816,0.022720132023096085,0.006523312069475651,-0.004911042749881744,0.04090217128396034,0.007353181950747967,0.00944234523922205,0.03024171106517315,0.011795587837696075,0.045711979269981384,-0.01737990789115429,-0.04703781008720398,0.008684729225933552,0.025985270738601685,0.029491961002349854,-0.019310206174850464,0.003839177545160055,-0.00609323475509882,-0.019346678629517555,-0.0211444441229105,-0.026504725217819214,0.03152107819914818,0.013246389105916023,-0.06696975231170654,0.049258992075920105,0.030883345752954483,0.029258854687213898,0.048397988080978394,0.01258758082985878,-0.030301019549369812,0.0055768354795873165,-0.02302367426455021,0.014171820133924484,-0.02495972067117691,-0.007483147084712982,-0.007172468118369579,0.03486842289566994,0.03528955578804016,-0.012784210965037346,-0.012695340439677238,-0.0327470526099205,0.02245400659739971,0.0010954272001981735,0.019674381241202354,0.04537627846002579,0.03512735292315483,-0.026750635355710983,-0.025266794487833977,-0.02820773236453533,0.041007667779922485,-0.016058484092354774,0.031233105808496475,-0.026832949370145798,0.01482580229640007,0.01716533675789833,0.009277603588998318,0.03343059867620468,-0.02268911339342594,0.005884488113224506,-0.021215705201029778,-0.013737743720412254,0.04707418009638786,0.05628234148025513,0.031424298882484436,-0.03731035441160202,-0.006486172322183847,0.02825118601322174,-0.02623838186264038,0.004364289343357086,0.016980627551674843,0.028572682291269302,0.03240622207522392,0.009905854240059853,-0.060369424521923065,-0.0023690590169280767,-0.049021150916814804,-0.0007670051418244839,0.013934575021266937,0.054173070937395096,-0.005991121754050255,0.05296759307384491,-0.015941275283694267,0.013831710442900658,0.03753480315208435,0.013188254088163376,0.0043145958334207535,0.01830294169485569,0.002356285462155938,0.0199473574757576,0.05410366505384445,0.015769070014357567,0.02765250764787197,-0.04616217687726021,-0.03224828839302063,-0.025215640664100647
CID000004829,-0.028228553012013435,0.01465749740600586,-0.03352443873882294,-0.011019723489880562,0.03823346644639969,0.017999881878495216,-0.038566138595342636,-0.010444100014865398,0.033288683742284775,-0.0023235357366502285,0.008053862489759922,-0.005675312131643295,-0.006925150286406279,0.021569889038801193,0.007437217049300671,-0.036106232553720474,0.04903301224112511,0.0072640543803572655,0.014396182261407375,-0.0523916557431221,0.0010542785748839378,0.03223394230008125,-0.02084340527653694,-0.002422305755317211,0.030027860775589943,-0.011191684752702713,0.05128525197505951,-0.049863897264003754,-0.02926500327885151,-0.01038985326886177,-0.054444413632154465,0.04116661846637726,0.02207101695239544,0.01249021664261818,0.001507373759523034,-0.002353441435843706,0.04440843313932419,-0.0309314988553524,-0.017064781859517097,-0.004405820742249489,0.001424546935595572,0.0012880247086286545,-0.003831211943179369,-0.014487702399492264,-0.00469606788828969,0.03624670207500458,-0.01036190614104271,0.016455404460430145,0.01941680535674095,0.0019003992201760411,0.03330365940928459,0.0024499064311385155,0.04098878800868988,0.03790421411395073,-0.025394344702363014,-0.005385375581681728,0.0089776162058115,-0.012620527297258377,-0.012012186460196972,-0.0015245722606778145,0.013168963603675365,0.04943924769759178,0.03957059234380722,0.016043102368712425,0.029370157048106194,0.04180973768234253,-0.02937854453921318,0.015411250293254852,-0.030961554497480392,0.020352257415652275,0.03044978156685829,0.01359090581536293,-0.04417550563812256,-0.04180397465825081,0.02374526672065258,0.021681714802980423,0.04757049307227135,-0.03303251415491104,-0.015034284442663193,0.006475941278040409,0.003149955067783594,-0.05447951704263687,-0.04408562555909157,0.034931812435388565,-0.03491406887769699,0.022528773173689842,0.004684389103204012,-0.0015695979818701744,-0.017671335488557816,0.022779259830713272,-0.012973355129361153,-0.011347980238497257,-0.04829498752951622,0.011196066625416279,-0.03830980882048607,-0.04266997426748276,0.02835303731262684,-0.008929434232413769,0.010324670933187008,-0.017769603058695793,-0.013329611159861088,-0.030445905402302742,-0.012221823446452618,-0.016873611137270927,0.013495591469109058,-0.0019230316393077374,0.017315080389380455,-0.024914618581533432,-0.007817831821739674,0.038101643323898315,-0.014503814280033112,-0.05551069229841232,-0.012373615987598896,-0.019805263727903366,0.03068389743566513,0.04847771301865578,0.009690077975392342,0.023039506748318672,-0.007158123888075352,0.048040080815553665,-0.004832603968679905,0.014287238009274006,0.01828453317284584,-0.023917201906442642,-0.03452685475349426,-0.03593141585588455,0.01675397716462612,-0.03077961504459381,0.003709239885210991,-0.0012796353548765182,0.018990758806467056,0.026265867054462433,-0.04948849231004715,-0.023444056510925293,0.029336269944906235,-0.00102458824403584,-0.0068605197593569756,-0.030999107286334038,0.03893912583589554,-0.01372828334569931,-0.0390469953417778,-0.005865941755473614,0.030628196895122528,0.014634405262768269,0.03175561502575874,-0.04586127772927284,-0.016690848395228386,-0.06193075701594353,0.02782660908997059,-0.0425860695540905,-0.020330196246504784,-0.02397933229804039,0.04023096710443497,0.03290335088968277,0.031668394804000854,0.021838854998350143,-0.05607585981488228,-0.01077033206820488,0.013687795959413052,0.03724848851561546,-0.031444892287254333,0.030883517116308212,0.026680897921323776,-0.013104235753417015,-0.017988845705986023,-0.016041692346334457,0.0006117876619100571,-0.024888256564736366,0.048261649906635284,0.01716197095811367,-0.04238574951887131,0.023929612711071968,0.01296525914222002,0.025956887751817703,-0.0052481768652796745,0.0051283929497003555,0.016722628846764565,0.001268451102077961,0.00694363983348012,-0.012139016762375832,-9.839702397584915e-05,0.01258283481001854,-0.02070188708603382,0.05653578042984009,-0.03658541291952133,0.006700762547552586,0.028661474585533142,-0.01283809170126915,0.013658583164215088,-0.0024549097288399935,-0.00443173386156559,-0.038199543952941895,-0.009138391353189945,-0.0529521219432354,0.03774868696928024,-0.020166754722595215,-0.029608093202114105,-0.019212115556001663,0.03973674401640892,0.014753521420061588,0.016618508845567703,0.01807723194360733,0.009474190883338451,-0.006592938676476479,0.05281626805663109,0.013297471217811108,0.007856912910938263,-0.023172684013843536,0.017404962331056595,-0.025269951671361923,-0.007484974339604378,0.036535121500492096,-0.03863689675927162,-0.01214032806456089,0.05295834690332413,0.048405859619379044,-0.0032624322921037674,0.005754093639552593,0.013146518729627132,0.006203554570674896,-0.0050213090144097805,0.020720407366752625,-0.03252109885215759,0.020042117685079575,-0.008321060799062252,0.044230930507183075,0.013748226687312126,0.03226713463664055,-0.03707580640912056,0.03414836898446083,0.011967397294938564,-0.006860585883259773,0.0037964722141623497,0.04431882128119469,-0.023343950510025024,0.04428553208708763,0.04253987967967987,-0.04093050956726074,-0.01046935748308897,-0.04219985380768776,0.013065779581665993,0.04809100925922394,0.05886729806661606,0.04296272620558739,0.01686682552099228,0.034637581557035446,0.035357311367988586,-0.018531300127506256,0.0015589739196002483,-0.007485602051019669,-1.6851816326379776e-05,-0.04778693988919258,0.03785913810133934,-0.01031953003257513,-0.03462156653404236,-0.016732819378376007
CID000004140,0.03691194951534271,-0.018309885635972023,0.020646890625357628,0.0319165363907814,0.03360183164477348,0.023855246603488922,-0.0217197947204113,-0.03030700422823429,-0.01184186339378357,-0.011517725884914398,-0.028447741642594337,0.0243675597012043,0.004784188698977232,-0.02471069246530533,-0.001523205079138279,0.031441327184438705,-0.032088689506053925,0.013871746137738228,0.023970335721969604,-0.018353022634983063,0.06265690922737122,0.042096734046936035,-0.008578270673751831,0.02768966183066368,-0.015590411610901356,-0.018961060792207718,0.042992185801267624,0.010287781246006489,-0.021255647763609886,-0.02903585322201252,-0.02388835698366165,-0.048662394285202026,-0.019412832334637642,0.008475610055029392,-0.028892481699585915,-0.014234490692615509,0.02721046283841133,-0.031034469604492188,0.030663682147860527,-0.04196355864405632,0.02934744954109192,-0.0045467279851436615,-0.01720636710524559,0.02520401030778885,0.020851576700806618,0.0029241209849715233,-0.049391042441129684,0.009510137140750885,-0.00835738331079483,0.019518867135047913,-0.029266303405165672,-0.0025961361825466156,0.031646478921175,4.421919584274292e-06,0.01846897602081299,0.017232298851013184,0.055570170283317566,-0.0032485127449035645,-0.019129762426018715,-0.045004114508628845,0.01238321140408516,-0.021947337314486504,-0.04910288751125336,0.0491502583026886,-0.04354267567396164,-0.04946397244930267,0.008331473916769028,-0.01396150328218937,-0.020071137696504593,0.023112181574106216,0.051730453968048096,0.026679622009396553,-0.008941637352108955,-0.018201520666480064,0.029999006539583206,-0.026194775477051735,0.015191039070487022,0.007075875997543335,0.033572614192962646,0.031183749437332153,-0.056007251143455505,-0.0015239082276821136,0.0036449888721108437,-0.021311892196536064,-0.03327815234661102,0.03122597374022007,-0.014703862369060516,-0.004076932556927204,0.018711434677243233,0.03915782645344734,-0.0030078315176069736,0.05433385819196701,0.016341499984264374,-0.002251329366117716,0.04524652659893036,-0.0007554721087217331,-0.023452073335647583,-0.019896825775504112,0.055451326072216034,-0.002718244679272175,1.5093479305505753e-05,-0.022798456251621246,-0.00669824006035924,-0.016347793862223625,0.045478254556655884,0.02701328508555889,-0.040146805346012115,0.030651932582259178,-0.0019293241202831268,0.014694508165121078,-0.013316964730620384,0.003941311035305262,0.04248689115047455,0.008335714228451252,0.011079493910074234,0.017538994550704956,-0.031588032841682434,-0.012940259650349617,0.026010841131210327,-0.007119085639715195,-0.00727812061086297,-0.021370816975831985,0.04499616473913193,0.019586600363254547,-0.021266702562570572,0.026417892426252365,0.03351661190390587,-0.023636646568775177,-0.060052089393138885,0.05089505761861801,0.011350120417773724,0.03387537598609924,-0.006159105338156223,0.013623788952827454,0.03209317848086357,0.023218438029289246,-0.01761927828192711,0.031266845762729645,-0.021488530561327934,0.051249660551548004,0.01836087554693222,-0.016492748633027077,0.050847407430410385,-0.05034804716706276,0.051269978284835815,-0.018551301211118698,-0.028500935062766075,-0.039938151836395264,0.00015554577112197876,0.00613001175224781,0.017556767910718918,-0.03386932983994484,0.03190372884273529,-0.006042202934622765,0.006770819425582886,0.03873024880886078,-0.026796840131282806,0.010320886969566345,-0.026552990078926086,0.041037704795598984,-0.009605609811842442,0.025763142853975296,-0.011011039838194847,-0.02438817359507084,-0.012568365782499313,-0.001766975037753582,0.01584000326693058,0.03127026557922363,0.039148714393377304,0.031377557665109634,-0.007685755379498005,0.034010667353868484,0.029582107439637184,-0.004645476583391428,0.039404068142175674,-0.03591418266296387,-0.021395934745669365,-0.02070530131459236,-0.04223555698990822,-0.029236020520329475,0.04589341953396797,-0.029952676966786385,-0.009699233807623386,-0.03426401689648628,-0.03209519386291504,0.015675470232963562,0.03632330521941185,0.0016628447920084,0.04482728987932205,0.02412227913737297,0.02168647199869156,0.04827331006526947,0.021873025223612785,0.0013157054781913757,0.006538167595863342,0.007157960440963507,0.027798809111118317,-0.025281820446252823,-0.059994131326675415,0.010711442679166794,-0.027281664311885834,0.005720034707337618,0.027622641995549202,-0.009997337125241756,0.012339736334979534,-0.029232261702418327,0.03999432921409607,0.03433381766080856,-0.027481013908982277,-0.01940068230032921,0.025512706488370895,0.04710586369037628,0.030362047255039215,-0.006933719385415316,0.0471000000834465,-0.036115676164627075,-0.02169833891093731,0.0668029859662056,0.029839597642421722,0.036064568907022476,-0.02856435626745224,-0.016985319554805756,0.031803879886865616,0.03904760628938675,0.038593191653490067,-0.0038951258175075054,0.014895216561853886,0.03373998776078224,-0.04890856891870499,0.029530737549066544,0.003956207539886236,0.04076307266950607,0.012042023241519928,0.007448624819517136,0.037739600986242294,0.05310408025979996,0.025305472314357758,0.018206749111413956,-0.017540082335472107,0.002852214500308037,0.01239685621112585,-0.006083006039261818,0.03924720361828804,0.05968041345477104,0.04355335235595703,0.04477880150079727,-0.022962521761655807,0.033963847905397415,-0.00497478386387229,-0.01130811870098114,0.011443883180618286,-0.013039495795965195,0.0507403239607811,-0.011382650583982468,0.0025398507714271545,0.031931087374687195
CID000002909,0.0235975980758667,-0.030255205929279327,-0.010129923932254314,-0.005903240758925676,0.014569290913641453,0.03227550536394119,0.015195642597973347,-0.03333262726664543,0.005724488291889429,-0.033371131867170334,-0.02212744578719139,0.047972775995731354,0.021583430469036102,-0.0437813438475132,0.0036311117000877857,0.039062585681676865,0.010486481711268425,-0.048858240246772766,-0.011975721456110477,-0.04515064135193825,0.03819667920470238,-0.03921337425708771,0.004154884722083807,0.037867456674575806,0.004968882072716951,-0.014870790764689445,0.011251578107476234,-0.04235371947288513,-0.035443007946014404,-0.044843945652246475,-0.019479839131236076,0.03190400078892708,0.0475241057574749,-0.004027982242405415,0.04331061616539955,0.04359109699726105,0.018413271754980087,0.015294209122657776,0.013447301462292671,0.010624358430504799,-0.014202968217432499,0.03231535479426384,0.04457199200987816,-0.004897827282547951,0.040471531450748444,0.031939540058374405,-0.032366085797548294,-0.049235373735427856,0.024152033030986786,0.03996486961841583,-0.018014485016465187,-0.019777268171310425,-0.028229674324393272,0.005902905948460102,-0.0498478040099144,0.021788431331515312,0.023414935916662216,-0.017205577343702316,-0.05066945403814316,-0.037067946046590805,-0.007933277636766434,-0.02055995538830757,0.040619559586048126,0.0098898159340024,-0.0018371716141700745,0.032231152057647705,-0.020363477990031242,-0.007116233929991722,0.03797382116317749,-0.02492332085967064,-0.01405506394803524,-0.032005734741687775,0.03465023264288902,0.009888557717204094,0.01147786621004343,0.014461249113082886,0.030440332368016243,-0.029378611594438553,-0.0351409912109375,0.009708005003631115,-0.02483269013464451,-0.0036648325622081757,0.013828138820827007,0.03595777601003647,-0.04212057963013649,-0.015394387766718864,0.03493474796414375,-0.005635016597807407,0.03739640489220619,0.03582560643553734,0.034236274659633636,-0.028444962576031685,0.03133540228009224,0.035631682723760605,0.04187415540218353,0.006075882352888584,-0.01721624657511711,0.014491151086986065,0.035390980541706085,-0.03795282170176506,-0.00858181994408369,0.008497356437146664,-0.005343031138181686,0.04061559960246086,-0.05277518182992935,-0.0033807752188295126,-0.032011114060878754,-0.0061987233348190784,-0.011480490677058697,-0.023059964179992676,0.022138822823762894,-0.00877775065600872,0.02121252939105034,0.024326782673597336,0.030830351635813713,0.029450727626681328,-0.043927233666181564,0.0055685266852378845,0.03456072509288788,-0.013489635661244392,0.047554634511470795,0.014288267120718956,0.0360991396009922,-0.03055555373430252,0.015383603051304817,0.041489377617836,0.00379148218780756,0.004845338873565197,0.027909450232982635,0.035100363194942474,0.0035176812671124935,-0.014910788275301456,0.004326556343585253,-0.008830268867313862,-0.022915877401828766,-0.02389569766819477,0.024385249242186546,0.04373857006430626,-0.006773247383534908,-0.02012043073773384,0.040498096495866776,0.0027657486498355865,0.03176181763410568,0.02378443256020546,0.03336869552731514,0.031120115891098976,0.03788960352540016,0.036509618163108826,0.0014242464676499367,0.039104677736759186,-0.01648034155368805,0.008819076232612133,0.003717999439686537,0.03381199762225151,-0.018212884664535522,0.025090698152780533,0.004012972116470337,-0.010985389351844788,0.011503202840685844,-0.00719401054084301,-0.01664860174059868,-0.0033669029362499714,-0.0346563346683979,-0.012245474383234978,-0.007660155184566975,0.04127896577119827,0.044766396284103394,-0.04296920821070671,0.0033883489668369293,-0.005614096764475107,0.04363473877310753,-0.025408228859305382,0.010121139697730541,0.0500057153403759,0.027045780792832375,-0.010083165019750595,0.012456518597900867,0.02745405025780201,0.029285158962011337,0.033920131623744965,0.0011190400691702962,-0.0028310809284448624,-0.027078155428171158,-0.042213235050439835,0.004746296908706427,0.036872632801532745,-0.02157951146364212,0.031053446233272552,0.042501963675022125,-0.015231229364871979,-0.01132728811353445,0.04102892056107521,0.02304874360561371,-0.013826954178512096,0.009808149188756943,-0.002518431283533573,0.005721088964492083,-0.011792503297328949,0.044683463871479034,-0.021855680271983147,0.02156147174537182,0.016656581312417984,-0.016993112862110138,0.014826982282102108,-0.05126297101378441,-0.01399278175085783,-0.014947507530450821,0.003484726417809725,-0.03042808175086975,-0.01287219300866127,0.002512783743441105,0.00955229438841343,-0.028551235795021057,-0.007319191470742226,0.021175462752580643,-0.0341511070728302,0.008082042448222637,-0.031356945633888245,-0.03114323690533638,-0.019641242921352386,-0.023676341399550438,0.04858850687742233,0.040427546948194504,0.041200071573257446,0.03323632478713989,-0.011428417637944221,0.036309052258729935,-0.05029987916350365,-0.019811950623989105,0.011196941137313843,-0.0020937658846378326,0.021106146275997162,-0.023123856633901596,-0.021392710506916046,-0.03536166995763779,0.011106621474027634,0.00847412459552288,-0.03543026000261307,-0.024305332452058792,0.03719612956047058,-0.03275061771273613,0.0019622333347797394,0.041363492608070374,-0.020290134474635124,0.0416094996035099,-0.03558005765080452,0.03784223645925522,-0.02056441269814968,-0.01415320485830307,-0.01639532297849655,0.025665372610092163,0.014853393658995628,0.01333250105381012,0.011208921670913696,-0.022732190787792206,-0.026054976508021355
CID000003676,-0.013230880722403526,-0.025590065866708755,0.009448319673538208,0.009350854903459549,0.008775105699896812,0.031400568783283234,-0.009980659931898117,-0.008569457568228245,0.023231780156493187,-0.023797042667865753,0.05702929198741913,-0.011162014678120613,-0.04517488181591034,0.036048367619514465,-0.04164732247591019,-0.005458102561533451,0.0264069102704525,0.012146055698394775,-0.04236872121691704,0.014656700193881989,-0.046517513692379,-0.030577996745705605,0.028813527897000313,-0.00790274515748024,0.005128289107233286,-0.034259408712387085,-0.01979145035147667,-0.050799816846847534,-0.008552880957722664,-0.020154066383838654,-0.03873191028833389,-0.011028649285435677,-0.0032433299347758293,-0.014525007456541061,-0.060300957411527634,0.00390149955637753,0.002132570371031761,0.010350905358791351,0.007018307223916054,-0.03173401951789856,-0.02315673977136612,0.019614478573203087,-0.0050382972694933414,-0.02510753460228443,-0.020671792328357697,-0.01723320409655571,-0.013652507215738297,-0.025447962805628777,0.05125296115875244,0.01239203754812479,0.00396031653508544,0.027286382392048836,-0.042809732258319855,0.031072519719600677,0.014161758124828339,-0.038860633969306946,0.014445468783378601,0.009734146296977997,-0.0286455936729908,0.001532214693725109,-0.01765492931008339,-0.0197267048060894,-0.011415478773415089,0.004849163815379143,-0.009676489979028702,-0.004897055681794882,-0.006634851917624474,0.03431301563978195,0.013557706028223038,0.052513860166072845,-0.004085383377969265,-0.03801186382770538,0.03863275423645973,0.020830687135457993,0.04696980118751526,0.0375690683722496,0.0065038492903113365,-0.040984924882650375,-0.009589582681655884,0.04226672649383545,-0.04880652204155922,0.01266881451010704,0.05104026943445206,0.011676792055368423,0.04384271800518036,0.0077965762466192245,-0.03945282846689224,-0.013130821287631989,0.0017905300483107567,0.01735735684633255,0.020315639674663544,0.05128476768732071,-0.03328246250748634,-0.0164559967815876,0.0026305504143238068,0.03200322017073631,0.044453296810388565,-0.01564154028892517,-0.03054189495742321,-0.041639938950538635,-0.005030839703977108,-0.0067207589745521545,-0.033481210470199585,0.008388188667595387,-0.0347868986427784,-0.0399540439248085,-0.01875486597418785,-0.044637612998485565,0.04493337124586105,-0.04001637175679207,0.0367814302444458,0.014570327475667,0.05099634826183319,-0.02821020595729351,0.014552257023751736,0.05092408508062363,-0.018335804343223572,0.0213388130068779,-0.0132173215970397,0.005804859101772308,-0.01726282201707363,-0.06639660894870758,0.020069031044840813,-0.02167670615017414,-0.039297252893447876,-0.018185745924711227,-0.01399150025099516,-0.006383522413671017,0.016516979783773422,0.03644184768199921,0.02933761291205883,-0.029022155329585075,-0.02388746663928032,-0.04590076580643654,0.02339530549943447,-0.048872582614421844,0.051541656255722046,0.0029091392643749714,-0.02292792499065399,-0.009403293952345848,0.011893343180418015,0.02147536911070347,-0.044071514159440994,0.042497843503952026,-0.017687179148197174,0.02325475960969925,-0.009988531470298767,0.04116188362240791,-0.02377510443329811,0.046730924397706985,-0.007007138803601265,0.021993450820446014,-0.021667448803782463,0.0059807440266013145,0.005437605548650026,0.02667643316090107,-0.013666901737451553,-0.03033870831131935,-0.025672098621726036,-0.029822057113051414,0.032433923333883286,-0.0026999334804713726,-0.0280234906822443,-0.0362556129693985,0.03963880240917206,0.016885628923773766,-0.029612526297569275,0.04952217638492584,-0.034359533339738846,-0.04149671643972397,0.0014095986261963844,0.020033512264490128,-0.03300246223807335,-0.015548269264400005,-0.02970207668840885,-0.0063631124794483185,-0.0061561232432723045,-0.009813491255044937,0.01875774934887886,0.05295197293162346,-0.01317946519702673,-0.05822497606277466,-0.016411304473876953,0.04228968173265457,0.035682037472724915,0.014319183304905891,-0.017708539962768555,0.011363720521330833,-0.02145623043179512,0.010166704654693604,0.00139530748128891,0.010150301270186901,0.011051086708903313,0.016463663429021835,-0.0007223449647426605,-0.022987455129623413,0.03053676150739193,0.010854873806238174,-0.0059512583538889885,-0.04701637104153633,0.022734425961971283,0.012206465005874634,0.0075780898332595825,0.017126701772212982,-0.01810350827872753,0.0013266382738947868,0.03550314903259277,0.014677589759230614,-0.004436180926859379,0.015593522228300571,0.015285622328519821,-0.022036686539649963,-0.002894527278840542,0.00459999218583107,-0.032515451312065125,-0.005388670600950718,-0.03939571976661682,0.006484579294919968,0.03603649511933327,0.03669207915663719,-0.009844834916293621,0.018902698531746864,0.04953380301594734,-0.03494378924369812,-0.03246406093239784,0.026817383244633675,0.06570158153772354,-0.034645453095436096,-0.0013160519301891327,0.03198811784386635,0.013243280351161957,0.029015889391303062,0.05720587074756622,0.03189624845981598,0.019013801589608192,0.01783940941095352,0.03767882660031319,-0.031014729291200638,0.008198436349630356,0.019224369898438454,-0.018585067242383957,0.0011457540094852448,-0.002435461152344942,-0.004585724789649248,-0.010766435414552689,-0.04147724062204361,0.02633955329656601,-0.03705042973160744,-0.034870076924562454,0.042128946632146835,-0.020338233560323715,-0.014547816477715969,-0.0016704136505723,-0.003975958563387394,0.013185716234147549,0.05007565766572952
CID000003339,0.013669254258275032,0.0214267298579216,-0.026334626600146294,-0.025651847943663597,-0.012806275859475136,-0.05005652457475662,0.034984078258275986,0.037700947374105453,-0.0169048048555851,0.003867192193865776,0.05354507267475128,-0.014051628299057484,0.01715729385614395,-0.037261124700307846,0.009737713262438774,-0.006958602927625179,0.03362467885017395,0.018896406516432762,-0.017735732719302177,0.0004605548456311226,0.006561983376741409,0.01729622110724449,0.03174690157175064,-0.013606907799839973,0.0402773879468441,0.02487148344516754,-0.056973520666360855,0.019868018105626106,-0.037588391453027725,0.02752334251999855,0.012274603359401226,0.007536166347563267,0.002835516817867756,-0.011251457035541534,0.0326429083943367,0.04241296276450157,0.027922581881284714,-0.0010790787637233734,-0.00519524235278368,0.021465592086315155,0.0015895646065473557,-0.016915837302803993,0.019403742626309395,0.03845040872693062,-0.026109011843800545,-0.046426836401224136,-0.0373908132314682,0.02088257484138012,0.04248379170894623,0.02035849168896675,-0.017063725739717484,0.05533735454082489,-0.017205754294991493,0.026148103177547455,-0.0034529701806604862,-0.0360562726855278,0.01548037026077509,0.011173772625625134,0.0013761441223323345,-0.03985786437988281,0.04773121327161789,-0.01215782854706049,-0.009785657748579979,0.03720296919345856,-0.05333726853132248,-0.04228157550096512,0.019521282985806465,-0.03146980330348015,-0.04957706853747368,-0.02950555831193924,0.020553747192025185,-0.009823455475270748,0.04802941530942917,-0.013123087584972382,0.003515658900141716,-0.04498223587870598,0.046818699687719345,0.007217694539576769,-0.046420011669397354,-0.028538955375552177,-0.008832408115267754,0.020352773368358612,0.04232940822839737,-0.008502035401761532,0.02556634321808815,0.05243280529975891,0.0024179196916520596,-0.015396538190543652,0.02388891577720642,0.04677676782011986,0.01229996606707573,-0.012316713109612465,0.010607356205582619,-0.04005903750658035,-0.023823264986276627,0.007943274453282356,0.007571683265268803,-0.028360547497868538,-0.003318201983347535,0.02725832164287567,-0.01873578317463398,-0.029118414968252182,-0.03240739181637764,0.037741295993328094,0.0052967374213039875,0.023077871650457382,0.04208754748106003,-0.012665118090808392,0.03341717645525932,-0.02892002835869789,-0.01963670924305916,-0.015481589362025261,-0.021385349333286285,0.021213030442595482,-0.021802406758069992,-0.01419094204902649,-3.556814044713974e-05,-0.030177850276231766,-0.008492838591337204,0.0086141312494874,-0.00113692507147789,0.003257292788475752,0.020991522818803787,-0.008886967785656452,-0.015255773440003395,-0.012901712208986282,-0.0038289902731776237,-0.023939307779073715,0.04861345887184143,0.0029006372205913067,0.03313741832971573,0.02295294590294361,-0.010809261351823807,-0.0012861511204391718,-0.01890130341053009,-0.004972158931195736,0.0072243791073560715,0.03274853155016899,-0.005347238853573799,-0.03646392375230789,-0.010366251692175865,-0.011479038745164871,-0.02138322964310646,0.0033333697356283665,-0.007203035056591034,0.03343544155359268,0.03435070067644119,-0.02074999175965786,-0.010377490893006325,-0.013014603406190872,0.0016221115365624428,0.025856394320726395,-0.02518731728196144,-0.005871703382581472,0.02129458077251911,0.005263940896838903,-0.013722044415771961,0.038506921380758286,-0.010032582096755505,0.01863662153482437,0.02552018128335476,0.03842638060450554,-0.005628309212625027,-0.006362088955938816,-0.009214005433022976,0.04172828048467636,0.0252983421087265,0.00028946250677108765,-0.032256096601486206,0.029898986220359802,0.0006597574101760983,-0.0241041649132967,0.003056043991819024,0.006359100341796875,0.005690830294042826,0.016982359811663628,0.0008727777749300003,0.03647325560450554,-0.010817963629961014,0.015735531225800514,-0.011249646544456482,-0.03990459814667702,-0.013295185752213001,0.028543777763843536,0.003298551309853792,-0.015140374191105366,-0.04021051898598671,0.03604915365576744,0.04263821989297867,0.03905780240893364,0.00493850652128458,0.026128901168704033,-0.020995624363422394,-0.013074230402708054,-0.020357271656394005,0.02504313737154007,-0.025930598378181458,-0.01928853988647461,-0.05213991552591324,-0.028451526537537575,-0.03916115313768387,0.0100772175937891,0.02409331500530243,-0.0012722150422632694,-0.03819521144032478,-0.006030304357409477,0.005289625376462936,0.005944661796092987,0.03997352719306946,-0.043098147958517075,0.029487084597349167,-0.025491897016763687,-0.03877400606870651,0.06315791606903076,-0.04840585216879845,0.04833146929740906,0.007573168724775314,-0.005143021233379841,-0.01595895178616047,0.020960675552487373,0.021957896649837494,-0.036295972764492035,0.003160307416692376,0.01680147275328636,-0.00762401707470417,-0.0403168685734272,-0.0034142660442739725,-0.013471318408846855,0.027772609144449234,-0.023249618709087372,0.009387248195707798,-0.010439891368150711,0.014630425721406937,0.011654418893158436,0.012990319170057774,0.027269765734672546,0.02236843667924404,-0.015012670308351517,-0.0048655117861926556,0.04861513525247574,0.010306883603334427,-0.019072774797677994,0.008242601528763771,0.03335769474506378,0.007630162872374058,0.031173022463917732,-0.019987819716334343,-0.037931278347969055,0.026248279958963394,-0.014773108065128326,0.033234305679798126,-0.041027553379535675,-0.03729015216231346,0.014496980234980583,-0.021002961322665215,-0.025733204558491707
CID000005656,0.03279690444469452,-0.02158784121274948,-0.025932813063263893,-0.05602845549583435,0.016864405944943428,-0.044171445071697235,-0.05540523678064346,0.018464498221874237,0.041213348507881165,-0.033315617591142654,0.051783978939056396,-0.028536371886730194,-0.011324204504489899,0.018099995329976082,0.00041398126631975174,-0.043327391147613525,0.03893474489450455,0.03846639022231102,0.02323785424232483,-0.026989635080099106,0.012538891285657883,0.021014612168073654,-0.03659643605351448,-0.03074944205582142,0.06060551479458809,0.015816081315279007,-0.008777832612395287,0.020356083288788795,-0.012396210804581642,0.008115855976939201,0.03641115501523018,0.007197193801403046,-0.017992837354540825,0.05361514911055565,-0.025186687707901,-0.00293637253344059,-0.04158739745616913,0.009371146559715271,-0.045496150851249695,-0.004158087074756622,0.04531701281666756,0.013163730502128601,0.05127488076686859,0.04395672678947449,0.04673270136117935,0.04391565918922424,0.0037994589656591415,-0.017865626141428947,0.0009580296464264393,0.010527726262807846,0.0026059667579829693,-0.03380396589636803,-0.056472230702638626,-0.04644940048456192,0.0144740529358387,0.03207378461956978,0.04406827688217163,-0.011314546689391136,-0.05371594429016113,0.03144698590040207,-0.028691235929727554,-0.016558393836021423,-0.020517071709036827,0.017241980880498886,0.023152217268943787,-0.0448923259973526,0.023103034123778343,-0.03112119808793068,0.03530668467283249,-0.006242319941520691,0.03382490202784538,-0.03186124935746193,-0.01833118125796318,0.011455709114670753,-0.05413312464952469,-0.04135174676775932,0.04084353521466255,-0.03425229713320732,-0.027872024103999138,0.026192180812358856,-0.03656594082713127,0.008379235863685608,-0.0029262439347803593,0.04305217042565346,-0.008701938204467297,-0.027923205867409706,0.021832438185811043,-0.009592890739440918,0.024904735386371613,-0.04871079698204994,-0.004393638577312231,-0.016609065234661102,0.0038789836689829826,0.036506228148937225,0.025359468534588814,0.03778401017189026,-0.011525550857186317,-0.025641603395342827,-0.015995657071471214,-0.023940736427903175,-0.00032921042293310165,-0.017349326983094215,-0.0369868278503418,0.03442417085170746,0.055960651487112045,-0.04431448131799698,-0.03894072026014328,0.028287913650274277,0.005085766781121492,-0.007133733481168747,0.015510094352066517,0.045697279274463654,0.0032541900873184204,-0.010002924129366875,0.02596590667963028,0.03548938035964966,-0.0017382169608026743,0.021275684237480164,0.03225388005375862,-0.04174787551164627,-0.00829043984413147,0.0018866360187530518,-0.04650072753429413,0.03935237601399422,-0.031230757012963295,-0.025100840255618095,0.01651141606271267,-0.023590991273522377,0.03142894059419632,0.005291714332997799,-0.0048461537808179855,0.03223985806107521,-0.030236370861530304,0.032527197152376175,-0.007134387269616127,0.013695643283426762,0.04987400770187378,-0.0029308018274605274,0.0130225894972682,0.04956423491239548,-0.015216626226902008,-0.006201491225510836,0.04198247194290161,0.02246933989226818,-0.029860608279705048,0.058419302105903625,-0.007776966318488121,0.03606190159916878,0.044477447867393494,0.03114910237491131,-0.008557813242077827,-0.01827830635011196,0.01319966185837984,0.02140425331890583,0.015496501699090004,-0.036742132157087326,-0.017314251512289047,-0.024402949959039688,-0.05209597945213318,0.016361337155103683,0.013477673754096031,0.02118040807545185,0.02865930274128914,-0.0010102004744112492,-0.015252431854605675,-0.0399271696805954,-0.05221295356750488,-0.04308842867612839,-0.02229217253625393,-0.015636296942830086,-0.005015892907977104,0.02762669511139393,-0.04027543216943741,0.007587362080812454,-0.0008444297127425671,0.003158875275403261,-0.04026322811841965,0.027434341609477997,-0.00928222294896841,-0.005773074924945831,0.01562592387199402,0.04571368172764778,-0.012380607426166534,-0.007645861245691776,-0.014893537387251854,0.005242513492703438,-0.02366311475634575,0.010453613474965096,-0.0028835274279117584,0.003869147039949894,-0.03753126412630081,-0.01679377630352974,-0.028091859072446823,0.016011327505111694,-0.04733056575059891,0.03641875460743904,0.01940423808991909,0.013471032492816448,-0.048223186284303665,0.0019086673855781555,-0.042264971882104874,-0.007920026779174805,0.011106491088867188,0.02115597389638424,0.004290605895221233,-0.007791090756654739,0.030577460303902626,0.05017288774251938,0.005432985723018646,-0.0010748570784926414,-0.028708186000585556,-0.009934408590197563,0.021650057286024094,0.055055659264326096,0.04197914898395538,-0.04151768982410431,-0.0232955664396286,-0.007740604691207409,-0.042309198528528214,0.008949165232479572,0.009161826223134995,-0.04561050608754158,-0.006635578349232674,-0.04046056792140007,-0.00957728736102581,0.017241692170500755,0.015871617943048477,-0.004206556361168623,-0.05612916499376297,-0.0073317717760801315,0.01941816508769989,-0.03974706679582596,-0.03486795723438263,-0.0068102204240858555,0.0069955200888216496,0.007881763391196728,0.04888695478439331,-0.02826710231602192,-0.03606916964054108,0.010928159579634666,-0.011742636561393738,-0.008341648615896702,0.0007141809910535812,-0.006195073947310448,0.039823465049266815,-0.0060004135593771935,-0.025215832516551018,-0.01083793118596077,0.0033057350665330887,0.009938189759850502,-0.028271595016121864,-0.045270033180713654,0.013937177136540413,-0.03780270367860794,0.04656391590833664,0.022332381457090378
CID000000853,0.028075791895389557,-0.0019898845348507166,-0.018546123057603836,-0.009635578840970993,0.05436113476753235,0.02168649435043335,0.028739212080836296,-0.023285802453756332,0.013602705672383308,-0.022820238023996353,-0.010098584927618504,0.009238366037607193,-0.01984245330095291,0.050407931208610535,-0.041314151138067245,0.029642254114151,-0.028197962790727615,0.010827434249222279,0.015655599534511566,-0.005470582749694586,0.001420055516064167,0.02680705115199089,-0.025363150984048843,-0.01414837408810854,0.03809906169772148,-0.022636737674474716,0.007331136614084244,0.021657248958945274,0.04440578445792198,-0.030637092888355255,0.03140674903988838,-0.03368586301803589,0.03148822486400604,-0.01625700481235981,-0.016153153032064438,-0.021756479516625404,0.019068533554673195,0.027831070125102997,0.009002730250358582,0.010790632106363773,0.017557132989168167,-0.011778787709772587,0.010158205404877663,-0.045766543596982956,0.03199189901351929,-0.05393354594707489,-0.044675327837467194,0.015927188098430634,-0.040527112782001495,-0.033522751182317734,-0.029508378356695175,0.02891826443374157,0.023708412423729897,0.011920865625143051,0.035956040024757385,-0.0064399354159832,-0.03210683912038803,0.02686687558889389,0.02485755831003189,-0.01610114797949791,-0.04468849301338196,0.00650132168084383,0.012959654442965984,-0.048111442476511,0.05707743763923645,0.029245898127555847,0.005306927487254143,-0.02957889437675476,0.008897251449525356,0.001924710813909769,-0.022655140608549118,0.03794771060347557,0.017398733645677567,-0.048766110092401505,-0.004591729957610369,0.012349327094852924,-0.03175739943981171,0.03392000496387482,0.007456131745129824,0.029098769649863243,0.01721017435193062,-0.01709345355629921,-0.006358215119689703,0.05291382968425751,0.045966267585754395,0.01472317986190319,-0.03680429607629776,0.036046650260686874,-0.013972068205475807,-0.009505042806267738,-0.012739252299070358,0.02147481217980385,0.03584578260779381,-0.04509890824556351,-0.054295338690280914,0.013423392549157143,0.02085559442639351,-0.006763007491827011,-0.02335231937468052,0.012601605616509914,-0.03420812264084816,0.05270088091492653,0.03236766159534454,-0.032973550260066986,-0.03522489592432976,0.034109003841876984,-0.038678884506225586,-0.020359493792057037,0.02250969037413597,-0.03726194053888321,-0.037271011620759964,0.013403605669736862,0.016761142760515213,-0.034960851073265076,0.03511586785316467,0.016915656626224518,-0.01801086775958538,-0.022719772532582283,0.012165931984782219,-8.818507194519043e-05,-0.005477456375956535,0.01903500221669674,0.025305047631263733,0.004953443072736263,-0.01382484845817089,-0.024883370846509933,-0.027701854705810547,0.005229109898209572,-0.043735288083553314,-0.030160658061504364,-0.0060926564037799835,0.021026533097028732,-0.03885210305452347,-0.0119512639939785,0.007483336608856916,0.012224903330206871,-0.016083234921097755,0.017537621781229973,-0.027040567249059677,-0.013538536615669727,-0.03167927637696266,-0.008137785829603672,0.019311225041747093,-0.009689362719655037,0.0042444514110684395,-0.032690733671188354,0.04103831946849823,-0.006800567731261253,-0.008275218307971954,0.03913950175046921,0.04377282038331032,-0.027105337008833885,-0.02413966692984104,0.0453578345477581,0.025809837505221367,-0.0003504585474729538,-0.02524583786725998,0.013822156004607677,-0.017977071925997734,0.0031249206513166428,0.004505844786763191,-0.03243483603000641,-0.0014308826066553593,-0.007414647843688726,-0.01172729767858982,0.014045129530131817,0.04681672528386116,0.012113170698285103,0.0026488767471164465,-0.02327170968055725,-0.020175520330667496,-0.0360574908554554,0.004723949357867241,-0.04344592243432999,-0.03491897135972977,0.0030946535989642143,-0.004522255621850491,-0.01537320390343666,-0.008788306266069412,-0.03875313699245453,0.015534119680523872,-0.04663604870438576,0.03135886788368225,0.010003622621297836,-0.03290802240371704,0.03229141980409622,0.017695747315883636,0.025514619424939156,-0.021625496447086334,0.010865169577300549,-0.040046483278274536,0.027648987248539925,0.008264701813459396,-0.022118892520666122,-0.03782324865460396,-0.01268074568361044,0.00801185704767704,0.02949897013604641,0.031381480395793915,0.027145937085151672,-0.03382426127791405,0.033860791474580765,0.020491275936365128,-0.01989554613828659,-0.03791315481066704,-0.012765150517225266,0.04441383481025696,0.002454528119415045,-0.022134259343147278,0.002269927877932787,-0.01541035808622837,-0.005528596695512533,0.022206082940101624,-0.029759306460618973,0.021137231960892677,0.023904792964458466,-0.009995164349675179,-0.031000571325421333,-0.04568982869386673,-0.020736675709486008,0.03146517649292946,0.038406919687986374,0.008898267522454262,-0.027903255075216293,0.020943298935890198,0.003031723201274872,-0.012640458531677723,-0.021595150232315063,0.03918597474694252,-0.0029419506900012493,0.027474811300635338,-0.024230746552348137,0.05381682515144348,0.014569551683962345,-0.021059010177850723,0.013389135710895061,0.026125365868210793,-0.007461796049028635,-0.005704446230083704,0.020677262917160988,-0.04359631985425949,0.022867396473884583,0.04071151092648506,0.027304962277412415,0.017217259854078293,-0.01810561493039131,0.005581926088780165,-0.042469654232263565,-0.03150211274623871,0.030093954876065254,-0.04282902553677559,0.0009187185205519199,0.03264891728758812,-0.0006797453388571739,-0.00019945483654737473,-0.013205720111727715
CID000119607,-0.013467011973261833,0.03525783494114876,-0.004738107323646545,0.027692886069417,-0.029909338802099228,-0.017401613295078278,-0.022865422070026398,0.02663925662636757,0.041939910501241684,0.025734975934028625,0.020835142582654953,0.011644634418189526,0.06592220813035965,-0.008943035267293453,0.01664680615067482,0.05139772593975067,0.045839663594961166,-0.009896872565150261,0.024666784331202507,0.015390950255095959,0.01880044676363468,-0.021239658817648888,0.008989519439637661,-0.005881336517632008,0.008279994130134583,0.027611175552010536,0.014989024959504604,0.010086740367114544,0.04289952665567398,-0.018672823905944824,0.020373806357383728,-0.031163230538368225,0.0034303097054362297,0.05743080750107765,-0.01742543652653694,-0.00560587365180254,0.006021308712661266,0.04907570034265518,-0.006318593863397837,0.03643106296658516,-0.034134265035390854,0.024729829281568527,0.03646308183670044,0.008289177902042866,-0.02572275511920452,-0.042286019772291183,0.02860560268163681,-0.028746597468852997,0.03966342285275459,0.01551640685647726,0.004311865195631981,0.027978280559182167,-0.030484607443213463,-0.03386100381612778,-0.03326356038451195,-0.011537136510014534,-0.0024750125594437122,-0.022736236453056335,-0.043914344161748886,-0.011904174461960793,-0.010176586918532848,-0.04279538244009018,0.01917589083313942,-0.00010275142267346382,0.034892939031124115,0.011621582321822643,-0.031851693987846375,0.03781190142035484,0.02706199698150158,0.009604055434465408,-0.021770548075437546,0.04851193353533745,-0.01971130073070526,0.02636144869029522,0.004938049241900444,0.00783838052302599,-0.006963140796869993,0.019736260175704956,0.03704414144158363,-0.02804327756166458,-0.011888454668223858,-0.01336848083883524,-0.04921111464500427,0.05003802478313446,-0.0088645089417696,0.024752724915742874,0.03720143437385559,0.030324187129735947,0.02348778024315834,0.004716529510915279,0.02935979887843132,-0.0027201706543564796,0.018785076215863228,-0.002666955813765526,0.03737315163016319,0.018627319484949112,-0.018960587680339813,-0.03831132873892784,0.04466439411044121,-0.010127757675945759,-0.04544297233223915,0.02271467261016369,-0.015617402270436287,0.008243865333497524,-0.003671366721391678,0.006275591440498829,0.02882460504770279,-0.023992668837308884,0.047383133322000504,-0.0034819068387150764,-0.002911263145506382,-0.0021382002159953117,-0.011290544643998146,0.007726731244474649,0.05343601852655411,0.02972261607646942,-0.035003986209630966,0.0199896227568388,-0.0041345348581671715,-0.005653082393109798,-0.019965436309576035,-0.049036093056201935,0.01471671462059021,0.03789224475622177,-0.013655073940753937,0.009692414663732052,0.022259104996919632,0.03241439908742905,0.012560352683067322,0.0350903682410717,-0.020118311047554016,-0.0066050267778337,0.019197598099708557,0.016203999519348145,0.002854839898645878,0.018586959689855576,-0.0016737584955990314,-0.016543900594115257,0.0353056974709034,0.009382919408380985,0.015382973477244377,0.016829855740070343,0.04723086208105087,-0.03542756661772728,0.007197755854576826,-0.02682330459356308,-0.01765071228146553,-0.005403941031545401,0.05047319829463959,0.033837322145700455,0.035265978425741196,0.003285737242549658,-0.011625709012150764,0.03261160850524902,-0.006749200634658337,-0.022375503554940224,0.03826485201716423,0.04395962879061699,-0.0034522898495197296,-0.019504845142364502,0.04103590548038483,0.021880414336919785,0.037094540894031525,-0.029567884281277657,-0.015863589942455292,-0.03220418095588684,-0.014622512273490429,0.012696845456957817,-0.026431044563651085,-0.009791097603738308,0.014036010950803757,0.0016207057051360607,-0.021860096603631973,0.04171918332576752,0.012632874771952629,-0.025270801037549973,0.004983894526958466,0.024544453248381615,0.014909847639501095,0.03581558167934418,0.03917339816689491,0.050468023866415024,-0.004359171725809574,-0.01899915188550949,-0.005353610496968031,-0.0037728804163634777,-0.024916239082813263,-0.027188528329133987,-0.03069744072854519,0.016483521088957787,0.027329370379447937,-0.01268762070685625,0.03564088046550751,0.009447358548641205,0.03328939527273178,0.023714996874332428,0.011211464181542397,0.00869114138185978,0.028540121391415596,0.029065193608403206,-0.007374201901257038,-0.007977775298058987,-0.03135653957724571,-0.005421794019639492,0.04055396094918251,0.0033754021860659122,-0.026887331157922745,-0.008080114610493183,0.038560159504413605,-0.03716152533888817,0.030193766579031944,0.008804479613900185,0.025142448022961617,0.02576814591884613,0.030937282368540764,0.04185788333415985,0.020032372325658798,-0.004182892851531506,-0.051506996154785156,-0.01783430576324463,0.015554720535874367,0.04249940812587738,-0.034381549805402756,-0.014447812922298908,0.012505674734711647,0.04253073409199715,0.04098276048898697,0.020627358928322792,0.029622593894600868,0.02806091494858265,0.048394426703453064,0.019055167213082314,0.009103340096771717,0.01809346117079258,0.022886386141180992,0.04897451028227806,0.033125896006822586,-0.01777796261012554,0.013463377021253109,-0.016826778650283813,-0.009255019947886467,0.008132247254252434,0.036544885486364365,-0.008321799337863922,0.008917245082557201,-0.031139492988586426,0.022102875635027885,0.025085533037781715,-0.007847832515835762,0.009247560054063797,0.0005964008159935474,-0.0020277630537748337,-0.029568616300821304,-0.00275616766884923,-0.006025093607604504,-0.012794855050742626
CID000004889,0.016429416835308075,0.04534536972641945,-0.03748146817088127,0.03019993007183075,-0.02792494371533394,-0.04823094606399536,-0.019877657294273376,-0.027849216014146805,-0.0057706874795258045,-0.021464135497808456,0.002859247848391533,0.01874355413019657,-0.002105033490806818,0.03358246386051178,0.04502206668257713,0.03880760818719864,-0.03786994144320488,0.01612330973148346,-0.028029169887304306,0.040868379175662994,0.005247737281024456,-0.012729180045425892,0.012552552856504917,-0.045492395758628845,0.02663595788180828,0.04732092097401619,0.009250178933143616,-0.03486320376396179,0.05170227959752083,-0.001540756318718195,0.02342095971107483,-0.05257701128721237,0.018250666558742523,0.008572169579565525,-0.025142719969153404,0.03151227533817291,0.01036112755537033,-0.028147803619503975,-0.004616222810000181,-0.032013170421123505,0.0353204607963562,-0.04185401648283005,0.032862793654203415,0.024980494752526283,0.036098457872867584,0.04194236546754837,-0.006593910977244377,0.011343341320753098,-0.027350133284926414,0.00378114590421319,0.036755308508872986,-0.03145718201994896,0.0348534993827343,-0.011430658400058746,0.005077870562672615,-0.04292231798171997,0.013965988531708717,-0.002219132147729397,-0.012334983795881271,-0.029610270634293556,0.0309426411986351,0.004275346174836159,0.04785725101828575,0.009736617095768452,-0.0031249942258000374,-0.04381075128912926,-0.026875104755163193,-0.020191999152302742,0.02739265374839306,0.01982780173420906,0.012988882139325142,-0.026895513758063316,0.002729947678744793,0.017689410597085953,-0.014169298112392426,0.021534254774451256,0.04274354502558708,-0.022097453474998474,0.021028755232691765,-0.004351538605988026,0.012089096941053867,0.02772708237171173,0.010902811773121357,0.044536639004945755,-0.007654199376702309,0.03887986019253731,0.037548456341028214,-0.03153267502784729,-0.026117900386452675,0.028767647221684456,-0.04205271601676941,0.025405213236808777,-0.052150286734104156,-0.044485487043857574,0.023222273215651512,0.03935083746910095,0.04590155556797981,-0.01781458780169487,-0.021258791908621788,0.030899671837687492,0.0028879407327622175,0.02488010749220848,-0.015657996758818626,-0.026243750005960464,0.004350098315626383,0.04185688495635986,0.03294304013252258,0.004572291858494282,0.04344610497355461,-0.032248519361019135,0.019243504852056503,0.029904108494520187,0.033429890871047974,0.036454178392887115,0.023568062111735344,-0.008185782469809055,0.021076558157801628,0.03870207443833351,-0.045128799974918365,-0.029531316831707954,0.026360955089330673,0.025306139141321182,0.010526794008910656,-0.0416424386203289,0.026573561131954193,-0.034284282475709915,0.015079846605658531,-0.006227022502571344,-0.01801193319261074,-0.020658109337091446,-0.006270468235015869,-0.00014821812510490417,-0.002834985964000225,-0.032748475670814514,0.0022397516295313835,0.042686086148023605,-0.035475581884384155,0.016554197296500206,-0.0031613968312740326,0.04374993219971657,0.03281048312783241,0.033590007573366165,-0.044354215264320374,0.020390363410115242,0.013031816110014915,-0.035642895847558975,-0.048548586666584015,-0.00034146005054935813,0.02486995980143547,-0.008196361362934113,0.00374975660815835,0.002832399681210518,0.005795925855636597,-0.014092165976762772,-0.015924420207738876,-0.03086232766509056,0.03175578638911247,0.017120391130447388,-0.008024418726563454,-0.004279445856809616,-0.02524028904736042,0.015189429745078087,-0.03268886357545853,-0.03435079753398895,-0.013928609900176525,-0.04291820153594017,-0.008116192184388638,0.03620890900492668,-0.019892048090696335,-0.04793945699930191,0.029014818370342255,0.033336468040943146,-0.0002263486385345459,0.044869422912597656,0.016811948269605637,0.030395114794373512,0.031655266880989075,0.0025989979039877653,-0.03339410200715065,0.00501090195029974,0.03590242564678192,-0.007346265017986298,0.029557570815086365,-0.019220896065235138,0.03195973113179207,-0.0402427576482296,-0.000746354868169874,-0.048266127705574036,0.02748759463429451,0.041051749140024185,-0.007959986105561256,0.006897454150021076,0.026157449930906296,-0.0013694954104721546,-0.036782197654247284,0.030629541724920273,0.016247067600488663,0.005457911174744368,-0.014882871881127357,0.0245100986212492,0.015060225501656532,-0.0068450551480054855,0.04530716314911842,0.009610622189939022,-0.011500362306833267,0.03579188883304596,0.0551040954887867,0.016778573393821716,0.010208865627646446,-0.022253377363085747,0.032100778073072433,-0.00640673516318202,0.02384471520781517,-0.017607713118195534,-0.002108875662088394,0.003924097865819931,0.010408036410808563,0.023495560511946678,-0.019746923819184303,0.018925998359918594,0.02954186126589775,-0.030402475968003273,-0.0025300253182649612,0.04267410188913345,0.0015296530909836292,-0.03411656990647316,0.042647115886211395,-0.046608760952949524,0.03138463944196701,0.0072891912423074245,0.049066394567489624,-0.04107964038848877,0.03452685847878456,0.024266047403216362,0.020273912698030472,0.012859326787292957,-0.013087686151266098,-0.051442477852106094,-0.006844035815447569,0.0502350740134716,-0.03647182136774063,0.030827291309833527,0.03866838663816452,0.004793803207576275,-0.020469076931476593,-0.02385367639362812,0.0405084490776062,-0.00395678635686636,0.02006487548351288,-0.007425833493471146,-0.02795887365937233,0.022252310067415237,0.018058497458696365,-0.03613181412220001,0.025294993072748184,-0.022757863625884056
CID000003154,-0.03164053335785866,0.03501906245946884,-0.03495243191719055,-0.012316162697970867,-0.015727574005723,-0.02960379607975483,-0.010905521921813488,-0.014390846714377403,-0.027147777378559113,0.0213391724973917,-0.044692739844322205,0.02006910741329193,-0.033643532544374466,-0.02906958758831024,0.04367119446396828,-0.019375963136553764,-0.010331935249269009,0.007457534782588482,-0.009561988525092602,0.01415828987956047,0.001522168517112732,-0.010606802999973297,-0.013073787093162537,0.019889740273356438,0.01163606159389019,-0.04402274265885353,-0.03001800924539566,0.036560673266649246,0.0002440502867102623,0.023757733404636383,0.0340082012116909,-0.012145675718784332,0.016246328130364418,-0.0009590699337422848,0.01816328428685665,-0.026242438703775406,0.024765977635979652,-0.011475890874862671,0.04083709418773651,0.006826224736869335,-0.0019398340955376625,0.008308690041303635,0.0340016633272171,-0.030695322901010513,0.015059636905789375,0.02846774086356163,-0.03035399317741394,0.006131330039352179,0.001141211250796914,0.001269499771296978,-0.007258898112922907,0.040945012122392654,0.023896396160125732,-0.00011438617366366088,0.037126243114471436,0.03407032787799835,0.01984253153204918,-0.029174186289310455,0.002070999937132001,0.01932401955127716,-0.03661039099097252,0.0017258495790883899,-0.00639547873288393,0.03103777766227722,0.02440718188881874,-0.03940724954009056,-0.046495579183101654,0.0393342450261116,0.02088243141770363,-0.006282247602939606,-0.025872772559523582,0.001426241360604763,0.018449777737259865,-0.0025755735114216805,0.01159182470291853,0.0473819300532341,0.0030755940824747086,0.025644147768616676,0.03649348393082619,0.020470811054110527,-0.03400573506951332,-0.012539612129330635,-0.04075383394956589,0.010092838667333126,-0.0013153455220162868,-0.039669349789619446,0.03684508055448532,-0.022112088277935982,0.042370472103357315,-0.009958033449947834,-0.022515516728162766,-0.03286248445510864,0.04135647416114807,-0.006695033982396126,-0.03427768498659134,0.053524449467659,0.008023809641599655,0.03593233972787857,0.010118452832102776,-0.023761028423905373,-0.016609949991106987,0.00020983582362532616,-0.03187643736600876,0.006762480363249779,-0.03823208808898926,0.02423475682735443,-0.02824007347226143,-0.021806610748171806,-0.01908780261874199,0.0401216521859169,-0.004227565601468086,-0.00019538402557373047,0.032920874655246735,-0.0036193570122122765,0.0209540743380785,-0.027800623327493668,-0.04367637261748314,0.01670006290078163,-0.011819514445960522,0.0552707239985466,0.00618630601093173,-0.012344573624432087,0.03586976230144501,0.008653804659843445,0.02403668873012066,-0.04073667526245117,-0.04281800240278244,-0.017876461148262024,0.00925629585981369,-0.00033762259408831596,-0.00986892357468605,0.002708760555833578,-0.03484606370329857,0.04453054815530777,-0.004797454923391342,-0.019650481641292572,-0.009511870332062244,-0.00767225306481123,-0.009728331118822098,0.024125754833221436,-0.032523952424526215,0.035547878593206406,-0.02095739170908928,0.020070524886250496,0.006734820082783699,0.044338420033454895,-0.00918296817690134,0.05126413702964783,0.0060949064791202545,0.035250261425971985,0.01634056121110916,0.018284983932971954,-0.03687233477830887,-0.04941780865192413,-0.03602088987827301,0.01807844266295433,-0.011031020432710648,0.047357335686683655,-0.0321311317384243,0.032423656433820724,-0.004961076192557812,-0.03180265426635742,-0.028094301000237465,-0.03096861019730568,0.01691575162112713,-0.01761861890554428,0.01778920739889145,-0.021599147468805313,0.00857521966099739,0.003824148327112198,-0.035880640149116516,-0.032421939074993134,0.023730700835585594,-0.018492883071303368,-0.015075831674039364,0.01644038036465645,-0.03580574691295624,0.029138240963220596,-0.003067949553951621,0.04136126860976219,-0.008122238330543041,-0.02455555647611618,0.041949182748794556,0.014577335678040981,0.029353812336921692,0.021578487008810043,-0.0047827307134866714,0.029190324246883392,-0.018645718693733215,0.020558904856443405,-0.03754248097538948,0.032143231481313705,0.05133330449461937,-0.047078050673007965,0.026581909507513046,0.02183682471513748,0.039871104061603546,0.044136159121990204,0.022063732147216797,0.037273209542036057,0.01687728241086006,0.034136299043893814,-0.020462140440940857,-0.04098598286509514,0.03639746084809303,-0.015543296933174133,0.05228535085916519,-0.010191172361373901,0.008700896054506302,-0.04400667920708656,0.042439889162778854,0.023657696321606636,0.02335074543952942,0.03868437558412552,0.05819800868630409,-0.04906056448817253,0.013297758996486664,-0.03440255671739578,-0.013152058236300945,0.019175147637724876,0.015769310295581818,0.05537471920251846,-0.02736717462539673,0.0014403248205780983,0.0036866068840026855,-0.05063778907060623,-0.0025687324814498425,0.0020423599053174257,0.03892093151807785,0.026331886649131775,0.027619747444987297,-0.002515106461942196,0.04994066804647446,-0.023835550993680954,0.042177971452474594,-0.013819096609950066,-0.049960438162088394,0.029651183634996414,-0.0149270324036479,-0.023331420496106148,-0.007939680479466915,0.005033585242927074,-0.006862342357635498,0.0314488410949707,0.02725108154118061,-0.04341994971036911,-0.008919854648411274,0.028695736080408096,-0.00011504138819873333,-0.027770966291427612,-0.012057280167937279,-0.0358005166053772,-0.026499781757593155,-0.011328285560011864,-0.009535180404782295,-0.003285652957856655
CID000005029,0.030421771109104156,0.028467653319239616,-0.011426209472119808,0.05901782214641571,0.03638602793216705,-0.01759529486298561,0.04151330143213272,0.027929481118917465,-0.003450648859143257,-0.03594160079956055,-0.03752254694700241,0.010509025305509567,0.03329245001077652,-0.03788120299577713,0.0026030167937278748,0.03880218788981438,0.02955464832484722,-0.04750609025359154,0.01525211799889803,-0.00896378979086876,0.050059884786605835,0.02558423951268196,-0.04846304655075073,0.05194558948278427,-0.022147297859191895,0.04018378257751465,0.014436747878789902,-0.022670887410640717,-0.01441872213035822,-0.05068014934659004,0.03630842640995979,-0.029482631012797356,0.03029487654566765,0.025191456079483032,0.00833649467676878,0.0368875153362751,0.013672923669219017,-0.013558072969317436,0.04580041766166687,-0.04983004182577133,0.01130281575024128,0.015260035172104836,0.0511920228600502,0.021505553275346756,0.035453490912914276,0.02236960269510746,0.01903655007481575,0.0016497233882546425,-0.00820714607834816,0.06886603683233261,0.030976058915257454,-0.03378256410360336,-0.043002258986234665,0.02392486482858658,0.006161674857139587,-0.013768479228019714,-0.004505557008087635,-0.025088787078857422,0.050902824848890305,0.0012747934088110924,0.010942998342216015,0.040981732308864594,-0.010640833526849747,-0.030038081109523773,-0.0077463057823479176,-0.022276509553194046,-0.02169792354106903,-0.04367863014340401,0.02001781575381756,0.023510046303272247,0.0013010804541409016,-0.04210200533270836,0.027836952358484268,-0.014469821006059647,-0.01756390556693077,-0.03682315722107887,0.0069342851638793945,-0.020490139722824097,0.0201578289270401,0.02894560992717743,-0.03953451290726662,-0.02037741430103779,-0.028907211497426033,-0.025224657729268074,-0.015300469473004341,-0.007761444430798292,-0.0009026853367686272,-0.01142557617276907,-0.02342364564538002,-0.030323633924126625,-0.009483562782406807,0.004304507747292519,0.01174961682409048,0.0066927107982337475,0.025979170575737953,-0.045519884675741196,0.0303823072463274,-0.01041632704436779,-0.04251953214406967,-0.0408191904425621,0.02399672009050846,0.015390127897262573,-0.005687793716788292,-0.013180769048631191,0.04225209727883339,-0.03810558095574379,0.009153748862445354,0.009547294117510319,-0.0056314594112336636,0.03561827540397644,-0.022956104949116707,-0.013209743425250053,-0.011222613975405693,-0.000974381691776216,-0.016540877521038055,-0.024653593078255653,-0.046780191361904144,0.00515455286949873,-0.0042335763573646545,0.02650531381368637,0.03441247716546059,0.002914254553616047,0.018157584592700005,0.0061230845749378204,-0.022708266973495483,-0.02054682746529579,-0.034820307046175,0.025054706260561943,0.0033711865544319153,0.03164845332503319,0.0015335113275796175,0.041489873081445694,-0.004959292709827423,0.004893360193818808,0.04061543196439743,0.016497820615768433,0.021846912801265717,-0.021980855613946915,-0.005098326131701469,0.04016030207276344,0.010805260390043259,-0.040852680802345276,0.005264262668788433,-0.02674676477909088,0.03749899938702583,-0.009323937818408012,0.01714317686855793,-0.02382412552833557,0.05407053977251053,0.0520532988011837,-0.03313259035348892,-0.05381593853235245,0.012508435174822807,0.02730831690132618,0.023027338087558746,0.01148582249879837,0.028356187045574188,0.040090978145599365,0.004616084508597851,0.03446460887789726,0.015518836677074432,0.013349715620279312,0.04939877241849899,0.033310480415821075,0.01516764611005783,-0.008402818813920021,0.047063760459423065,-0.020766664296388626,0.012790707871317863,-0.028626607730984688,-0.0022930214181542397,0.039677150547504425,-0.03329946845769882,-0.01264994964003563,0.016971483826637268,0.04746697470545769,0.02976173907518387,-0.04029937461018562,0.029661256819963455,-0.03076387755572796,0.007343091070652008,-0.024501508101820946,0.01111326552927494,0.026268772780895233,0.02484249137341976,0.04827723279595375,-0.03327241912484169,-0.039467718452215195,0.04952950030565262,0.015680566430091858,-0.03930480405688286,0.02623628079891205,0.001734321704134345,-0.027960773557424545,0.024327294901013374,-0.0370602048933506,0.0024883681908249855,0.003467933274805546,-0.0024867155589163303,-0.03999238461256027,0.026722563430666924,0.040968429297208786,-0.05056019127368927,-0.03424668312072754,0.018170494586229324,0.04043455421924591,-0.029955126345157623,-0.017061397433280945,0.05338653549551964,0.03316466510295868,0.025223907083272934,0.02369411662220955,0.02697385661303997,0.057572588324546814,0.02123035490512848,0.018831539899110794,-0.006055029574781656,0.0356944315135479,-0.038073256611824036,0.034935787320137024,-0.0011434393236413598,0.0003265001578256488,-0.013211620971560478,0.055808741599321365,-0.013903639279305935,0.03926200792193413,-0.02640821412205696,0.02680877409875393,-0.018177416175603867,0.011742128059267998,0.05167759954929352,-0.007697594352066517,-0.004557203501462936,-0.011706117540597916,0.010018005035817623,0.04443792626261711,-0.006609918549656868,0.03580106049776077,-0.025615893304347992,0.017283448949456215,-0.017084933817386627,0.050490107387304306,0.0035811199340969324,0.0036310828290879726,-0.01835663989186287,-0.03451131284236908,0.032994408160448074,0.029941260814666748,-0.025981774553656578,0.04389790818095207,0.015168700367212296,-0.003641149029135704,0.02208823524415493,-0.0004317613784223795,0.011124053969979286,-0.002737537957727909
CID000003823,-0.04056213051080704,0.03304170072078705,0.04141996055841446,0.04754982143640518,0.017734073102474213,-0.04710862785577774,-0.021963199600577354,0.03244825452566147,-0.005242711864411831,-0.03794274106621742,-0.027210690081119537,0.0030358238145709038,-0.009815089404582977,-0.01218036562204361,0.009219628758728504,0.0021404800936579704,-0.04401621222496033,-0.004640622995793819,0.0249171145260334,0.026353884488344193,-0.03115985170006752,0.01266764011234045,-0.02655324712395668,0.010023544542491436,0.030548738315701485,-0.029439006000757217,0.006368414498865604,-0.03459981828927994,-0.02716117538511753,0.04737430065870285,-0.030450880527496338,0.028285253793001175,-0.023791061714291573,-0.02791985124349594,0.031449127942323685,0.014161232858896255,-0.0029924819245934486,0.012549709528684616,0.028538916260004044,0.011243240907788277,0.00977461226284504,0.009077304974198341,0.00044554006308317184,0.03276713937520981,0.03121240809559822,0.022359611466526985,0.04870812967419624,-0.042581815272569656,0.012989851646125317,0.02692478336393833,-0.03698376566171646,0.01990056224167347,0.03589855134487152,-0.03711196035146713,0.04253878444433212,-0.008351880125701427,-0.019018011167645454,0.021529333665966988,-0.025121843442320824,0.03896384686231613,-0.0084889717400074,0.0028706334996968508,0.004910426679998636,-0.01056014746427536,0.03893209993839264,-0.010178355500102043,-0.035684287548065186,-0.018600448966026306,-0.016228431835770607,0.0035278971772640944,-0.04838484525680542,-0.028256913647055626,0.04558509960770607,-0.00010293698869645596,-0.01087519433349371,-0.03787360340356827,-0.013154995627701283,0.010673372074961662,-0.01592818833887577,-0.01598118245601654,-0.02359819784760475,-0.01690453104674816,-0.008392675779759884,-0.034997254610061646,0.028379615396261215,0.014557816088199615,-0.01192790549248457,0.020431209355592728,-0.005631804931908846,0.04399307444691658,-0.018673323094844818,0.015408498235046864,0.04606598988175392,0.030313853174448013,0.014271602034568787,0.020280426368117332,-0.026355519890785217,0.051138341426849365,0.019997460767626762,0.01441202498972416,0.027231669053435326,0.025109518319368362,-0.017799517139792442,0.02333967760205269,0.02271312102675438,0.032087087631225586,0.01893480308353901,-0.008502094075083733,0.01792590692639351,-0.01895475946366787,-0.002084797015413642,0.039798520505428314,-0.021004727110266685,-0.030500056222081184,-0.01983330398797989,0.027469806373119354,-0.017155246809124947,0.01780444011092186,0.02531353011727333,-0.03790750354528427,0.00919869914650917,0.026779795065522194,-0.028965748846530914,0.024566015228629112,0.03952081501483917,-0.03386910259723663,-0.02695360593497753,-0.0012805694714188576,-0.0013882280327379704,-0.02474760264158249,-0.0080980584025383,-0.006702213082462549,-0.04870596155524254,-0.0041364580392837524,0.02312566339969635,-0.024490782991051674,-0.029443368315696716,0.01306314766407013,0.039613720029592514,-0.008205493912100792,0.014814181253314018,-0.009413208812475204,0.0372556708753109,0.03153010830283165,-0.00015823263674974442,0.018472889438271523,-0.024455314502120018,0.021702200174331665,0.04106537997722626,0.02285878360271454,0.028547432273626328,0.022333815693855286,-0.012568486854434013,-0.04216812551021576,0.03212456405162811,-0.028793051838874817,-0.04892943426966667,-0.02368398755788803,0.04034418985247612,-0.037881482392549515,-0.02082744613289833,0.00408037006855011,-0.014928269200026989,0.009457435458898544,0.024737726897001266,0.02323976717889309,-0.011708938516676426,-0.018810592591762543,0.024794744327664375,-0.003954634536057711,0.029849331825971603,-0.028710996732115746,0.020174821838736534,0.004336991347372532,-0.028715774416923523,-0.008747396990656853,0.026977427303791046,0.00893748365342617,-0.018857445567846298,-0.0272475965321064,0.02456561289727688,0.04976808279752731,-0.0031226896680891514,0.03651951253414154,-0.04023860767483711,0.025050252676010132,-0.000848633237183094,-0.028653884306550026,0.006664236541837454,-0.008860217407345772,-0.003232532413676381,-0.023302864283323288,0.019334467127919197,0.017851807177066803,-0.04175139591097832,-0.04375404864549637,0.035436492413282394,0.03334670141339302,0.0346832349896431,-0.015038220211863518,0.006733863614499569,0.013980496674776077,0.04065021499991417,0.03843235969543457,-0.03436486795544624,-0.04466550424695015,-0.030763890594244003,-0.04093445837497711,-0.00987050961703062,0.013038006611168385,-0.034837812185287476,-0.02897433377802372,-0.01918363757431507,0.04752027615904808,0.021430302411317825,0.019117288291454315,0.005927763879299164,-0.04164378345012665,0.032278165221214294,0.03578725457191467,0.025464242324233055,0.0052816057577729225,-0.023329582065343857,-0.03864613175392151,0.0003801025450229645,-0.035679131746292114,0.013307781890034676,-0.04984995722770691,0.03806006535887718,0.004196934401988983,0.047649167478084564,-0.012629400007426739,-0.0384170264005661,0.021341383457183838,0.014137577265501022,0.009926830418407917,0.0033574309200048447,-0.024305637925863266,0.027055326849222183,0.025952184572815895,-0.00564399641007185,-0.031099993735551834,0.018025992438197136,-0.03266632929444313,-0.030431708320975304,-0.018436400219798088,0.04314015805721283,0.013532954268157482,0.00791336689144373,0.0006742863915860653,0.037981193512678146,-0.033895157277584076,-0.013223055750131607,0.02105393260717392,0.052130986005067825,-0.027185451239347458
CID000003937,0.02025817334651947,-0.005947508849203587,-0.000931836199015379,0.02136654406785965,-0.03187432140111923,0.01826654002070427,-0.0011757512111216784,0.04956710338592529,0.029935065656900406,0.03576875850558281,0.031874656677246094,0.03339185193181038,-0.001670887228101492,0.026207558810710907,-0.029499314725399017,0.0035026948899030685,0.008380566723644733,0.02471647597849369,0.02219894528388977,0.029071245342493057,-0.016352208331227303,-0.0117495721206069,0.04130592197179794,0.022519737482070923,0.03364018350839615,-0.002287414390593767,0.0013318699784576893,-0.001035541296005249,0.004961599130183458,0.03849338740110397,-0.0022602975368499756,0.039411287754774094,-0.028931714594364166,0.029519401490688324,-0.008586633019149303,-0.01416722685098648,0.015747498720884323,-0.05164710059762001,-0.04331064224243164,0.03587266802787781,-0.020296556875109673,-0.010435832664370537,0.04740651696920395,0.009793812409043312,-0.011005371809005737,0.0037379281129688025,-0.016645923256874084,-0.016864005476236343,0.03855602815747261,-0.037985820323228836,-0.0006445730105042458,-0.023329759016633034,-0.0321609228849411,-0.04898028075695038,0.027650674805045128,-0.003985003102570772,-0.029232816770672798,-0.02253355085849762,0.007009374909102917,-0.017788877710700035,-0.026019740849733353,-0.004477532580494881,0.007412282284349203,0.02565993182361126,0.01979885995388031,-0.013105963356792927,0.02431732416152954,0.06299620866775513,0.062298912554979324,-0.011155245825648308,-0.05810512602329254,0.0013178791850805283,0.026411209255456924,-0.02934420481324196,-0.007966732606291771,0.012069392018020153,-0.018280040472745895,0.002664487808942795,0.031243370845913887,0.025479702278971672,-0.025700002908706665,-0.02688167244195938,0.04263000562787056,0.0007762201130390167,0.032103780657052994,-0.023354684934020042,0.00826004333794117,0.033019423484802246,0.06299933791160583,-0.01192561537027359,0.03616483882069588,-0.028533820062875748,0.04750695824623108,0.043330803513526917,0.02606699988245964,-0.018785858526825905,-0.014266358688473701,0.017195450142025948,-0.017293568700551987,0.03881058469414711,0.027622150257229805,0.011712300591170788,0.028560779988765717,0.010814126580953598,-0.04067934304475784,-0.0007092352025210857,0.018369805067777634,-0.02563205175101757,0.03775840252637863,-0.03327261656522751,0.050529368221759796,0.05166799575090408,0.05918281152844429,-0.004237753339111805,-0.0034512095153331757,0.001378064975142479,0.0032512499019503593,-0.006114497315138578,0.029193412512540817,0.018639374524354935,-0.006333556026220322,0.026810884475708008,-0.029777495190501213,0.03614218533039093,0.02419738471508026,0.04142735153436661,-0.027841463685035706,0.03425654023885727,0.0006977394223213196,-0.04683884233236313,0.026125073432922363,-0.05102938413619995,0.018245134502649307,0.038225091993808746,0.015502948313951492,0.04157298803329468,0.014872461557388306,-0.015416344627737999,0.0003380761481821537,-0.02957405522465706,-0.05017121136188507,0.026702752336859703,0.017930323258042336,0.03221207857131958,0.041541192680597305,-0.005161571782082319,0.030339263379573822,-0.010531652718782425,0.008066046983003616,0.01509455032646656,0.019606806337833405,-0.0053245676681399345,-0.033740267157554626,0.005597610492259264,-0.02388088032603264,-0.045103807002305984,0.008433597162365913,0.048403047025203705,-0.04452315345406532,-0.02262956276535988,0.031790852546691895,0.030583787709474564,0.0022532318253070116,-0.01438882015645504,0.007896466180682182,0.030217912048101425,-0.03830909729003906,-0.056967832148075104,-0.05607861652970314,-0.0327267087996006,-0.007547272369265556,0.06306063383817673,-0.032651953399181366,0.040703464299440384,0.022211609408259392,-0.01807265169918537,-0.014443143270909786,0.023442067205905914,0.008885880932211876,0.03924155980348587,-0.022600863128900528,-0.037853192538022995,-0.01705228164792061,0.04065633565187454,-0.03549623489379883,0.043685510754585266,0.022061176598072052,0.026126686483621597,0.018271874636411667,0.012232759036123753,0.041287653148174286,0.0014610528014600277,-0.002773027867078781,0.02435852587223053,-0.024105459451675415,0.024693846702575684,-0.06015864387154579,0.027192577719688416,-0.02721862494945526,-0.0022667525336146355,0.03205885365605354,-0.013892282731831074,0.013981088064610958,0.009882748126983643,-0.0030527282506227493,-0.0005920771509408951,0.032065119594335556,0.02004808932542801,-0.00489343237131834,-0.017277520149946213,0.00648769736289978,-0.033182188868522644,-0.004753579385578632,-0.004419963341206312,0.0452464297413826,-0.023826638236641884,-0.043537650257349014,-0.0023332079872488976,-0.005890685133635998,0.004166246857494116,-0.000592106836847961,-0.007507771253585815,-0.04422703757882118,-0.01615140587091446,-0.011984615586698055,0.03322651609778404,0.019909195601940155,-0.03245503455400467,-0.033007100224494934,-0.023076405748724937,-0.013863354921340942,-0.013059824705123901,-0.032790713012218475,-0.017460942268371582,-0.02449038252234459,0.0022142883390188217,0.010780461132526398,-0.020128194242715836,-0.0008110679918900132,0.03775840252637863,0.002907684538513422,-0.02904351055622101,-0.048984345048666,-0.02674710564315319,0.017557593062520027,0.04689163714647293,-0.01725892350077629,0.012010430917143822,-0.017572665587067604,0.014262057840824127,-0.049592338502407074,-0.016263224184513092,0.045266538858413696,-0.013572360388934612,0.02509646862745285,0.04413077235221863
CID000003883,-0.020615650340914726,0.024741187691688538,0.023431871086359024,-0.018022064119577408,-0.0025007016956806183,0.026103558018803596,0.04284581169486046,0.03403661400079727,0.022867349907755852,-0.02361501194536686,-0.011194712482392788,-0.024211063981056213,0.0009670471772551537,0.021474383771419525,0.014425398781895638,0.02273775078356266,-0.0249025858938694,-0.028634628280997276,-0.04926006495952606,-0.039911795407533646,0.025310203433036804,0.00037992140278220177,0.04398036748170853,-0.006266050972044468,-0.023569203913211823,0.0034311097115278244,0.00021095783449709415,0.039561815559864044,0.0026953816413879395,-0.02494071237742901,0.05040229484438896,0.06459389626979828,0.0412086620926857,-0.022019214928150177,-5.245255306363106e-05,0.04136388748884201,-0.023828186094760895,-0.04539846256375313,-0.013350075110793114,0.025584492832422256,0.028317786753177643,0.04164891690015793,-0.00935114361345768,0.0280805304646492,-0.008614843711256981,-0.0245584174990654,0.027770817279815674,0.025161083787679672,0.027863118797540665,-0.0012077679857611656,-0.02178840897977352,-0.001379581168293953,0.025657325983047485,-0.012926116585731506,0.0056917620822787285,-0.03437724709510803,0.039146605879068375,-0.0024909297935664654,0.00915226899087429,-0.04205730929970741,-0.01578133925795555,0.055101823061704636,-0.04657917842268944,0.004046680871397257,0.047463685274124146,-0.025036709383130074,-0.06233123689889908,-0.0004854290746152401,-0.0010710973292589188,0.023199260234832764,-0.004247779492288828,0.03665517270565033,0.025210000574588776,-0.04183235391974449,0.010178624652326107,0.006717420183122158,-0.024553019553422928,-0.05362281948328018,0.021098624914884567,0.007430884521454573,0.03018258884549141,-0.004289703443646431,-0.019435662776231766,0.03995242714881897,0.034387215971946716,-0.03951455280184746,-0.042467836290597916,-0.027204196900129318,0.03033364936709404,0.03264135122299194,0.007604474201798439,-0.031035684049129486,-0.03199125453829765,0.0033802264370024204,-0.043882984668016434,-0.016264989972114563,-0.0043700202368199825,0.04524135962128639,0.016285795718431473,-0.03711569309234619,0.01289859227836132,-0.007279527373611927,-0.03199180215597153,0.0057409824803471565,0.00042340997606515884,0.00489987013861537,0.017453763633966446,0.004093843977898359,-0.024885237216949463,-0.0020290501415729523,-0.024443387985229492,-3.3478718250989914e-05,-0.03316630423069,-0.013369080610573292,-0.017596140503883362,-0.02311575971543789,0.01627933792769909,0.053377848118543625,0.031031547114253044,0.015367293730378151,0.06363639235496521,-0.029804103076457977,-0.02743184193968773,0.031231097877025604,0.02276793122291565,0.048454999923706055,-0.029600102454423904,-0.026226088404655457,0.0036196550354361534,0.01156371459364891,0.0315726101398468,-0.03034175932407379,0.011727419681847095,0.04837503656744957,0.027922477573156357,-0.024202240630984306,0.05148862302303314,0.052208952605724335,-0.04587644711136818,-0.016788765788078308,0.004154481925070286,-0.021918075159192085,0.00039301440119743347,0.029495034366846085,0.013173693791031837,-0.01851692609488964,0.02993340790271759,-0.014287522993981838,0.02388034202158451,0.015693390741944313,0.0027865832671523094,0.03692413866519928,0.0415864922106266,0.012581017799675465,-0.008418346755206585,-0.016536546871066093,-0.022701002657413483,0.04985423386096954,-0.03349297493696213,0.03486541658639908,0.00032782863127067685,0.038608990609645844,0.04397514835000038,0.024259833618998528,0.03305249288678169,0.025419067591428757,-0.04144115746021271,-0.02070426568388939,0.062389254570007324,-0.011480292305350304,0.02990500070154667,-0.009944225661456585,-0.017346039414405823,-0.011809727177023888,-0.02037201076745987,0.017377711832523346,0.009473866783082485,0.04337922856211662,0.00999460369348526,-0.02390921674668789,-0.009457926265895367,-0.01965874433517456,0.05523417517542839,-0.0005642222240567207,0.04786697402596474,-0.003839743323624134,-0.01569545269012451,0.013039963319897652,-0.017401985824108124,0.022941911593079567,0.04305613413453102,0.040009524673223495,-0.04142707213759422,0.03955782577395439,-0.032503172755241394,0.041898615658283234,-0.008670245297253132,-0.0004914393648505211,-0.04223523661494255,-0.02688588574528694,-0.04164920374751091,0.03413777053356171,-0.01399747934192419,-0.028549691662192345,-0.017328951507806778,-0.030194269493222237,0.023990852758288383,0.02118341624736786,-0.0012565050274133682,0.004435759969055653,0.016982363536953926,-0.008359963074326515,-0.024134434759616852,-0.04899290204048157,-0.0172331091016531,0.0041579147800803185,0.011844424530863762,-0.00038777804002165794,0.021279476583003998,-0.005112228915095329,0.012288598343729973,0.03600810095667839,0.013596678152680397,0.01267829816788435,0.02245054952800274,-0.01299852691590786,-0.045794934034347534,0.03568999469280243,-0.01969689503312111,-0.03126681223511696,0.029000362381339073,-0.03987628594040871,0.010788189247250557,0.0065951868891716,-0.02777830883860588,0.007694527972489595,-0.004020930267870426,0.016343193128705025,0.03786097466945648,0.03680112585425377,-0.03618292137980461,-0.003307039849460125,0.03138074278831482,0.0001958850771188736,-0.011495819315314293,0.03430109843611717,-0.017072048038244247,-0.050191521644592285,-0.026221051812171936,0.0150606669485569,-0.053764328360557556,0.02053469978272915,-0.023047592490911484,-0.021507106721401215,-0.030864018946886063,-0.02202349528670311
CID000004885,-0.003939424641430378,-0.02984301932156086,-0.02233896777033806,0.024161403998732567,-0.016083860769867897,-0.02127973549067974,0.03848972171545029,-0.021661847829818726,-0.031642816960811615,0.014640436507761478,0.023717790842056274,0.025369353592395782,-0.028367575258016586,0.03367141634225845,-0.023347588256001472,-0.033580876886844635,0.008328694850206375,-0.04684034734964371,0.00035246647894382477,0.02563108131289482,-0.019031023606657982,-0.010902187786996365,0.019808035343885422,0.008353173732757568,-0.028557663783431053,0.013826820999383926,-0.003167182207107544,0.031141750514507294,-0.003470838535577059,-0.0012125085340812802,-0.025176679715514183,-0.01281994953751564,-0.020792823284864426,-0.003155509475618601,-0.0024437580723315477,-0.008885946124792099,0.035923637449741364,-0.02448118105530739,0.002943985164165497,0.026430770754814148,0.029992390424013138,0.004904603119939566,-0.037117257714271545,0.0319056436419487,0.01885892264544964,-0.016689103096723557,-0.040810152888298035,-0.014493802562355995,-0.014511280693113804,-0.0144656952470541,-0.03614188730716705,0.04749066382646561,4.3023377656936646e-05,0.007013013586401939,-0.0035656611435115337,-0.02854442223906517,0.009888963773846626,-0.04196065664291382,0.014092790894210339,0.029144683852791786,0.054000914096832275,0.04104058817028999,-0.051383718848228455,0.01675943098962307,0.0458374097943306,0.02941427007317543,0.010218163952231407,0.003516820725053549,0.0015248819254338741,-0.018238283693790436,-0.02445968985557556,-0.0330362506210804,0.04349472001194954,-0.012818502262234688,-0.005695079453289509,0.011245375499129295,0.011442579329013824,0.05245649069547653,0.007288188207894564,-0.03454608470201492,0.018577978014945984,0.047868575900793076,-0.016991635784506798,0.007017550989985466,0.01777559705078602,-0.018904611468315125,0.0158387441188097,-0.020663229748606682,0.029542505741119385,0.03902659937739372,-0.00854232907295227,-0.01739400625228882,-0.01247633807361126,0.021551311016082764,-0.022618835791945457,0.0014928989112377167,0.010015745647251606,-0.041427869349718094,-0.001955058192834258,-0.02882634848356247,0.026683615520596504,0.01566685549914837,-0.006119704805314541,-0.03226456418633461,-0.02599501423537731,-0.0004726201295852661,0.01665002852678299,0.0601252056658268,-0.02390427514910698,-0.0062103308737277985,0.007597210817039013,0.01049717701971531,0.04200288653373718,-0.0008675326826050878,-0.020041270181536674,-0.030031098052859306,0.014291228726506233,-0.019939012825489044,-0.027816906571388245,0.005788227077573538,-0.04123503714799881,-0.03837743401527405,-0.004436999559402466,0.03833334147930145,0.0293540358543396,0.012755711562931538,0.04714319109916687,0.004895564168691635,0.033244501799345016,0.024785537272691727,-0.020104434341192245,-0.02037676051259041,-0.011292537674307823,0.040121160447597504,-0.02619076520204544,-0.027140198275446892,-0.010098817758262157,0.02839740365743637,0.03367907181382179,-0.046655744314193726,-0.007502403110265732,-0.01886139251291752,0.004682444967329502,0.0003867177292704582,-0.02909192070364952,0.01615307293832302,0.028457598760724068,-0.0036200424656271935,-0.023261085152626038,0.012695258483290672,0.007825023494660854,-0.028133049607276917,0.011545330286026001,0.019059669226408005,0.02719508297741413,-0.02981381118297577,0.02479352056980133,0.01826147735118866,0.012126254849135876,-0.030691631138324738,-0.019514448940753937,0.05129839479923248,0.020669199526309967,0.015087911859154701,-0.02408526837825775,-0.0032694186083972454,0.024184469133615494,-0.024310871958732605,-0.0065240077674388885,0.015012037940323353,0.02094830572605133,0.0037472164258360863,0.031185120344161987,0.04337192699313164,-0.011558580212295055,-0.03602420538663864,0.056088950484991074,-0.02688465639948845,-0.03247843682765961,0.04862778261303902,-0.046655695885419846,-0.019917525351047516,-0.020347557961940765,-0.04120451584458351,-0.0031717580277472734,-0.030622471123933792,0.03966618329286575,0.018605219200253487,-0.013050228357315063,-0.012501300312578678,-0.01711120456457138,-0.0007500555366277695,0.04414984956383705,0.01788160763680935,0.01984322816133499,0.002115887124091387,0.00881403312087059,0.030200794339179993,-0.0034323828294873238,0.020170681178569794,0.011297624558210373,0.01375813689082861,0.021968265995383263,-0.021007079631090164,0.03937935456633568,-0.04074077680706978,-0.018806276842951775,0.014895888045430183,-0.0411318875849247,-0.04005208984017372,0.03349461033940315,-0.03991539031267166,-0.02062179148197174,0.025143682956695557,-0.03632531687617302,-0.026162007823586464,0.030124148353934288,-0.011825407855212688,0.01668763905763626,0.015063646249473095,0.019679488614201546,0.035146716982126236,-0.051087651401758194,0.050179772078990936,0.003011498600244522,-0.004570976365357637,0.037220168858766556,0.010807644575834274,-0.026552200317382812,0.007227929309010506,-0.02581748366355896,-0.016783036291599274,0.04843158647418022,0.0392599031329155,0.0021834298968315125,0.027628891170024872,-0.024446791037917137,0.006716076284646988,-0.006357911974191666,0.04265664890408516,-0.04062556475400925,0.007449104450643063,-0.0035360895562916994,0.0220872163772583,0.022543858736753464,-0.035819511860609055,0.0173946525901556,-0.013849467039108276,-0.007460937835276127,0.0031032164115458727,0.011246833950281143,-0.02866801992058754,0.04019055515527725,-0.011784063652157784,-0.04646196961402893,-0.030996160581707954
CID000003961,-0.021003682166337967,-0.041339993476867676,0.026928244158625603,0.00032674334943294525,0.044366318732500076,0.05395614355802536,0.019627481698989868,0.030446123331785202,-0.012844246812164783,-0.041907019913196564,0.042556293308734894,-0.01142848376184702,0.059458374977111816,0.03985679894685745,-0.012439092621207237,0.00550461933016777,0.047122977674007416,0.048750557005405426,-0.005551253445446491,-0.040761418640613556,-0.0415995828807354,-0.0007795902201905847,0.010005766525864601,0.04153650999069214,-0.03360052406787872,0.03912116214632988,-0.002205248922109604,-0.014054607599973679,0.04569347947835922,0.022967057302594185,-0.026391368359327316,-0.04676707088947296,0.007728912867605686,-0.04508286714553833,-0.008660168386995792,0.019105765968561172,0.021682243794202805,0.04462666064500809,-0.033576592803001404,0.01603095978498459,0.007998879067599773,-0.0015482748858630657,0.01893966645002365,0.02447044476866722,0.05237489938735962,0.04611942544579506,0.034134287387132645,-0.01926230639219284,-0.012299366295337677,0.05018598586320877,-0.010900715366005898,-0.014546933583915234,0.031045464798808098,0.00724879652261734,-0.0017676171846687794,-0.020704250782728195,0.016907809302210808,0.04444823041558266,-0.025653593242168427,-0.01646725833415985,-0.028288882225751877,0.012501971796154976,0.01371218916028738,-0.05091186985373497,0.029639925807714462,-0.0186843853443861,0.022416476160287857,-0.019420485943555832,0.02768111228942871,0.051586348563432693,0.016168972477316856,-0.01764308661222458,0.04574444144964218,0.01901029422879219,0.012249492108821869,0.05000082403421402,-0.02161623165011406,-0.006278806831687689,0.06640803068876266,0.04053836315870285,0.0013117725029587746,-0.03322598710656166,0.004666871391236782,-0.0003405855968594551,-0.007021239027380943,-0.03152191638946533,0.038592129945755005,0.020419245585799217,0.004937821999192238,0.03649749606847763,-0.021860621869564056,0.02690798044204712,0.04340830445289612,-0.017614969983696938,-0.024755751714110374,0.0059839896857738495,-0.03604620695114136,-0.0006060349987819791,-0.046192508190870285,0.011440693400800228,0.06539544463157654,0.0375114306807518,0.0021051852963864803,-0.0323597677052021,-0.0198768712580204,0.0037215203046798706,0.004915829747915268,0.011108096688985825,0.048068005591630936,-0.02797197364270687,-0.03429027646780014,-0.018672507256269455,0.03523033857345581,0.038954395800828934,-0.03679454326629639,-0.016585517674684525,-0.01348977442830801,0.006722198333591223,-0.015825217589735985,-0.005151685792952776,-0.002191545907407999,0.04094332829117775,0.043058544397354126,-0.02311362512409687,0.04330816864967346,0.04148451238870621,0.022223856300115585,-0.017525751143693924,-0.04401294142007828,-0.001264684135094285,-0.0011217198334634304,0.014565849676728249,0.05688776075839996,0.038997069001197815,0.028117557987570763,-0.029457110911607742,-0.018141383305191994,-0.018599621951580048,-0.033374033868312836,0.006558217108249664,-0.0020115412771701813,-0.019878549501299858,-0.0033540416043251753,-0.008560502901673317,0.011936098337173462,0.021872565150260925,-0.020600028336048126,-0.004445014521479607,0.022415421903133392,0.030855240300297737,0.0491221584379673,-0.010159559547901154,0.005917332600802183,0.026114169508218765,0.03457155078649521,0.004267640877515078,-0.03496742621064186,-0.014211765490472317,-0.024505358189344406,0.04338034987449646,-0.02121499925851822,-0.007224144414067268,0.027630003169178963,-0.006240751128643751,-0.051981013268232346,0.05448620393872261,0.017569804564118385,0.05216566100716591,-0.023997269570827484,0.007295203395187855,-0.023763250559568405,0.0353841632604599,-0.04249075427651405,0.0007199384272098541,-0.008338802494108677,-0.021252918988466263,0.02686014026403427,-0.031328778713941574,0.03736230358481407,-0.025570325553417206,0.02884131669998169,-0.06046975031495094,-0.01451905257999897,-0.031946420669555664,-0.03166511282324791,0.024359075352549553,0.02175954170525074,0.05993826687335968,0.011081818491220474,0.048356473445892334,-0.012812669388949871,-0.021970566362142563,-0.0003532911650836468,0.013506706804037094,0.029647398740053177,0.047032907605171204,-0.04142807424068451,0.008890634402632713,0.0047980500385165215,-0.03291075676679611,0.035677265375852585,-0.030754264444112778,-0.018156753852963448,-0.028671085834503174,-0.031657874584198,0.010641871020197868,-0.0032879365608096123,0.006737192161381245,0.009759313426911831,0.00037199538201093674,0.0446307547390461,-0.0034239348024129868,0.020274516195058823,0.04774949699640274,-0.035159166902303696,-0.01803731359541416,0.0039156777784228325,0.040531519800424576,0.0003760020190384239,-0.003004946745932102,0.029147811233997345,-0.024176038801670074,-0.02727692946791649,-0.03239286690950394,0.002542175818234682,-0.015310695394873619,0.02327892929315567,0.04412224888801575,-0.021930593997240067,-0.0009963123593479395,-0.05087605118751526,0.01806027628481388,0.02408897504210472,-0.021408408880233765,-0.0013532545417547226,0.048975665122270584,0.001881791278719902,-0.01526512298732996,0.04718766361474991,0.027784835547208786,-0.03684646636247635,0.0070301201194524765,-0.027656186372041702,-0.05382419377565384,-0.01114667858928442,-0.026744499802589417,-0.033842820674180984,0.02957722544670105,0.005784069187939167,0.015903469175100327,0.055695317685604095,0.013877407647669315,-0.00600261427462101,0.024024002254009247,0.03210333362221718,-0.0241406187415123
CID000060835,0.036209236830472946,0.03951463848352432,0.0022035553120076656,-0.047287024557590485,0.04029558598995209,0.007464817259460688,0.0033901489805430174,-0.02881869487464428,0.022086145356297493,0.042485855519771576,0.025418993085622787,0.039393190294504166,0.006480850279331207,0.016338881105184555,-0.022784944623708725,0.006100178696215153,0.0068685133010149,-0.022522157058119774,-0.009000095538794994,0.013204659335315228,0.00016388855874538422,0.01739232800900936,0.019582614302635193,0.01331058144569397,-0.01871209777891636,-0.0016470509581267834,-0.0321374349296093,-0.027143944054841995,-0.008322021923959255,0.015714067965745926,0.04474484175443649,0.026007402688264847,-0.029032479971647263,-0.04706414043903351,-0.014938291162252426,-0.030108826234936714,0.012055890634655952,-0.019212253391742706,0.011928851716220379,0.051978014409542084,-0.04084261879324913,-0.03227090835571289,0.0003755169454962015,0.015370586887001991,0.043057914823293686,0.02560860849916935,0.040491826832294464,0.04108592867851257,0.0019755414687097073,-0.030675409361720085,0.029694121330976486,-0.012014748528599739,-0.03187389671802521,-0.030734412372112274,-0.030155349522829056,0.029566213488578796,0.055142417550086975,-0.012709527276456356,0.05510129779577255,0.01002076268196106,-0.01725155860185623,0.01287306472659111,0.03863704577088356,-0.052275292575359344,-0.005560328718274832,0.037974365055561066,0.01857653260231018,-0.02193710394203663,0.05714676156640053,-0.0053532239980995655,0.02856447920203209,-0.04419119656085968,-0.03894269838929176,-0.0347735732793808,0.01681373454630375,-0.03385672718286514,-0.01806727983057499,-0.00585672352463007,-0.023086361587047577,-0.0276791974902153,0.02377411723136902,-0.0421631895005703,-0.02847454510629177,-0.019899379462003708,0.05672841519117355,-0.01274377666413784,0.03568544238805771,-0.03988565504550934,0.006133330054581165,-0.027473077178001404,0.007110529579222202,0.005980025045573711,-0.028227727860212326,0.01323150284588337,-0.036910541355609894,0.011169392615556717,0.027614884078502655,-0.008422994054853916,-0.009179341606795788,-0.004437684081494808,-0.0007224190048873425,-0.031213806942105293,-0.035878196358680725,-0.0030823303386569023,-0.01449313573539257,-0.03134683519601822,-0.0029141437262296677,-0.033372171223163605,0.02698545530438423,0.02409334108233452,0.03833886981010437,-0.0427481047809124,0.012314461171627045,-0.010227300226688385,-0.0027831755578517914,-0.015522114001214504,-0.026435596868395805,0.0179281048476696,0.01099170558154583,0.034471746534109116,0.033213984221220016,-0.009901444427669048,0.009536053985357285,0.0011716203298419714,-0.036504752933979034,0.044180162250995636,0.04135158285498619,0.03463943675160408,-0.040497787296772,0.016377899795770645,0.003989065531641245,-0.040864892303943634,0.042235445231199265,0.007565664127469063,0.019862577319145203,-0.012637567706406116,-0.010530036874115467,0.02405373379588127,-0.03929150104522705,0.019903818145394325,0.022585028782486916,-0.0013354243710637093,0.02587185986340046,0.047634709626436234,-0.00509251793846488,0.04533573240041733,0.03731488808989525,-0.04804488271474838,-0.014496800489723682,-0.0372588187456131,-0.047491900622844696,0.013918056152760983,-0.008880304172635078,-0.021022731438279152,0.020625192672014236,-0.004314463119953871,-0.02723376825451851,0.03876439109444618,0.028689324855804443,-0.030534327030181885,0.0026336379814893007,-0.00560237979516387,-0.006157878786325455,-0.00452585332095623,-0.03876299038529396,0.006394886411726475,-0.022121429443359375,-0.021219410002231598,0.007560718804597855,0.020373117178678513,0.004447360523045063,-0.03824862092733383,0.027075883001089096,0.0221075639128685,0.04231026768684387,0.050529129803180695,0.020395435392856598,-0.056057725101709366,0.018369624391198158,0.03677129000425339,-0.005781983491033316,0.019172098487615585,-0.02085384726524353,-0.010647574439644814,0.0005172351375222206,0.0018470252398401499,0.025603823363780975,0.0036831095349043608,-0.04055222496390343,-0.04141182452440262,-0.02197662740945816,-0.03750300034880638,-0.034137025475502014,-0.020426761358976364,-0.020577892661094666,0.000699368305504322,0.0076445406302809715,0.017248332500457764,0.001411897479556501,0.03250277787446976,-0.014403054490685463,-0.0012038657441735268,-0.021932298317551613,0.022628430277109146,0.011560680344700813,0.030782250687479973,0.022722646594047546,-0.02622905559837818,-0.026984164491295815,0.023510534316301346,0.014013759791851044,-0.008419215679168701,0.016214121133089066,-0.020903166383504868,-0.023624148219823837,0.02371198683977127,-0.026659032329916954,0.035486672073602676,-0.0417453795671463,0.03169233724474907,-0.03650100529193878,0.05487849563360214,-0.006608969531953335,-0.014118817634880543,0.04509768262505531,-0.03249175846576691,-0.043147020041942596,-0.03498786315321922,0.011956864967942238,-0.04447178915143013,-0.009770315140485764,-0.01463491003960371,0.030334753915667534,-0.007325881160795689,0.0265634935349226,-0.051747098565101624,0.0006212801090441644,-0.04613121598958969,-0.03526826575398445,-0.03978501260280609,-0.008349550887942314,-0.002217461820691824,-0.05642704665660858,0.03318396583199501,-0.04126222804188728,0.031177915632724762,-0.03378794342279434,-0.015729445964097977,0.05808795243501663,-0.029318198561668396,0.02149294689297676,0.02677116170525551,0.04554310068488121,0.004747520666569471,-0.014683552086353302,0.018256913870573044
