drug,0,1,2,3,4,5,6,7,8,9,10,11,12,13,14,15,16,17,18,19,20,21,22,23,24,25,26,27,28,29,30,31,32,33,34,35,36,37,38,39,40,41,42,43,44,45,46,47,48,49,50,51,52,53,54,55,56,57,58,59,60,61,62,63,64,65,66,67,68,69,70,71,72,73,74,75,76,77,78,79,80,81,82,83,84,85,86,87,88,89,90,91,92,93,94,95,96,97,98,99,100,101,102,103,104,105,106,107,108,109,110,111,112,113,114,115,116,117,118,119,120,121,122,123,124,125,126,127,128,129,130,131,132,133,134,135,136,137,138,139,140,141,142,143,144,145,146,147,148,149,150,151,152,153,154,155,156,157,158,159,160,161,162,163,164,165,166,167,168,169,170,171,172,173,174,175,176,177,178,179,180,181,182,183,184,185,186,187,188,189,190,191,192,193,194,195,196,197,198,199,200,201,202,203,204,205,206,207,208,209,210,211,212,213,214,215,216,217,218,219,220,221,222,223,224,225,226,227,228,229,230,231,232,233,234,235,236,237,238,239,240,241,242,243,244,245,246,247,248,249,250,251,252,253,254,255
CID000003954,0.0518471263349056,0.0317703038454055,-0.0267998073250055,-0.0336299166083335,-0.0143726821988821,-0.0175392255187034,-0.0360958240926265,0.050745066255331,-0.0222990270704031,0.0427364557981491,0.0325032584369182,-0.0128556499257683,0.0232873260974884,-0.0396648868918418,-0.0147064849734306,0.0060897739604115,0.0076777283102273,0.0333512313663959,0.0504540428519248,0.0175862498581409,-0.0067709339782595,-0.0182284116744995,-0.0372873581945896,0.0223582182079553,-0.0014421697705984,-0.0240542255342006,0.0356269069015979,0.0228118319064378,-0.0265793800354003,0.0082934573292732,0.0100591946393251,-0.0208855140954256,0.0331412404775619,0.0219405442476272,-0.0062873195856809,0.0216659158468246,-0.0206575412303209,-0.0073394458740949,-0.0032746058423072,0.0388762727379798,0.0354481935501098,0.0263861306011676,-0.001031894236803,0.0159239098429679,-0.0226487256586551,-0.0234919600188732,-0.0323359556496143,0.0022278737742453,0.0274205412715673,0.0187818054109811,0.038371555507183,-0.0237831585109233,0.0193842109292745,0.0214897040277719,0.0550434626638889,-0.0417558625340461,-0.0256571546196937,0.0380846560001373,0.0200160387903451,0.0443521067500114,0.0203042794018983,0.0344066061079502,0.0174726918339729,-0.0285339169204235,-0.0427093431353569,-0.0052367225289344,-0.0123882368206977,-0.0399904139339923,0.0059510641731321,-0.0276070535182952,0.0109170172363519,0.0167363062500953,-0.0075591071508824,0.0050760991871356,-0.0531406179070472,-0.0286697540432214,-0.0054876385256648,0.0069000809453427,0.019889585673809,0.0103882802650332,-0.0383801944553852,-0.005200944840908,0.0245164893567562,0.0283842273056507,-0.0339286811649799,-0.0200825631618499,0.0056790979579091,0.0111679537221789,-0.0475608371198177,-0.0396441146731376,-0.0040203863754868,-0.0040729888714849,0.0161961838603019,-0.0448936074972152,0.046107605099678,0.0340207405388355,0.0132681494578719,-0.0094585996121168,-0.0098624378442764,-0.0130356168374419,-0.0210260823369026,-0.0504292100667953,-0.0073896725662052,0.0140271438285708,-0.0195373557507991,0.0325996577739715,0.0199310686439275,-0.0659605786204338,-0.0335517078638076,-0.0443608313798904,-0.0105765797197818,-0.0032790545374155,-0.0207909848541021,-0.0429883599281311,-0.0164539329707622,-0.0002918988466262,0.0369101651012897,-0.0240726433694362,0.0013895584270358,0.0006906650960445,0.0346292220056057,0.0221340917050838,0.029273647814989,-0.0245298687368631,-0.0548150762915611,0.019446836784482,0.0577190443873405,0.0330606549978256,0.0493287295103073,-0.0155468843877315,0.0653839856386184,-0.0416317135095596,-0.0334106907248497,-0.0321582332253456,-0.0015518041327595,0.0236280690878629,0.0452697798609733,0.0302495528012514,0.0448450744152069,0.0401187613606452,0.0292206238955259,-0.0199942775070667,0.0418365225195884,-0.0183985456824302,-0.0204334165900945,0.0420767366886138,0.0481217764317989,0.0190958008170127,-0.0103429853916168,-0.0119162946939468,0.0430764481425285,-0.0139240939170122,-0.0380562916398048,0.0405348241329193,0.0221162196248769,0.0205033533275127,-0.0231891684234142,0.0256729703396558,-0.0151593256741762,0.0131116239354014,-0.011119058355689,-0.0354081019759178,0.022720132023096,0.0065233120694756,-0.0049110427498817,0.0409021712839603,0.0073531819507479,0.009442345239222,0.0302417110651731,0.011795587837696,0.0457119792699813,-0.0173799078911542,-0.0470378100872039,0.0086847292259335,0.0259852707386016,0.0294919610023498,-0.0193102061748504,0.00383917754516,-0.0060932347550988,-0.0193466786295175,-0.0211444441229105,-0.0265047252178192,0.0315210781991481,0.013246389105916,-0.0669697523117065,0.0492589920759201,0.0308833457529544,0.0292588546872138,0.0483979880809783,0.0125875808298587,-0.0303010195493698,0.0055768354795873,-0.0230236742645502,0.0141718201339244,-0.0249597206711769,-0.0074831470847129,-0.0071724681183695,0.0348684228956699,0.0352895557880401,-0.0127842109650373,-0.0126953404396772,-0.0327470526099205,0.0224540065973997,0.0010954272001981,0.0196743812412023,0.0453762784600257,0.0351273529231548,-0.0267506353557109,-0.0252667944878339,-0.0282077323645353,0.0410076677799224,-0.0160584840923547,0.0312331058084964,-0.0268329493701457,0.0148258022964,0.0171653367578983,0.0092776035889983,0.0334305986762046,-0.0226891133934259,0.0058844881132245,-0.0212157052010297,-0.0137377437204122,0.0470741800963878,0.0562823414802551,0.0314242988824844,-0.037310354411602,-0.0064861723221838,0.0282511860132217,-0.0262383818626403,0.004364289343357,0.0169806275516748,0.0285726822912693,0.0324062220752239,0.0099058542400598,-0.060369424521923,-0.002369059016928,-0.0490211509168148,-0.0007670051418244,0.0139345750212669,0.054173070937395,-0.0059911217540502,0.0529675930738449,-0.0159412752836942,0.0138317104429006,0.0375348031520843,0.0131882540881633,0.0043145958334207,0.0183029416948556,0.0023562854621559,0.0199473574757576,0.0541036650538444,0.0157690700143575,0.0276525076478719,-0.0461621768772602,-0.0322482883930206,-0.0252156406641006
CID000004829,-0.0282285530120134,0.0146574974060058,-0.0335244387388229,-0.0110197234898805,0.0382334664463996,0.0179998818784952,-0.0385661385953426,-0.0104441000148653,0.0332886837422847,-0.0023235357366502,0.0080538624897599,-0.0056753121316432,-0.0069251502864062,0.0215698890388011,0.0074372170493006,-0.0361062325537204,0.0490330122411251,0.0072640543803572,0.0143961822614073,-0.0523916557431221,0.0010542785748839,0.0322339423000812,-0.0208434052765369,-0.0024223057553172,0.0300278607755899,-0.0111916847527027,0.0512852519750595,-0.0498638972640037,-0.0292650032788515,-0.0103898532688617,-0.0544444136321544,0.0411666184663772,0.0220710169523954,0.0124902166426181,0.001507373759523,-0.0023534414358437,0.0444084331393241,-0.0309314988553524,-0.017064781859517,-0.0044058207422494,0.0014245469355955,0.0012880247086286,-0.0038312119431793,-0.0144877023994922,-0.0046960678882896,0.0362467020750045,-0.0103619061410427,0.0164554044604301,0.0194168053567409,0.001900399220176,0.0333036594092845,0.0024499064311385,0.0409887880086898,0.0379042141139507,-0.025394344702363,-0.0053853755816817,0.0089776162058115,-0.0126205272972583,-0.0120121864601969,-0.0015245722606778,0.0131689636036753,0.0494392476975917,0.0395705923438072,0.0160431023687124,0.0293701570481061,0.0418097376823425,-0.0293785445392131,0.0154112502932548,-0.0309615544974803,0.0203522574156522,0.0304497815668582,0.0135909058153629,-0.0441755056381225,-0.0418039746582508,0.0237452667206525,0.0216817148029804,0.0475704930722713,-0.033032514154911,-0.0150342844426631,0.0064759412780404,0.0031499550677835,-0.0544795170426368,-0.0440856255590915,0.0349318124353885,-0.0349140688776969,0.0225287731736898,0.004684389103204,-0.0015695979818701,-0.0176713354885578,0.0227792598307132,-0.0129733551293611,-0.0113479802384972,-0.0482949875295162,0.0111960666254162,-0.038309808820486,-0.0426699742674827,0.0283530373126268,-0.0089294342324137,0.010324670933187,-0.0177696030586957,-0.013329611159861,-0.0304459054023027,-0.0122218234464526,-0.0168736111372709,0.013495591469109,-0.0019230316393077,0.0173150803893804,-0.0249146185815334,-0.0078178318217396,0.0381016433238983,-0.0145038142800331,-0.0555106922984123,-0.0123736159875988,-0.0198052637279033,0.0306838974356651,0.0484777130186557,0.0096900779753923,0.0230395067483186,-0.0071581238880753,0.0480400808155536,-0.0048326039686799,0.014287238009274,0.0182845331728458,-0.0239172019064426,-0.0345268547534942,-0.0359314158558845,0.0167539771646261,-0.0307796150445938,0.0037092398852109,-0.0012796353548765,0.018990758806467,0.0262658670544624,-0.0494884923100471,-0.0234440565109252,0.0293362699449062,-0.0010245882440358,-0.0068605197593569,-0.030999107286334,0.0389391258358955,-0.0137282833456993,-0.0390469953417778,-0.0058659417554736,0.0306281968951225,0.0146344052627682,0.0317556150257587,-0.0458612777292728,-0.0166908483952283,-0.0619307570159435,0.0278266090899705,-0.0425860695540905,-0.0203301962465047,-0.0239793322980403,0.0402309671044349,0.0329033508896827,0.0316683948040008,0.0218388549983501,-0.0560758598148822,-0.0107703320682048,0.013687795959413,0.0372484885156154,-0.0314448922872543,0.0308835171163082,0.0266808979213237,-0.013104235753417,-0.017988845705986,-0.0160416923463344,0.00061178766191,-0.0248882565647363,0.0482616499066352,0.0171619709581136,-0.0423857495188713,0.0239296127110719,0.01296525914222,0.0259568877518177,-0.0052481768652796,0.0051283929497003,0.0167226288467645,0.0012684511020779,0.0069436398334801,-0.0121390167623758,-9.839702397584917e-05,0.0125828348100185,-0.0207018870860338,0.05653578042984,-0.0365854129195213,0.0067007625475525,0.0286614745855331,-0.0128380917012691,0.013658583164215,-0.0024549097288399,-0.0044317338615655,-0.0381995439529418,-0.0091383913531899,-0.0529521219432354,0.0377486869692802,-0.0201667547225952,-0.0296080932021141,-0.0192121155560016,0.0397367440164089,0.0147535214200615,0.0166185088455677,0.0180772319436073,0.0094741908833384,-0.0065929386764764,0.052816268056631,0.0132974712178111,0.0078569129109382,-0.0231726840138435,0.0174049623310565,-0.0252699516713619,-0.0074849743396043,0.036535121500492,-0.0386368967592716,-0.0121403280645608,0.0529583469033241,0.048405859619379,-0.0032624322921037,0.0057540936395525,0.0131465187296271,0.0062035545706748,-0.0050213090144097,0.0207204073667526,-0.0325210988521575,0.0200421176850795,-0.0083210607990622,0.044230930507183,0.0137482266873121,0.0322671346366405,-0.0370758064091205,0.0341483689844608,0.0119673972949385,-0.0068605858832597,0.0037964722141623,0.0443188212811946,-0.023343950510025,0.0442855320870876,0.0425398796796798,-0.0409305095672607,-0.0104693574830889,-0.0421998538076877,0.0130657795816659,0.0480910092592239,0.058867298066616,0.0429627262055873,0.0168668255209922,0.0346375815570354,0.0353573113679885,-0.0185313001275062,0.0015589739196002,-0.0074856020510196,-1.6851816326379776e-05,-0.0477869398891925,0.0378591381013393,-0.0103195300325751,-0.0346215665340423,-0.016732819378376
CID000004140,0.0369119495153427,-0.018309885635972,0.0206468906253576,0.0319165363907814,0.0336018316447734,0.0238552466034889,-0.0217197947204113,-0.0303070042282342,-0.0118418633937835,-0.0115177258849143,-0.0284477416425943,0.0243675597012043,0.0047841886989772,-0.0247106924653053,-0.0015232050791382,0.0314413271844387,-0.0320886895060539,0.0138717461377382,0.0239703357219696,-0.018353022634983,0.0626569092273712,0.042096734046936,-0.0085782706737518,0.0276896618306636,-0.0155904116109013,-0.0189610607922077,0.0429921858012676,0.0102877812460064,-0.0212556477636098,-0.0290358532220125,-0.0238883569836616,-0.048662394285202,-0.0194128323346376,0.0084756100550293,-0.0288924816995859,-0.0142344906926155,0.0272104628384113,-0.0310344696044921,0.0306636821478605,-0.0419635586440563,0.0293474495410919,-0.0045467279851436,-0.0172063671052455,0.0252040103077888,0.0208515767008066,0.0029241209849715,-0.0493910424411296,0.0095101371407508,-0.0083573833107948,0.0195188671350479,-0.0292663034051656,-0.0025961361825466,0.031646478921175,4.421919584274292e-06,0.0184689760208129,0.0172322988510131,0.0555701702833175,-0.0032485127449035,-0.0191297624260187,-0.0450041145086288,0.0123832114040851,-0.0219473373144865,-0.0491028875112533,0.0491502583026886,-0.0435426756739616,-0.0494639724493026,0.008331473916769,-0.0139615032821893,-0.0200711376965045,0.0231121815741062,0.051730453968048,0.0266796220093965,-0.0089416373521089,-0.01820152066648,0.0299990065395832,-0.0261947754770517,0.015191039070487,0.0070758759975433,0.0335726141929626,0.0311837494373321,-0.0560072511434555,-0.0015239082276821,0.0036449888721108,-0.021311892196536,-0.033278152346611,0.03122597374022,-0.0147038623690605,-0.0040769325569272,0.0187114346772432,0.0391578264534473,-0.0030078315176069,0.054333858191967,0.0163414999842643,-0.0022513293661177,0.0452465265989303,-0.0007554721087217,-0.0234520733356475,-0.0198968257755041,0.055451326072216,-0.0027182446792721,1.5093479305505753e-05,-0.0227984562516212,-0.0066982400603592,-0.0163477938622236,0.0454782545566558,0.0270132850855588,-0.0401468053460121,0.0306519325822591,-0.0019293241202831,0.014694508165121,-0.0133169647306203,0.0039413110353052,0.0424868911504745,0.0083357142284512,0.0110794939100742,0.0175389945507049,-0.0315880328416824,-0.0129402596503496,0.0260108411312103,-0.0071190856397151,-0.0072781206108629,-0.0213708169758319,0.0449961647391319,0.0195866003632545,-0.0212667025625705,0.0264178924262523,0.0335166119039058,-0.0236366465687751,-0.0600520893931388,0.050895057618618,0.0113501204177737,0.0338753759860992,-0.0061591053381562,0.0136237889528274,0.0320931784808635,0.0232184380292892,-0.0176192782819271,0.0312668457627296,-0.0214885305613279,0.051249660551548,0.0183608755469322,-0.016492748633027,0.0508474074304103,-0.0503480471670627,0.0512699782848358,-0.0185513012111186,-0.028500935062766,-0.0399381518363952,0.0001555457711219,0.0061300117522478,0.0175567679107189,-0.0338693298399448,0.0319037288427352,-0.0060422029346227,0.0067708194255828,0.0387302488088607,-0.0267968401312828,0.0103208869695663,-0.026552990078926,0.0410377047955989,-0.0096056098118424,0.0257631428539752,-0.0110110398381948,-0.0243881735950708,-0.0125683657824993,-0.0017669750377535,0.0158400032669305,0.0312702655792236,0.0391487143933773,0.0313775576651096,-0.007685755379498,0.0340106673538684,0.0295821074396371,-0.0046454765833914,0.0394040681421756,-0.0359141826629638,-0.0213959347456693,-0.0207053013145923,-0.0422355569899082,-0.0292360205203294,0.0458934195339679,-0.0299526769667863,-0.0096992338076233,-0.0342640168964862,-0.032095193862915,0.0156754702329635,0.0363233052194118,0.0016628447920084,0.044827289879322,0.0241222791373729,0.0216864719986915,0.0482733100652694,0.0218730252236127,0.0013157054781913,0.0065381675958633,0.0071579604409635,0.0277988091111183,-0.0252818204462528,-0.0599941313266754,0.0107114426791667,-0.0272816643118858,0.0057200347073376,0.0276226419955492,-0.0099973371252417,0.0123397363349795,-0.0292322617024183,0.039994329214096,0.0343338176608085,-0.0274810139089822,-0.0194006823003292,0.0255127064883708,0.0471058636903762,0.0303620472550392,-0.0069337193854153,0.0471000000834465,-0.036115676164627,-0.0216983389109373,0.0668029859662056,0.0298395976424217,0.0360645689070224,-0.0285643562674522,-0.0169853195548057,0.0318038798868656,0.0390476062893867,0.03859319165349,-0.0038951258175075,0.0148952165618538,0.0337399877607822,-0.0489085689187049,0.0295307375490665,0.0039562075398862,0.040763072669506,0.0120420232415199,0.0074486248195171,0.0377396009862422,0.0531040802597999,0.0253054723143577,0.0182067491114139,-0.0175400823354721,0.002852214500308,0.0123968562111258,-0.0060830060392618,0.039247203618288,0.059680413454771,0.043553352355957,0.0447788015007972,-0.0229625217616558,0.0339638479053974,-0.0049747838638722,-0.0113081187009811,0.0114438831806182,-0.0130394957959651,0.0507403239607811,-0.0113826505839824,0.0025398507714271,0.0319310873746871
CID000002909,0.0235975980758667,-0.0302552059292793,-0.0101299239322543,-0.0059032407589256,0.0145692909136414,0.0322755053639411,0.0151956425979733,-0.0333326272666454,0.0057244882918894,-0.0333711318671703,-0.0221274457871913,0.0479727759957313,0.0215834304690361,-0.0437813438475132,0.0036311117000877,0.0390625856816768,0.0104864817112684,-0.0488582402467727,-0.0119757214561104,-0.0451506413519382,0.0381966792047023,-0.0392133742570877,0.0041548847220838,0.0378674566745758,0.0049688820727169,-0.0148707907646894,0.0112515781074762,-0.0423537194728851,-0.0354430079460144,-0.0448439456522464,-0.019479839131236,0.031904000788927,0.0475241057574749,-0.0040279822424054,0.0433106161653995,0.043591096997261,0.01841327175498,0.0152942091226577,0.0134473014622926,0.0106243584305047,-0.0142029682174324,0.0323153547942638,0.0445719920098781,-0.0048978272825479,0.0404715314507484,0.0319395400583744,-0.0323660857975482,-0.0492353737354278,0.0241520330309867,0.0399648696184158,-0.0180144850164651,-0.0197772681713104,-0.0282296743243932,0.0059029059484601,-0.0498478040099144,0.0217884313315153,0.0234149359166622,-0.0172055773437023,-0.0506694540381431,-0.0370679460465908,-0.0079332776367664,-0.0205599553883075,0.0406195595860481,0.0098898159340024,-0.00183717161417,0.0322311520576477,-0.0203634779900312,-0.0071162339299917,0.0379738211631774,-0.0249233208596706,-0.0140550639480352,-0.0320057347416877,0.034650232642889,0.009888557717204,0.0114778662100434,0.0144612491130828,0.0304403323680162,-0.0293786115944385,-0.0351409912109375,0.0097080050036311,-0.0248326901346445,-0.0036648325622081,0.013828138820827,0.0359577760100364,-0.0421205796301364,-0.0153943877667188,0.0349347479641437,-0.0056350165978074,0.0373964048922061,0.0358256064355373,0.0342362746596336,-0.0284449625760316,0.0313354022800922,0.0356316827237606,0.0418741554021835,0.0060758823528885,-0.0172162465751171,0.014491151086986,0.035390980541706,-0.037952821701765,-0.0085818199440836,0.0084973564371466,-0.0053430311381816,0.0406155996024608,-0.0527751818299293,-0.0033807752188295,-0.0320111140608787,-0.006198723334819,-0.0114804906770586,-0.0230599641799926,0.0221388228237628,-0.0087777506560087,0.0212125293910503,0.0243267826735973,0.0308303516358137,0.0294507276266813,-0.0439272336661815,0.0055685266852378,0.0345607250928878,-0.0134896356612443,0.0475546345114707,0.0142882671207189,0.0360991396009922,-0.0305555537343025,0.0153836030513048,0.041489377617836,0.0037914821878075,0.0048453388735651,0.0279094502329826,0.0351003631949424,0.0035176812671124,-0.0149107882753014,0.0043265563435852,-0.0088302688673138,-0.0229158774018287,-0.0238956976681947,0.0243852492421865,0.0437385700643062,-0.0067732473835349,-0.0201204307377338,0.0404980964958667,0.0027657486498355,0.0317618176341056,0.0237844325602054,0.0333686955273151,0.0311201158910989,0.0378896035254001,0.0365096181631088,0.0014242464676499,0.0391046777367591,-0.016480341553688,0.0088190762326121,0.0037179994396865,0.0338119976222515,-0.0182128846645355,0.0250906981527805,0.0040129721164703,-0.0109853893518447,0.0115032028406858,-0.007194010540843,-0.0166486017405986,-0.0033669029362499,-0.0346563346683979,-0.0122454743832349,-0.0076601551845669,0.0412789657711982,0.0447663962841033,-0.0429692082107067,0.0033883489668369,-0.0056140967644751,0.0436347387731075,-0.0254082288593053,0.0101211396977305,0.0500057153403759,0.0270457807928323,-0.0100831650197505,0.0124565185979008,0.027454050257802,0.0292851589620113,0.0339201316237449,0.0011190400691702,-0.0028310809284448,-0.0270781554281711,-0.0422132350504398,0.0047462969087064,0.0368726328015327,-0.0215795114636421,0.0310534462332725,0.0425019636750221,-0.0152312293648719,-0.0113272881135344,0.0410289205610752,0.0230487436056137,-0.013826954178512,0.0098081491887569,-0.0025184312835335,0.005721088964492,-0.0117925032973289,0.044683463871479,-0.0218556802719831,0.0215614717453718,0.0166565813124179,-0.0169931128621101,0.0148269822821021,-0.0512629710137844,-0.0139927817508578,-0.0149475075304508,0.0034847264178097,-0.0304280817508697,-0.0128721930086612,0.0025127837434411,0.0095522943884134,-0.028551235795021,-0.0073191914707422,0.0211754627525806,-0.0341511070728302,0.0080820424482226,-0.0313569456338882,-0.0311432369053363,-0.0196412429213523,-0.0236763413995504,0.0485885068774223,0.0404275469481945,0.0412000715732574,0.0332363247871398,-0.0114284176379442,0.0363090522587299,-0.0502998791635036,-0.0198119506239891,0.0111969411373138,-0.0020937658846378,0.0211061462759971,-0.0231238566339015,-0.021392710506916,-0.0353616699576377,0.0111066214740276,0.0084741245955228,-0.035430260002613,-0.0243053324520587,0.0371961295604705,-0.0327506177127361,0.0019622333347797,0.0413634926080703,-0.0202901344746351,0.0416094996035099,-0.0355800576508045,0.0378422364592552,-0.0205644126981496,-0.014153204858303,-0.0163953229784965,0.0256653726100921,0.0148533936589956,0.0133325010538101,0.0112089216709136,-0.0227321907877922,-0.0260549765080213
CID000003676,-0.0132308807224035,-0.0255900658667087,0.0094483196735382,0.0093508549034595,0.0087751056998968,0.0314005687832832,-0.0099806599318981,-0.0085694575682282,0.0232317801564931,-0.0237970426678657,0.0570292919874191,-0.0111620146781206,-0.0451748818159103,0.0360483676195144,-0.0416473224759101,-0.0054581025615334,0.0264069102704525,0.0121460556983947,-0.042368721216917,0.0146567001938819,-0.046517513692379,-0.0305779967457056,0.0288135278970003,-0.0079027451574802,0.0051282891072332,-0.034259408712387,-0.0197914503514766,-0.0507998168468475,-0.0085528809577226,-0.0201540663838386,-0.0387319102883338,-0.0110286492854356,-0.0032433299347758,-0.014525007456541,-0.0603009574115276,0.0039014995563775,0.0021325703710317,0.0103509053587913,0.007018307223916,-0.0317340195178985,-0.0231567397713661,0.019614478573203,-0.0050382972694933,-0.0251075346022844,-0.0206717923283576,-0.0172332040965557,-0.0136525072157382,-0.0254479628056287,0.0512529611587524,0.0123920375481247,0.0039603165350854,0.0272863823920488,-0.0428097322583198,0.0310725197196006,0.0141617581248283,-0.0388606339693069,0.0144454687833786,0.0097341462969779,-0.0286455936729908,0.0015322146937251,-0.0176549293100833,-0.0197267048060894,-0.011415478773415,0.0048491638153791,-0.0096764899790287,-0.0048970556817948,-0.0066348519176244,0.0343130156397819,0.013557706028223,0.0525138601660728,-0.0040853833779692,-0.0380118638277053,0.0386327542364597,0.0208306871354579,0.0469698011875152,0.0375690683722496,0.0065038492903113,-0.0409849248826503,-0.0095895826816558,0.0422667264938354,-0.0488065220415592,0.012668814510107,0.051040269434452,0.0116767920553684,0.0438427180051803,0.0077965762466192,-0.0394528284668922,-0.0131308212876319,0.0017905300483107,0.0173573568463325,0.0203156396746635,0.0512847676873207,-0.0332824625074863,-0.0164559967815876,0.0026305504143238,0.0320032201707363,0.0444532968103885,-0.0156415402889251,-0.0305418949574232,-0.0416399389505386,-0.0050308397039771,-0.0067207589745521,-0.0334812104701995,0.0083881886675953,-0.0347868986427784,-0.0399540439248085,-0.0187548659741878,-0.0446376129984855,0.044933371245861,-0.040016371756792,0.0367814302444458,0.014570327475667,0.0509963482618331,-0.0282102059572935,0.0145522570237517,0.0509240850806236,-0.0183358043432235,0.0213388130068779,-0.0132173215970397,0.0058048591017723,-0.0172628220170736,-0.0663966089487075,0.0200690310448408,-0.0216767061501741,-0.0392972528934478,-0.0181857459247112,-0.0139915002509951,-0.006383522413671,0.0165169797837734,0.0364418476819992,0.0293376129120588,-0.029022155329585,-0.0238874666392803,-0.0459007658064365,0.0233953054994344,-0.0488725826144218,0.051541656255722,0.0029091392643749,-0.0229279249906539,-0.0094032939523458,0.011893343180418,0.0214753691107034,-0.0440715141594409,0.042497843503952,-0.0176871791481971,0.0232547596096992,-0.0099885314702987,0.0411618836224079,-0.0237751044332981,0.0467309243977069,-0.0070071388036012,0.021993450820446,-0.0216674488037824,0.0059807440266013,0.00543760554865,0.026676433160901,-0.0136669017374515,-0.0303387083113193,-0.025672098621726,-0.0298220571130514,0.0324339233338832,-0.0026999334804713,-0.0280234906822443,-0.0362556129693985,0.039638802409172,0.0168856289237737,-0.0296125262975692,0.0495221763849258,-0.0343595333397388,-0.0414967164397239,0.0014095986261963,0.0200335122644901,-0.0330024622380733,-0.0155482692644,-0.0297020766884088,-0.0063631124794483,-0.0061561232432723,-0.0098134912550449,0.0187577493488788,0.0529519729316234,-0.0131794651970267,-0.0582249760627746,-0.0164113044738769,0.0422896817326545,0.0356820374727249,0.0143191833049058,-0.0177085399627685,0.0113637205213308,-0.0214562304317951,0.0101667046546936,0.0013953074812889,0.0101503012701869,0.0110510867089033,0.0164636634290218,-0.0007223449647426,-0.0229874551296234,0.0305367615073919,0.0108548738062381,-0.0059512583538889,-0.0470163710415363,0.0227344259619712,0.0122064650058746,0.0075780898332595,0.0171267017722129,-0.0181035082787275,0.0013266382738947,0.0355031490325927,0.0146775897592306,-0.0044361809268593,0.0155935222283005,0.0152856223285198,-0.0220366865396499,-0.0028945272788405,0.004599992185831,-0.0325154513120651,-0.0053886706009507,-0.0393957197666168,0.0064845792949199,0.0360364951193332,0.0366920791566371,-0.0098448349162936,0.0189026985317468,0.0495338030159473,-0.0349437892436981,-0.0324640609323978,0.0268173832446336,0.0657015815377235,-0.034645453095436,-0.0013160519301891,0.0319881178438663,0.0132432803511619,0.029015889391303,0.0572058707475662,0.0318962484598159,0.0190138015896081,0.0178394094109535,0.0376788266003131,-0.0310147292912006,0.0081984363496303,0.0192243698984384,-0.0185850672423839,0.0011457540094852,-0.0024354611523449,-0.0045857247896492,-0.0107664354145526,-0.0414772406220436,0.026339553296566,-0.0370504297316074,-0.0348700769245624,0.0421289466321468,-0.0203382335603237,-0.0145478164777159,-0.0016704136505723,-0.0039759585633873,0.0131857162341475,0.0500756576657295
CID000003339,0.013669254258275,0.0214267298579216,-0.0263346266001462,-0.0256518479436635,-0.0128062758594751,-0.0500565245747566,0.0349840782582759,0.0377009473741054,-0.0169048048555851,0.0038671921938657,0.0535450726747512,-0.0140516282990574,0.0171572938561439,-0.0372611247003078,0.0097377132624387,-0.0069586029276251,0.0336246788501739,0.0188964065164327,-0.0177357327193021,0.0004605548456311,0.0065619833767414,0.0172962211072444,0.0317469015717506,-0.0136069077998399,0.0402773879468441,0.0248714834451675,-0.0569735206663608,0.0198680181056261,-0.0375883914530277,0.0275233425199985,0.0122746033594012,0.0075361663475632,0.0028355168178677,-0.0112514570355415,0.0326429083943367,0.0424129627645015,0.0279225818812847,-0.0010790787637233,-0.0051952423527836,0.0214655920863151,0.0015895646065473,-0.0169158373028039,0.0194037426263093,0.0384504087269306,-0.0261090118438005,-0.0464268364012241,-0.0373908132314682,0.0208825748413801,0.0424837917089462,0.0203584916889667,-0.0170637257397174,0.0553373545408248,-0.0172057542949914,0.0261481031775474,-0.0034529701806604,-0.0360562726855278,0.015480370260775,0.0111737726256251,0.0013761441223323,-0.0398578643798828,0.0477312132716178,-0.0121578285470604,-0.0097856577485799,0.0372029691934585,-0.0533372685313224,-0.0422815755009651,0.0195212829858064,-0.0314698033034801,-0.0495770685374736,-0.0295055583119392,0.0205537471920251,-0.0098234554752707,0.0480294153094291,-0.0131230875849723,0.0035156589001417,-0.0449822358787059,0.0468186996877193,0.0072176945395767,-0.0464200116693973,-0.0285389553755521,-0.0088324081152677,0.0203527733683586,0.0423294082283973,-0.0085020354017615,0.0255663432180881,0.0524328052997589,0.002417919691652,-0.0153965381905436,0.0238889157772064,0.0467767678201198,0.0122999660670757,-0.0123167131096124,0.0106073562055826,-0.0400590375065803,-0.0238232649862766,0.0079432744532823,0.0075716832652688,-0.0283605474978685,-0.0033182019833475,0.0272583216428756,-0.0187357831746339,-0.0291184149682521,-0.0324073918163776,0.037741295993328,0.0052967374213039,0.0230778716504573,0.04208754748106,-0.0126651180908083,0.0334171764552593,-0.0289200283586978,-0.0196367092430591,-0.0154815893620252,-0.0213853493332862,0.0212130304425954,-0.0218024067580699,-0.0141909420490264,-3.556814044713974e-05,-0.0301778502762317,-0.0084928385913372,0.0086141312494874,-0.0011369250714778,0.0032572927884757,0.0209915228188037,-0.0088869677856564,-0.0152557734400033,-0.0129017122089862,-0.0038289902731776,-0.0239393077790737,0.0486134588718414,0.0029006372205913,0.0331374183297157,0.0229529459029436,-0.0108092613518238,-0.0012861511204391,-0.01890130341053,-0.0049721589311957,0.007224379107356,0.0327485315501689,-0.0053472388535737,-0.0364639237523078,-0.0103662516921758,-0.0114790387451648,-0.0213832296431064,0.0033333697356283,-0.007203035056591,0.0334354415535926,0.0343507006764411,-0.0207499917596578,-0.0103774908930063,-0.0130146034061908,0.0016221115365624,0.0258563943207263,-0.0251873172819614,-0.0058717033825814,0.0212945807725191,0.0052639408968389,-0.0137220444157719,0.0385069213807582,-0.0100325820967555,0.0186366215348243,0.0255201812833547,0.0384263806045055,-0.005628309212625,-0.0063620889559388,-0.0092140054330229,0.0417282804846763,0.0252983421087265,0.000289462506771,-0.0322560966014862,0.0298989862203598,0.000659757410176,-0.0241041649132967,0.003056043991819,0.0063591003417968,0.0056908302940428,0.0169823598116636,0.00087277777493,0.0364732556045055,-0.010817963629961,0.0157355312258005,-0.0112496465444564,-0.039904598146677,-0.013295185752213,0.0285437777638435,0.0032985513098537,-0.0151403741911053,-0.0402105189859867,0.0360491536557674,0.0426382198929786,0.0390578024089336,0.0049385065212845,0.026128901168704,-0.0209956243634223,-0.013074230402708,-0.020357271656394,0.02504313737154,-0.0259305983781814,-0.0192885398864746,-0.0521399155259132,-0.0284515265375375,-0.0391611531376838,0.0100772175937891,0.0240933150053024,-0.0012722150422632,-0.0381952114403247,-0.0060303043574094,0.0052896253764629,0.0059446617960929,0.0399735271930694,-0.043098147958517,0.0294870845973491,-0.0254918970167636,-0.0387740060687065,0.0631579160690307,-0.0484058521687984,0.048331469297409,0.0075731687247753,-0.0051430212333798,-0.0159589517861604,0.0209606755524873,0.0219578966498374,-0.036295972764492,0.0031603074166923,0.0168014727532863,-0.0076240170747041,-0.0403168685734272,-0.0034142660442739,-0.0134713184088468,0.0277726091444492,-0.0232496187090873,0.0093872481957077,-0.0104398913681507,0.0146304257214069,0.0116544188931584,0.0129903191700577,0.0272697657346725,0.022368436679244,-0.0150126703083515,-0.0048655117861926,0.0486151352524757,0.0103068836033344,-0.0190727747976779,0.0082426015287637,0.0333576947450637,0.007630162872374,0.0311730224639177,-0.0199878197163343,-0.037931278347969,0.0262482799589633,-0.0147731080651283,0.0332343056797981,-0.0410275533795356,-0.0372901521623134,0.0144969802349805,-0.0210029613226652,-0.0257332045584917
CID000005656,0.0327969044446945,-0.0215878412127494,-0.0259328130632638,-0.0560284554958343,0.0168644059449434,-0.0441714450716972,-0.0554052367806434,0.0184644982218742,0.0412133485078811,-0.0333156175911426,0.0517839789390563,-0.0285363718867301,-0.0113242045044898,0.018099995329976,0.0004139812663197,-0.0433273911476135,0.0389347448945045,0.038466390222311,0.0232378542423248,-0.0269896350800991,0.0125388912856578,0.0210146121680736,-0.0365964360535144,-0.0307494420558214,0.060605514794588,0.015816081315279,-0.0087778326123952,0.0203560832887887,-0.0123962108045816,0.0081158559769392,0.0364111550152301,0.007197193801403,-0.0179928373545408,0.0536151491105556,-0.025186687707901,-0.0029363725334405,-0.0415873974561691,0.0093711465597152,-0.0454961508512496,-0.0041580870747566,0.0453170128166675,0.0131637305021286,0.0512748807668685,0.0439567267894744,0.0467327013611793,0.0439156591892242,0.0037994589656591,-0.0178656261414289,0.0009580296464264,0.0105277262628078,0.0026059667579829,-0.033803965896368,-0.0564722307026386,-0.0464494004845619,0.0144740529358387,0.0320737846195697,0.0440682768821716,-0.0113145466893911,-0.0537159442901611,0.031446985900402,-0.0286912359297275,-0.0165583938360214,-0.0205170717090368,0.0172419808804988,0.0231522172689437,-0.0448923259973526,0.0231030341237783,-0.0311211980879306,0.0353066846728324,-0.0062423199415206,0.0338249020278453,-0.0318612493574619,-0.0183311812579631,0.0114557091146707,-0.0541331246495246,-0.0413517467677593,0.0408435352146625,-0.0342522971332073,-0.0278720241039991,0.0261921808123588,-0.0365659408271312,0.0083792358636856,-0.0029262439347803,0.0430521704256534,-0.0087019382044672,-0.0279232058674097,0.021832438185811,-0.0095928907394409,0.0249047353863716,-0.0487107969820499,-0.0043936385773122,-0.0166090652346611,0.0038789836689829,0.0365062281489372,0.0253594685345888,0.0377840101718902,-0.0115255508571863,-0.0256416033953428,-0.0159956570714712,-0.0239407364279031,-0.0003292104229331,-0.0173493269830942,-0.0369868278503418,0.0344241708517074,0.055960651487112,-0.0443144813179969,-0.0389407202601432,0.0282879136502742,0.0050857667811214,-0.0071337334811687,0.0155100943520665,0.0456972792744636,0.0032541900873184,-0.0100029241293668,0.0259659066796302,0.0354893803596496,-0.0017382169608026,0.0212756842374801,0.0322538800537586,-0.0417478755116462,-0.0082904398441314,0.001886636018753,-0.0465007275342941,0.0393523760139942,-0.0312307570129632,-0.025100840255618,0.0165114160627126,-0.0235909912735223,0.0314289405941963,0.0052917143329977,-0.0048461537808179,0.0322398580610752,-0.0302363708615303,0.0325271971523761,-0.0071343872696161,0.0136956432834267,0.0498740077018737,-0.0029308018274605,0.0130225894972682,0.0495642349123954,-0.015216626226902,-0.0062014912255108,0.0419824719429016,0.0224693398922681,-0.029860608279705,0.0584193021059036,-0.0077769663184881,0.0360619015991687,0.0444774478673934,0.0311491023749113,-0.0085578132420778,-0.0182783063501119,0.0131996618583798,0.0214042533189058,0.01549650169909,-0.0367421321570873,-0.017314251512289,-0.0244029499590396,-0.0520959794521331,0.0163613371551036,0.013477673754096,0.0211804080754518,0.0286593027412891,-0.0010102004744112,-0.0152524318546056,-0.0399271696805954,-0.0522129535675048,-0.0430884286761283,-0.0222921725362539,-0.01563629694283,-0.0050158929079771,0.0276266951113939,-0.0402754321694374,0.0075873620808124,-0.0008444297127425,0.0031588752754032,-0.0402632281184196,0.0274343416094779,-0.0092822229489684,-0.0057730749249458,0.015625923871994,0.0457136817276477,-0.0123806074261665,-0.0076458612456917,-0.0148935373872518,0.0052425134927034,-0.0236631147563457,0.010453613474965,-0.0028835274279117,0.0038691470399498,-0.0375312641263008,-0.0167937763035297,-0.0280918590724468,0.0160113275051116,-0.0473305657505989,0.036418754607439,0.019404238089919,0.0134710324928164,-0.0482231862843036,0.0019086673855781,-0.0422649718821048,-0.0079200267791748,0.0111064910888671,0.0211559738963842,0.0042906058952212,-0.0077910907566547,0.0305774603039026,0.0501728877425193,0.0054329857230186,-0.0010748570784926,-0.0287081860005855,-0.0099344085901975,0.021650057286024,0.055055659264326,0.0419791489839553,-0.0415176898241043,-0.0232955664396286,-0.0077406046912074,-0.0423091985285282,0.0089491652324795,0.0091618262231349,-0.0456105060875415,-0.0066355783492326,-0.0404605679214,-0.0095772873610258,0.0172416921705007,0.0158716179430484,-0.0042065563611686,-0.0561291649937629,-0.0073317717760801,0.0194181650876998,-0.0397470667958259,-0.0348679572343826,-0.0068102204240858,0.0069955200888216,0.0078817633911967,0.0488869547843933,-0.0282671023160219,-0.036069169640541,0.0109281595796346,-0.0117426365613937,-0.0083416486158967,0.0007141809910535,-0.0061950739473104,0.0398234650492668,-0.0060004135593771,-0.025215832516551,-0.0108379311859607,0.003305735066533,0.0099381897598505,-0.0282715950161218,-0.0452700331807136,0.0139371771365404,-0.0378027036786079,0.0465639159083366,0.0223323814570903
CID000000853,0.0280757918953895,-0.0019898845348507,-0.0185461230576038,-0.0096355788409709,0.0543611347675323,0.0216864943504333,0.0287392120808362,-0.0232858024537563,0.0136027056723833,-0.0228202380239963,-0.0100985849276185,0.0092383660376071,-0.0198424533009529,0.0504079312086105,-0.0413141511380672,0.029642254114151,-0.0281979627907276,0.0108274342492222,0.0156555995345115,-0.0054705827496945,0.0014200555160641,0.0268070511519908,-0.0253631509840488,-0.0141483740881085,0.0380990616977214,-0.0226367376744747,0.0073311366140842,0.0216572489589452,0.0444057844579219,-0.0306370928883552,0.0314067490398883,-0.0336858630180358,0.031488224864006,-0.0162570048123598,-0.0161531530320644,-0.0217564795166254,0.0190685335546731,0.0278310701251029,0.0090027302503585,0.0107906321063637,0.0175571329891681,-0.0117787877097725,0.0101582054048776,-0.0457665435969829,0.0319918990135192,-0.0539335459470748,-0.0446753278374671,0.0159271880984306,-0.0405271127820014,-0.0335227511823177,-0.0295083783566951,0.0289182644337415,0.0237084124237298,0.011920865625143,0.0359560400247573,-0.0064399354159832,-0.032106839120388,0.0268668755888938,0.0248575583100318,-0.0161011479794979,-0.0446884930133819,0.0065013216808438,0.0129596544429659,-0.048111442476511,0.0570774376392364,0.0292458981275558,0.0053069274872541,-0.0295788943767547,0.0088972514495253,0.0019247108139097,-0.0226551406085491,0.0379477106034755,0.0173987336456775,-0.0487661100924015,-0.0045917299576103,0.0123493270948529,-0.0317573994398117,0.0339200049638748,0.0074561317451298,0.0290987696498632,0.0172101743519306,-0.0170934535562992,-0.0063582151196897,0.0529138296842575,0.0459662675857543,0.0147231798619031,-0.0368042960762977,0.0360466502606868,-0.0139720682054758,-0.0095050428062677,-0.0127392522990703,0.0214748121798038,0.0358457826077938,-0.0450989082455635,-0.0542953386902809,0.0134233925491571,0.0208555944263935,-0.006763007491827,-0.0233523193746805,0.0126016056165099,-0.0342081226408481,0.0527008809149265,0.0323676615953445,-0.0329735502600669,-0.0352248959243297,0.0341090038418769,-0.0386788845062255,-0.020359493792057,0.0225096903741359,-0.0372619405388832,-0.0372710116207599,0.0134036056697368,0.0167611427605152,-0.034960851073265,0.0351158678531646,0.0169156566262245,-0.0180108677595853,-0.0227197725325822,0.0121659319847822,-8.818507194519043e-05,-0.0054774563759565,0.0190350022166967,0.0253050476312637,0.0049534430727362,-0.0138248484581708,-0.0248833708465099,-0.0277018547058105,0.0052291098982095,-0.0437352880835533,-0.0301606580615043,-0.0060926564037799,0.0210265330970287,-0.0388521030545234,-0.0119512639939785,0.0074833366088569,0.0122249033302068,-0.0160832349210977,0.0175376217812299,-0.0270405672490596,-0.0135385366156697,-0.0316792763769626,-0.0081377858296036,0.019311225041747,-0.009689362719655,0.0042444514110684,-0.0326907336711883,0.0410383194684982,-0.0068005677312612,-0.0082752183079719,0.0391395017504692,0.0437728203833103,-0.0271053370088338,-0.024139666929841,0.0453578345477581,0.0258098375052213,-0.0003504585474729,-0.0252458378672599,0.0138221560046076,-0.0179770719259977,0.0031249206513166,0.0045058447867631,-0.0324348360300064,-0.0014308826066553,-0.0074146478436887,-0.0117272976785898,0.0140451295301318,0.0468167252838611,0.0121131706982851,0.0026488767471164,-0.0232717096805572,-0.0201755203306674,-0.0360574908554554,0.0047239493578672,-0.0434459224343299,-0.0349189713597297,0.0030946535989642,-0.0045222556218504,-0.0153732039034366,-0.0087883062660694,-0.0387531369924545,0.0155341196805238,-0.0466360487043857,0.0313588678836822,0.0100036226212978,-0.032908022403717,0.0322914198040962,0.0176957473158836,0.0255146194249391,-0.0216254964470863,0.0108651695773005,-0.0400464832782745,0.0276489872485399,0.0082647018134593,-0.0221188925206661,-0.0378232486546039,-0.0126807456836104,0.008011857047677,0.0294989701360464,0.0313814803957939,0.0271459370851516,-0.033824261277914,0.0338607914745807,0.0204912759363651,-0.0198955461382865,-0.037913154810667,-0.0127651505172252,0.0444138348102569,0.002454528119415,-0.0221342593431472,0.0022699278779327,-0.0154103580862283,-0.0055285966955125,0.0222060829401016,-0.0297593064606189,0.0211372319608926,0.0239047929644584,-0.0099951643496751,-0.0310005713254213,-0.0456898286938667,-0.020736675709486,0.0314651764929294,0.0384069196879863,0.0088982675224542,-0.0279032550752162,0.0209432989358901,0.0030317232012748,-0.0126404585316777,-0.021595150232315,0.0391859747469425,-0.0029419506900012,0.0274748113006353,-0.0242307465523481,0.0538168251514434,0.0145695516839623,-0.0210590101778507,0.013389135710895,0.0261253658682107,-0.0074617960490286,-0.0057044462300837,0.0206772629171609,-0.0435963198542594,0.0228673964738845,0.040711510926485,0.0273049622774124,0.0172172598540782,-0.0181056149303913,0.0055819260887801,-0.0424696542322635,-0.0315021127462387,0.0300939548760652,-0.0428290255367755,0.0009187185205519,0.0326489172875881,-0.0006797453388571,-0.0001994548365473,-0.0132057201117277
CID000119607,-0.0134670119732618,0.0352578349411487,-0.0047381073236465,0.027692886069417,-0.0299093388020992,-0.0174016132950782,-0.0228654220700263,0.0266392566263675,0.0419399105012416,0.0257349759340286,0.0208351425826549,0.0116446344181895,0.0659222081303596,-0.0089430352672934,0.0166468061506748,0.0513977259397506,0.0458396635949611,-0.0098968725651502,0.0246667843312025,0.0153909502550959,0.0188004467636346,-0.0212396588176488,0.0089895194396376,-0.005881336517632,0.0082799941301345,0.0276111755520105,0.0149890249595046,0.0100867403671145,0.0428995266556739,-0.0186728239059448,0.0203738063573837,-0.0311632305383682,0.0034303097054362,0.0574308075010776,-0.0174254365265369,-0.0056058736518025,0.0060213087126612,0.0490757003426551,-0.0063185938633978,0.0364310629665851,-0.0341342650353908,0.0247298292815685,0.0364630818367004,0.0082891779020428,-0.0257227551192045,-0.0422860197722911,0.0286056026816368,-0.0287465974688529,0.0396634228527545,0.0155164068564772,0.0043118651956319,0.0279782805591821,-0.0304846074432134,-0.0338610038161277,-0.0332635603845119,-0.0115371365100145,-0.0024750125594437,-0.0227362364530563,-0.0439143441617488,-0.0119041744619607,-0.0101765869185328,-0.0427953824400901,0.0191758908331394,-0.0001027514226734,0.0348929390311241,0.0116215823218226,-0.0318516939878463,0.0378119014203548,0.0270619969815015,0.0096040554344654,-0.0217705480754375,0.0485119335353374,-0.0197113007307052,0.0263614486902952,0.0049380492419004,0.0078383805230259,-0.0069631407968699,0.0197362601757049,0.0370441414415836,-0.0280432775616645,-0.0118884546682238,-0.0133684808388352,-0.0492111146450042,0.0500380247831344,-0.0088645089417696,0.0247527249157428,0.0372014343738555,0.0303241871297359,0.0234877802431583,0.0047165295109152,0.0293597988784313,-0.0027201706543564,0.0187850762158632,-0.0026669558137655,0.0373731516301631,0.0186273194849491,-0.0189605876803398,-0.0383113287389278,0.0446643941104412,-0.0101277576759457,-0.0454429723322391,0.0227146726101636,-0.0156174022704362,0.0082438653334975,-0.0036713667213916,0.0062755914404988,0.0288246050477027,-0.0239926688373088,0.0473831333220005,-0.003481906838715,-0.0029112631455063,-0.0021382002159953,-0.0112905446439981,0.0077267312444746,0.0534360185265541,0.0297226160764694,-0.0350039862096309,0.0199896227568388,-0.0041345348581671,-0.0056530823931097,-0.019965436309576,-0.0490360930562019,0.0147167146205902,0.0378922447562217,-0.0136550739407539,0.009692414663732,0.0222591049969196,0.032414399087429,0.0125603526830673,0.0350903682410717,-0.020118311047554,-0.0066050267778337,0.0191975980997085,0.0162039995193481,0.0028548398986458,0.0185869596898555,-0.001673758495599,-0.0165439005941152,0.0353056974709034,0.0093829194083809,0.0153829734772443,0.0168298557400703,0.0472308620810508,-0.0354275666177272,0.0071977558545768,-0.026823304593563,-0.0176507122814655,-0.0054039410315454,0.0504731982946395,0.0338373221457004,0.0352659784257411,0.0032857372425496,-0.0116257090121507,0.032611608505249,-0.0067492006346583,-0.0223755035549402,0.0382648520171642,0.0439596287906169,-0.0034522898495197,-0.0195048451423645,0.0410359054803848,0.0218804143369197,0.0370945408940315,-0.0295678842812776,-0.0158635899424552,-0.0322041809558868,-0.0146225122734904,0.0126968454569578,-0.026431044563651,-0.0097910976037383,0.0140360109508037,0.001620705705136,-0.0218600966036319,0.0417191833257675,0.0126328747719526,-0.0252708010375499,0.0049838945269584,0.0245444532483816,0.014909847639501,0.0358155816793441,0.0391733981668949,0.050468023866415,-0.0043591717258095,-0.0189991518855094,-0.005353610496968,-0.0037728804163634,-0.0249162390828132,-0.0271885283291339,-0.0306974407285451,0.0164835210889577,0.0273293703794479,-0.0126876207068562,0.0356408804655075,0.0094473585486412,0.0332893952727317,0.0237149968743324,0.0112114641815423,0.0086911413818597,0.0285401213914155,0.0290651936084032,-0.007374201901257,-0.0079777752980589,-0.0313565395772457,-0.0054217940196394,0.0405539609491825,0.0033754021860659,-0.0268873311579227,-0.0080801146104931,0.0385601595044136,-0.0371615253388881,0.0301937665790319,0.0088044796139001,0.0251424480229616,0.0257681459188461,0.0309372823685407,0.0418578833341598,0.0200323723256587,-0.0041828928515315,-0.0515069961547851,-0.0178343057632446,0.0155547205358743,0.0424994081258773,-0.0343815498054027,-0.0144478129222989,0.0125056747347116,0.0425307340919971,0.0409827604889869,0.0206273589283227,0.0296225938946008,0.0280609149485826,0.048394426703453,0.0190551672130823,0.0091033400967717,0.0180934611707925,0.0228863861411809,0.048974510282278,0.0331258960068225,-0.0177779626101255,0.0134633770212531,-0.0168267786502838,-0.0092550199478864,0.0081322472542524,0.0365448854863643,-0.0083217993378639,0.0089172450825572,-0.0311394929885864,0.0221028756350278,0.0250855330377817,-0.0078478325158357,0.0092475600540637,0.0005964008159935,-0.0020277630537748,-0.0295686163008213,-0.0027561676688492,-0.0060250936076045,-0.0127948550507426
CID000004889,0.016429416835308,0.0453453697264194,-0.0374814681708812,0.0301999300718307,-0.0279249437153339,-0.0482309460639953,-0.0198776572942733,-0.0278492160141468,-0.0057706874795258,-0.0214641354978084,0.0028592478483915,0.0187435541301965,-0.0021050334908068,0.0335824638605117,0.0450220666825771,0.0388076081871986,-0.0378699414432048,0.0161233097314834,-0.0280291698873043,0.0408683791756629,0.0052477372810244,-0.0127291800454258,0.0125525528565049,-0.0454923957586288,0.0266359578818082,0.0473209209740161,0.0092501789331436,-0.0348632037639617,0.0517022795975208,-0.0015407563187181,0.0234209597110748,-0.0525770112872123,0.0182506665587425,0.0085721695795655,-0.0251427199691534,0.0315122753381729,0.0103611275553703,-0.0281478036195039,-0.0046162228100001,-0.0320131704211235,0.0353204607963562,-0.04185401648283,0.0328627936542034,0.0249804947525262,0.0360984578728675,0.0419423654675483,-0.0065939109772443,0.011343341320753,-0.0273501332849264,0.0037811459042131,0.0367553085088729,-0.0314571820199489,0.0348534993827343,-0.0114306584000587,0.0050778705626726,-0.0429223179817199,0.0139659885317087,-0.0022191321477293,-0.0123349837958812,-0.0296102706342935,0.0309426411986351,0.0042753461748361,0.0478572510182857,0.0097366170957684,-0.0031249942258,-0.0438107512891292,-0.0268751047551631,-0.0201919991523027,0.027392653748393,0.019827801734209,0.0129888821393251,-0.0268955137580633,0.0027299476787447,0.0176894105970859,-0.0141692981123924,0.0215342547744512,0.042743545025587,-0.0220974534749984,0.0210287552326917,-0.004351538605988,0.0120890969410538,0.0277270823717117,0.0109028117731213,0.0445366390049457,-0.0076541993767023,0.0388798601925373,0.0375484563410282,-0.0315326750278472,-0.0261179003864526,0.0287676472216844,-0.0420527160167694,0.0254052132368087,-0.0521502867341041,-0.0444854870438575,0.0232222732156515,0.0393508374691009,0.0459015555679798,-0.0178145878016948,-0.0212587919086217,0.0308996718376874,0.0028879407327622,0.0248801074922084,-0.0156579967588186,-0.0262437500059604,0.0043500983156263,0.0418568849563598,0.0329430401325225,0.0045722918584942,0.0434461049735546,-0.0322485193610191,0.0192435048520565,0.0299041084945201,0.0334298908710479,0.0364541783928871,0.0235680621117353,-0.008185782469809,0.0210765581578016,0.0387020744383335,-0.0451287999749183,-0.0295313168317079,0.0263609550893306,0.0253061391413211,0.0105267940089106,-0.0416424386203289,0.0265735611319541,-0.0342842824757099,0.0150798466056585,-0.0062270225025713,-0.0180119331926107,-0.0206581093370914,-0.0062704682350158,-0.0001482181251049,-0.0028349859640002,-0.0327484756708145,0.0022397516295313,0.0426860861480236,-0.0354755818843841,0.0165541972965002,-0.003161396831274,0.0437499321997165,0.0328104831278324,0.0335900075733661,-0.0443542152643203,0.0203903634101152,0.0130318161100149,-0.0356428958475589,-0.048548586666584,-0.0003414600505493,0.0248699598014354,-0.0081963613629341,0.0037497566081583,0.0028323996812105,0.0057959258556365,-0.0140921659767627,-0.0159244202077388,-0.0308623276650905,0.0317557863891124,0.0171203911304473,-0.0080244187265634,-0.0042794458568096,-0.0252402890473604,0.015189429745078,-0.0326888635754585,-0.0343507975339889,-0.0139286099001765,-0.0429182015359401,-0.0081161921843886,0.0362089090049266,-0.0198920480906963,-0.0479394569993019,0.0290148183703422,0.0333364680409431,-0.0002263486385345,0.0448694229125976,0.0168119482696056,0.0303951147943735,0.031655266880989,0.0025989979039877,-0.0333941020071506,0.0050109019502997,0.0359024256467819,-0.0073462650179862,0.0295575708150863,-0.0192208960652351,0.031959731131792,-0.0402427576482296,-0.0007463548681698,-0.048266127705574,0.0274875946342945,0.0410517491400241,-0.0079599861055612,0.006897454150021,0.0261574499309062,-0.0013694954104721,-0.0367821976542472,0.0306295417249202,0.0162470676004886,0.0054579111747443,-0.0148828718811273,0.0245100986212492,0.0150602255016565,-0.0068450551480054,0.0453071631491184,0.009610622189939,-0.0115003623068332,0.0357918888330459,0.0551040954887867,0.0167785733938217,0.0102088656276464,-0.0222533773630857,0.0321007780730724,-0.006406735163182,0.0238447152078151,-0.0176077131181955,-0.0021088756620883,0.0039240978658199,0.0104080364108085,0.0234955605119466,-0.0197469238191843,0.0189259983599185,0.0295418612658977,-0.0304024759680032,-0.0025300253182649,0.0426741018891334,0.0015296530909836,-0.0341165699064731,0.0426471158862113,-0.0466087609529495,0.031384639441967,0.0072891912423074,0.0490663945674896,-0.0410796403884887,0.0345268584787845,0.0242660474032163,0.0202739126980304,0.0128593267872929,-0.013087686151266,-0.051442477852106,-0.0068440358154475,0.0502350740134716,-0.0364718213677406,0.0308272913098335,0.0386683866381645,0.0047938032075762,-0.0204690769314765,-0.0238536763936281,0.0405084490776062,-0.0039567863568663,0.0200648754835128,-0.0074258334934711,-0.0279588736593723,0.0222523100674152,0.0180584974586963,-0.0361318141222,0.0252949930727481,-0.022757863625884
CID000003154,-0.0316405333578586,0.0350190624594688,-0.0349524319171905,-0.0123161626979708,-0.015727574005723,-0.0296037960797548,-0.0109055219218134,-0.0143908467143774,-0.0271477773785591,0.0213391724973917,-0.0446927398443222,0.0200691074132919,-0.0336435325443744,-0.0290695875883102,0.0436711944639682,-0.0193759631365537,-0.010331935249269,0.0074575347825884,-0.0095619885250926,0.0141582898795604,0.0015221685171127,-0.0106068029999732,-0.0130737870931625,0.0198897402733564,0.0116360615938901,-0.0440227426588535,-0.0300180092453956,0.0365606732666492,0.0002440502867102,0.0237577334046363,0.0340082012116909,-0.0121456757187843,0.0162463281303644,-0.0009590699337422,0.0181632842868566,-0.0262424387037754,0.0247659776359796,-0.0114758908748626,0.0408370941877365,0.0068262247368693,-0.0019398340955376,0.0083086900413036,0.0340016633272171,-0.0306953229010105,0.0150596369057893,0.0284677408635616,-0.0303539931774139,0.0061313300393521,0.0011412112507969,0.0012694997712969,-0.0072588981129229,0.0409450121223926,0.0238963961601257,-0.0001143861736636,0.0371262431144714,0.0340703278779983,0.0198425315320491,-0.0291741862893104,0.002070999937132,0.0193240195512771,-0.0366103909909725,0.0017258495790883,-0.0063954787328839,0.0310377776622772,0.0244071818888187,-0.0394072495400905,-0.0464955791831016,0.0393342450261116,0.0208824314177036,-0.0062822476029396,-0.0258727725595235,0.0014262413606047,0.0184497777372598,-0.0025755735114216,0.0115918247029185,0.0473819300532341,0.0030755940824747,0.0256441477686166,0.0364934839308261,0.0204708110541105,-0.0340057350695133,-0.0125396121293306,-0.0407538339495658,0.0100928386673331,-0.0013153455220162,-0.0396693497896194,0.0368450805544853,-0.0221120882779359,0.0423704721033573,-0.0099580334499478,-0.0225155167281627,-0.0328624844551086,0.041356474161148,-0.0066950339823961,-0.0342776849865913,0.053524449467659,0.0080238096415996,0.0359323397278785,0.0101184528321027,-0.0237610284239053,-0.0166099499911069,0.0002098358236253,-0.0318764373660087,0.0067624803632497,-0.0382320880889892,0.0242347568273544,-0.0282400734722614,-0.0218066107481718,-0.0190878026187419,0.0401216521859169,-0.004227565601468,-0.0001953840255737,0.0329208746552467,-0.0036193570122122,0.0209540743380785,-0.0278006233274936,-0.0436763726174831,0.0167000629007816,-0.0118195144459605,0.0552707239985466,0.0061863060109317,-0.012344573624432,0.035869762301445,0.0086538046598434,0.0240366887301206,-0.0407366752624511,-0.0428180024027824,-0.017876461148262,0.0092562958598136,-0.0003376225940883,-0.009868923574686,0.0027087605558335,-0.0348460637032985,0.0445305481553077,-0.0047974549233913,-0.0196504816412925,-0.0095118703320622,-0.0076722530648112,-0.009728331118822,0.0241257548332214,-0.0325239524245262,0.0355478785932064,-0.0209573917090892,0.0200705248862504,0.0067348200827836,0.0443384200334548,-0.0091829681769013,0.0512641370296478,0.0060949064791202,0.0352502614259719,0.0163405612111091,0.0182849839329719,-0.0368723347783088,-0.0494178086519241,-0.036020889878273,0.0180784426629543,-0.0110310204327106,0.0473573356866836,-0.0321311317384243,0.0324236564338207,-0.0049610761925578,-0.0318026542663574,-0.0280943010002374,-0.0309686101973056,0.0169157516211271,-0.0176186189055442,0.0177892073988914,-0.0215991474688053,0.0085752196609973,0.0038241483271121,-0.0358806401491165,-0.0324219390749931,0.0237307008355855,-0.0184928830713033,-0.0150758316740393,0.0164403803646564,-0.0358057469129562,0.0291382409632205,-0.0030679495539516,0.0413612686097621,-0.008122238330543,-0.0245555564761161,0.0419491827487945,0.0145773356780409,0.0293538123369216,0.02157848700881,-0.0047827307134866,0.0291903242468833,-0.0186457186937332,0.0205589048564434,-0.0375424809753894,0.0321432314813137,0.0513333044946193,-0.0470780506730079,0.026581909507513,0.0218368247151374,0.0398711040616035,0.0441361591219902,0.0220637321472167,0.037273209542036,0.01687728241086,0.0341362990438938,-0.0204621404409408,-0.0409859828650951,0.036397460848093,-0.0155432969331741,0.0522853508591651,-0.0101911723613739,0.0087008960545063,-0.0440066792070865,0.0424398891627788,0.0236576963216066,0.0233507454395294,0.0386843755841255,0.058198008686304,-0.0490605644881725,0.0132977589964866,-0.0344025567173957,-0.0131520582363009,0.0191751476377248,0.0157693102955818,0.0553747192025184,-0.0273671746253967,0.001440324820578,0.0036866068840026,-0.0506377890706062,-0.0025687324814498,0.0020423599053174,0.0389209315180778,0.0263318866491317,0.0276197474449872,-0.0025151064619421,0.0499406680464744,-0.0238355509936809,0.0421779714524745,-0.01381909660995,-0.0499604381620883,0.0296511836349964,-0.0149270324036479,-0.0233314204961061,-0.0079396804794669,0.005033585242927,-0.0068623423576354,0.0314488410949707,0.0272510815411806,-0.0434199497103691,-0.0089198546484112,0.028695736080408,-0.0001150413881987,-0.0277709662914276,-0.0120572801679372,-0.0358005166053772,-0.0264997817575931,-0.0113282855600118,-0.0095351804047822,-0.0032856529578566
CID000005029,0.0304217711091041,0.0284676533192396,-0.0114262094721198,0.0590178221464157,0.036386027932167,-0.0175952948629856,0.0415133014321327,0.0279294811189174,-0.0034506488591432,-0.0359416007995605,-0.0375225469470024,0.0105090253055095,0.0332924500107765,-0.0378812029957771,0.0026030167937278,0.0388021878898143,0.0295546483248472,-0.0475060902535915,0.015252117998898,-0.0089637897908687,0.0500598847866058,0.0255842395126819,-0.0484630465507507,0.0519455894827842,-0.0221472978591918,0.0401837825775146,0.0144367478787899,-0.0226708874106407,-0.0144187221303582,-0.05068014934659,0.0363084264099597,-0.0294826310127973,0.0302948765456676,0.025191456079483,0.0083364946767687,0.0368875153362751,0.013672923669219,-0.0135580729693174,0.0458004176616668,-0.0498300418257713,0.0113028157502412,0.0152600351721048,0.0511920228600502,0.0215055532753467,0.0354534909129142,0.0223696026951074,0.0190365500748157,0.0016497233882546,-0.0082071460783481,0.0688660368323326,0.0309760589152574,-0.0337825641036033,-0.0430022589862346,0.0239248648285865,0.0061616748571395,-0.0137684792280197,-0.0045055570080876,-0.0250887870788574,0.0509028248488903,0.001274793408811,0.010942998342216,0.0409817323088645,-0.0106408335268497,-0.0300380811095237,-0.0077463057823479,-0.022276509553194,-0.021697923541069,-0.043678630143404,0.0200178157538175,0.0235100463032722,0.0013010804541409,-0.0421020053327083,0.0278369523584842,-0.0144698210060596,-0.0175639055669307,-0.0368231572210788,0.0069342851638793,-0.020490139722824,0.0201578289270401,0.0289456099271774,-0.0395345129072666,-0.0203774143010377,-0.028907211497426,-0.025224657729268,-0.0153004694730043,-0.0077614444307982,-0.0009026853367686,-0.011425576172769,-0.02342364564538,-0.0303236339241266,-0.0094835627824068,0.0043045077472925,0.0117496168240904,0.0066927107982337,0.0259791705757379,-0.0455198846757411,0.0303823072463274,-0.0104163270443677,-0.0425195321440696,-0.0408191904425621,0.0239967200905084,0.0153901278972625,-0.0056877937167882,-0.0131807690486311,0.0422520972788333,-0.0381055809557437,0.0091537488624453,0.0095472941175103,-0.0056314594112336,0.0356182754039764,-0.0229561049491167,-0.01320974342525,-0.0112226139754056,-0.0009743816917762,-0.016540877521038,-0.0246535930782556,-0.0467801913619041,0.0051545528694987,-0.0042335763573646,0.0265053138136863,0.0344124771654605,0.002914254553616,0.0181575845927,0.0061230845749378,-0.0227082669734954,-0.0205468274652957,-0.034820307046175,0.0250547062605619,0.0033711865544319,0.0316484533250331,0.0015335113275796,0.0414898730814456,-0.0049592927098274,0.0048933601938188,0.0406154319643974,0.0164978206157684,0.0218469128012657,-0.0219808556139469,-0.0050983261317014,0.0401603020727634,0.0108052603900432,-0.0408526808023452,0.0052642626687884,-0.0267467647790908,0.0374989993870258,-0.009323937818408,0.0171431768685579,-0.0238241255283355,0.0540705397725105,0.0520532988011837,-0.0331325903534889,-0.0538159385323524,0.0125084351748228,0.0273083169013261,0.0230273380875587,0.0114858224987983,0.0283561870455741,0.0400909781455993,0.0046160845085978,0.0344646088778972,0.0155188366770744,0.0133497156202793,0.0493987724184989,0.033310480415821,0.0151676461100578,-0.00840281881392,0.047063760459423,-0.0207666642963886,0.0127907078713178,-0.0286266077309846,-0.0022930214181542,0.0396771505475044,-0.0332994684576988,-0.0126499496400356,0.0169714838266372,0.0474669747054576,0.0297617390751838,-0.0402993746101856,0.0296612568199634,-0.0307638775557279,0.007343091070652,-0.0245015081018209,0.0111132655292749,0.0262687727808952,0.0248424913734197,0.0482772327959537,-0.0332724191248416,-0.0394677184522151,0.0495295003056526,0.0156805664300918,-0.0393048040568828,0.026236280798912,0.0017343217041343,-0.0279607735574245,0.0243272949010133,-0.0370602048933506,0.0024883681908249,0.0034679332748055,-0.0024867155589163,-0.0399923846125602,0.0267225634306669,0.0409684292972087,-0.0505601912736892,-0.0342466831207275,0.0181704945862293,0.0404345542192459,-0.0299551263451576,-0.0170613974332809,0.0533865354955196,0.0331646651029586,0.0252239070832729,0.0236941166222095,0.0269738566130399,0.0575725883245468,0.0212303549051284,0.0188315398991107,-0.0060550295747816,0.0356944315135479,-0.038073256611824,0.034935787320137,-0.0011434393236413,0.0003265001578256,-0.0132116209715604,0.0558087415993213,-0.0139036392793059,0.0392620079219341,-0.0264082141220569,0.0268087740987539,-0.0181774161756038,0.0117421280592679,0.0516775995492935,-0.0076975943520665,-0.0045572035014629,-0.0117061175405979,0.0100180050358176,0.0444379262626171,-0.0066099185496568,0.0358010604977607,-0.0256158933043479,0.0172834489494562,-0.0170849338173866,0.0504901073873043,0.0035811199340969,0.0036310828290879,-0.0183566398918628,-0.034511312842369,0.032994408160448,0.0299412608146667,-0.0259817745536565,0.043897908180952,0.0151687003672122,-0.0036411490291357,0.0220882352441549,-0.0004317613784223,0.0111240539699792,-0.0027375379577279
CID000003823,-0.040562130510807,0.033041700720787,0.0414199605584144,0.0475498214364051,0.0177340731024742,-0.0471086278557777,-0.0219631996005773,0.0324482545256614,-0.0052427118644118,-0.0379427410662174,-0.0272106900811195,0.0030358238145709,-0.0098150894045829,-0.0121803656220436,0.0092196287587285,0.0021404800936579,-0.0440162122249603,-0.0046406229957938,0.0249171145260334,0.0263538844883441,-0.0311598517000675,0.0126676401123404,-0.0265532471239566,0.0100235445424914,0.0305487383157014,-0.0294390060007572,0.0063684144988656,-0.0345998182892799,-0.0271611753851175,0.0473743006587028,-0.0304508805274963,0.0282852537930011,-0.0237910617142915,-0.0279198512434959,0.0314491279423236,0.0141612328588962,-0.0029924819245934,0.0125497095286846,0.028538916260004,0.0112432409077882,0.009774612262845,0.0090773049741983,0.0004455400630831,0.0327671393752098,0.0312124080955982,0.0223596114665269,0.0487081296741962,-0.0425818152725696,0.0129898516461253,0.0269247833639383,-0.0369837656617164,0.0199005622416734,0.0358985513448715,-0.0371119603514671,0.0425387844443321,-0.0083518801257014,-0.0190180111676454,0.0215293336659669,-0.0251218434423208,0.0389638468623161,-0.0084889717400074,0.0028706334996968,0.0049104266799986,-0.0105601474642753,0.0389320999383926,-0.010178355500102,-0.0356842875480651,-0.0186004489660263,-0.0162284318357706,0.003527897177264,-0.0483848452568054,-0.0282569136470556,0.045585099607706,-0.0001029369886964,-0.0108751943334937,-0.0378736034035682,-0.0131549956277012,0.0106733720749616,-0.0159281883388757,-0.0159811824560165,-0.0235981978476047,-0.0169045310467481,-0.0083926757797598,-0.0349972546100616,0.0283796153962612,0.0145578160881996,-0.0119279054924845,0.0204312093555927,-0.0056318049319088,0.0439930744469165,-0.0186733230948448,0.0154084982350468,0.0460659898817539,0.030313853174448,0.0142716020345687,0.0202804263681173,-0.0263555198907852,0.0511383414268493,0.0199974607676267,0.0144120249897241,0.0272316690534353,0.0251095183193683,-0.0177995171397924,0.0233396776020526,0.0227131210267543,0.0320870876312255,0.018934803083539,-0.0085020940750837,0.0179259069263935,-0.0189547594636678,-0.0020847970154136,0.0397985205054283,-0.0210047271102666,-0.0305000562220811,-0.0198333039879798,0.0274698063731193,-0.0171552468091249,0.0178044401109218,0.0253135301172733,-0.0379075035452842,0.0091986991465091,0.0267797950655221,-0.0289657488465309,0.0245660152286291,0.0395208150148391,-0.0338691025972366,-0.0269536059349775,-0.0012805694714188,-0.0013882280327379,-0.0247476026415824,-0.0080980584025383,-0.0067022130824625,-0.0487059615552425,-0.0041364580392837,0.0231256633996963,-0.0244907829910516,-0.0294433683156967,0.0130631476640701,0.0396137200295925,-0.0082054939121007,0.014814181253314,-0.0094132088124752,0.0372556708753109,0.0315301083028316,-0.0001582326367497,0.0184728894382715,-0.02445531450212,0.0217022001743316,0.0410653799772262,0.0228587836027145,0.0285474322736263,0.0223338156938552,-0.012568486854434,-0.0421681255102157,0.0321245640516281,-0.0287930518388748,-0.0489294342696666,-0.023683987557888,0.0403441898524761,-0.0378814823925495,-0.0208274461328983,0.0040803700685501,-0.0149282692000269,0.0094574354588985,0.0247377268970012,0.023239767178893,-0.0117089385166764,-0.0188105925917625,0.0247947443276643,-0.0039546345360577,0.0298493318259716,-0.0287109967321157,0.0201748218387365,0.0043369913473725,-0.0287157744169235,-0.0087473969906568,0.026977427303791,0.0089374836534261,-0.0188574455678462,-0.0272475965321064,0.0245656128972768,0.0497680827975273,-0.0031226896680891,0.0365195125341415,-0.0402386076748371,0.0250502526760101,-0.000848633237183,-0.02865388430655,0.0066642365418374,-0.0088602174073457,-0.0032325324136763,-0.0233028642833232,0.0193344671279191,0.0178518071770668,-0.0417513959109783,-0.0437540486454963,0.0354364924132823,0.033346701413393,0.0346832349896431,-0.0150382202118635,0.0067338636144995,0.013980496674776,0.0406502149999141,0.0384323596954345,-0.0343648679554462,-0.0446655042469501,-0.030763890594244,-0.0409344583749771,-0.0098705096170306,0.0130380066111683,-0.0348378121852874,-0.0289743337780237,-0.019183637574315,0.047520276159048,0.0214303024113178,0.0191172882914543,0.0059277638792991,-0.0416437834501266,0.0322781652212142,0.0357872545719146,0.025464242324233,0.0052816057577729,-0.0233295820653438,-0.0386461317539215,0.0003801025450229,-0.0356791317462921,0.0133077818900346,-0.0498499572277069,0.0380600653588771,0.0041969344019889,0.0476491674780845,-0.0126294000074267,-0.0384170264005661,0.0213413834571838,0.014137577265501,0.0099268304184079,0.0033574309200048,-0.0243056379258632,0.0270553268492221,0.0259521845728158,-0.0056439964100718,-0.0310999937355518,0.0180259924381971,-0.0326663292944431,-0.0304317083209753,-0.018436400219798,0.0431401580572128,0.0135329542681574,0.0079133668914437,0.000674286391586,0.0379811935126781,-0.033895157277584,-0.0132230557501316,0.0210539326071739,0.0521309860050678,-0.0271854512393474
CID000003937,0.0202581733465194,-0.0059475088492035,-0.0009318361990153,0.0213665440678596,-0.0318743214011192,0.0182665400207042,-0.0011757512111216,0.0495671033859252,0.0299350656569004,0.0357687585055828,0.031874656677246,0.0333918519318103,-0.0016708872281014,0.0262075588107109,-0.029499314725399,0.003502694889903,0.0083805667236447,0.0247164759784936,0.0221989452838897,0.029071245342493,-0.0163522083312273,-0.0117495721206069,0.0413059219717979,0.0225197374820709,0.0336401835083961,-0.0022874143905937,0.0013318699784576,-0.0010355412960052,0.0049615991301834,0.0384933874011039,-0.0022602975368499,0.039411287754774,-0.0289317145943641,0.0295194014906883,-0.0085866330191493,-0.0141672268509864,0.0157474987208843,-0.05164710059762,-0.0433106422424316,0.0358726680278778,-0.0202965568751096,-0.0104358326643705,0.0474065169692039,0.0097938124090433,-0.0110053718090057,0.0037379281129688,-0.016645923256874,-0.0168640054762363,0.0385560281574726,-0.0379858203232288,-0.0006445730105042,-0.023329759016633,-0.0321609228849411,-0.0489802807569503,0.0276506748050451,-0.0039850031025707,-0.0292328167706727,-0.0225335508584976,0.0070093749091029,-0.0177888777107,-0.0260197408497333,-0.0044775325804948,0.0074122822843492,0.0256599318236112,0.0197988599538803,-0.0131059633567929,0.0243173241615295,0.0629962086677551,0.0622989125549793,-0.0111552458256483,-0.0581051260232925,0.0013178791850805,0.0264112092554569,-0.0293442048132419,-0.0079667326062917,0.0120693920180201,-0.0182800404727458,0.0026644878089427,0.0312433708459138,0.0254797022789716,-0.0257000029087066,-0.0268816724419593,0.0426300056278705,0.000776220113039,0.0321037806570529,-0.02335468493402,0.0082600433379411,0.0330194234848022,0.0629993379116058,-0.0119256153702735,0.0361648388206958,-0.0285338200628757,0.047506958246231,0.0433308035135269,0.0260669998824596,-0.0187858585268259,-0.0142663586884737,0.0171954501420259,-0.0172935687005519,0.0388105846941471,0.0276221502572298,0.0117123005911707,0.0285607799887657,0.0108141265809535,-0.0406793430447578,-0.000709235202521,0.0183698050677776,-0.0256320517510175,0.0377584025263786,-0.0332726165652275,0.0505293682217597,0.051667995750904,0.0591828115284442,-0.0042377533391118,-0.0034512095153331,0.0013780649751424,0.0032512499019503,-0.0061144973151385,0.0291934125125408,0.0186393745243549,-0.0063335560262203,0.026810884475708,-0.0297774951905012,0.0361421853303909,0.0241973847150802,0.0414273515343666,-0.0278414636850357,0.0342565402388572,0.0006977394223213,-0.0468388423323631,0.0261250734329223,-0.0510293841361999,0.0182451345026493,0.0382250919938087,0.0155029483139514,0.0415729880332946,0.0148724615573883,-0.0154163446277379,0.0003380761481821,-0.029574055224657,-0.050171211361885,0.0267027523368597,0.0179303232580423,0.0322120785713195,0.0415411926805973,-0.0051615717820823,0.0303392633795738,-0.0105316527187824,0.0080660469830036,0.0150945503264665,0.0196068063378334,-0.0053245676681399,-0.0337402671575546,0.0055976104922592,-0.0238808803260326,-0.0451038070023059,0.0084335971623659,0.0484030470252037,-0.0445231534540653,-0.0226295627653598,0.0317908525466918,0.0305837877094745,0.002253231825307,-0.014388820156455,0.0078964661806821,0.0302179120481014,-0.038309097290039,-0.0569678321480751,-0.0560786165297031,-0.0327267087996006,-0.0075472723692655,0.0630606338381767,-0.0326519533991813,0.0407034642994403,0.0222116094082593,-0.0180726516991853,-0.0144431432709097,0.0234420672059059,0.0088858809322118,0.0392415598034858,-0.0226008631289005,-0.0378531925380229,-0.0170522816479206,0.0406563356518745,-0.0354962348937988,0.0436855107545852,0.022061176598072,0.0261266864836215,0.0182718746364116,0.0122327590361237,0.0412876531481742,0.00146105280146,-0.0027730278670787,0.0243585258722305,-0.0241054594516754,0.0246938467025756,-0.0601586438715457,0.0271925777196884,-0.0272186249494552,-0.0022667525336146,0.0320588536560535,-0.013892282731831,0.0139810880646109,0.0098827481269836,-0.0030527282506227,-0.0005920771509408,0.0320651195943355,0.020048089325428,-0.0048934323713183,-0.0172775201499462,0.0064876973628997,-0.0331821888685226,-0.0047535793855786,-0.0044199633412063,0.0452464297413826,-0.0238266382366418,-0.043537650257349,-0.0023332079872488,-0.0058906851336359,0.0041662468574941,-0.0005921068368479,-0.0075077712535858,-0.0442270375788211,-0.0161514058709144,-0.011984615586698,0.033226516097784,0.0199091956019401,-0.0324550345540046,-0.0330071002244949,-0.0230764057487249,-0.0138633549213409,-0.0130598247051239,-0.0327907130122184,-0.0174609422683715,-0.0244903825223445,0.0022142883390188,0.0107804611325263,-0.0201281942427158,-0.00081106799189,0.0377584025263786,0.0029076845385134,-0.029043510556221,-0.048984345048666,-0.0267471056431531,0.01755759306252,0.0468916371464729,-0.0172589235007762,0.0120104309171438,-0.0175726655870676,0.0142620578408241,-0.049592338502407,-0.016263224184513,0.0452665388584136,-0.0135723603889346,0.0250964686274528,0.0441307723522186
CID000003883,-0.0206156503409147,0.0247411876916885,0.023431871086359,-0.0180220641195774,-0.0025007016956806,0.0261035580188035,0.0428458116948604,0.0340366140007972,0.0228673499077558,-0.0236150119453668,-0.0111947124823927,-0.0242110639810562,0.0009670471772551,0.0214743837714195,0.0144253987818956,0.0227377507835626,-0.0249025858938694,-0.0286346282809972,-0.049260064959526,-0.0399117954075336,0.0253102034330368,0.0003799214027822,0.0439803674817085,-0.0062660509720444,-0.0235692039132118,0.0034311097115278,0.000210957834497,0.039561815559864,0.0026953816413879,-0.024940712377429,0.0504022948443889,0.0645938962697982,0.0412086620926857,-0.0220192149281501,-5.245255306363106e-05,0.041363887488842,-0.0238281860947608,-0.0453984625637531,-0.0133500751107931,0.0255844928324222,0.0283177867531776,0.0416489169001579,-0.0093511436134576,0.0280805304646492,-0.0086148437112569,-0.0245584174990654,0.0277708172798156,0.0251610837876796,0.0278631187975406,-0.0012077679857611,-0.0217884089797735,-0.0013795811682939,0.0256573259830474,-0.0129261165857315,0.0056917620822787,-0.034377247095108,0.0391466058790683,-0.0024909297935664,0.0091522689908742,-0.0420573092997074,-0.0157813392579555,0.0551018230617046,-0.0465791784226894,0.0040466808713972,0.0474636852741241,-0.02503670938313,-0.062331236898899,-0.0004854290746152,-0.0010710973292589,0.0231992602348327,-0.0042477794922888,0.0366551727056503,0.0252100005745887,-0.0418323539197444,0.0101786246523261,0.0067174201831221,-0.0245530195534229,-0.0536228194832801,0.0210986249148845,0.0074308845214545,0.0301825888454914,-0.0042897034436464,-0.0194356627762317,0.0399524271488189,0.0343872159719467,-0.0395145528018474,-0.0424678362905979,-0.0272041969001293,0.030333649367094,0.0326413512229919,0.0076044742017984,-0.0310356840491294,-0.0319912545382976,0.0033802264370024,-0.0438829846680164,-0.0162649899721145,-0.0043700202368199,0.0452413596212863,0.0162857957184314,-0.0371156930923461,0.0128985922783613,-0.0072795273736119,-0.0319918021559715,0.0057409824803471,0.0004234099760651,0.0048998701386153,0.0174537636339664,0.0040938439778983,-0.0248852372169494,-0.0020290501415729,-0.0244433879852294,-3.3478718250989914e-05,-0.03316630423069,-0.0133690806105732,-0.0175961405038833,-0.0231157597154378,0.016279337927699,0.0533778481185436,0.031031547114253,0.0153672937303781,0.0636363923549652,-0.0298041030764579,-0.0274318419396877,0.0312310978770256,0.0227679312229156,0.048454999923706,-0.0296001024544239,-0.0262260884046554,0.0036196550354361,0.0115637145936489,0.0315726101398468,-0.0303417593240737,0.011727419681847,0.0483750365674495,0.0279224775731563,-0.0242022406309843,0.0514886230230331,0.0522089526057243,-0.0458764471113681,-0.0167887657880783,0.0041544819250702,-0.021918075159192,0.0003930144011974,0.029495034366846,0.0131736937910318,-0.0185169260948896,0.0299334079027175,-0.0142875229939818,0.0238803420215845,0.0156933907419443,0.0027865832671523,0.0369241386651992,0.0415864922106266,0.0125810177996754,-0.0084183467552065,-0.016536546871066,-0.0227010026574134,0.0498542338609695,-0.0334929749369621,0.034865416586399,0.0003278286312706,0.0386089906096458,0.0439751483500003,0.0242598336189985,0.0330524928867816,0.0254190675914287,-0.0414411574602127,-0.0207042656838893,0.0623892545700073,-0.0114802923053503,0.0299050007015466,-0.0099442256614565,-0.0173460394144058,-0.0118097271770238,-0.0203720107674598,0.0173777118325233,0.0094738667830824,0.0433792285621166,0.0099946036934852,-0.0239092167466878,-0.0094579262658953,-0.0196587443351745,0.0552341751754283,-0.0005642222240567,0.0478669740259647,-0.0038397433236241,-0.0156954526901245,0.0130399633198976,-0.0174019858241081,0.0229419115930795,0.043056134134531,0.0400095246732234,-0.0414270721375942,0.0395578257739543,-0.0325031727552413,0.0418986156582832,-0.0086702452972531,-0.0004914393648505,-0.0422352366149425,-0.0268858857452869,-0.0416492037475109,0.0341377705335617,-0.0139974793419241,-0.0285496916621923,-0.0173289515078067,-0.0301942694932222,0.0239908527582883,0.0211834162473678,-0.0012565050274133,0.0044357599690556,0.0169823635369539,-0.0083599630743265,-0.0241344347596168,-0.0489929020404815,-0.0172331091016531,0.0041579147800803,0.0118444245308637,-0.0003877780400216,0.0212794765830039,-0.0051122289150953,0.0122885983437299,0.0360081009566783,0.0135966781526803,0.0126782981678843,0.0224505495280027,-0.0129985269159078,-0.0457949340343475,0.0356899946928024,-0.0196968950331211,-0.0312668122351169,0.029000362381339,-0.0398762859404087,0.0107881892472505,0.0065951868891716,-0.0277783088386058,0.0076945279724895,-0.0040209302678704,0.016343193128705,0.0378609746694564,0.0368011258542537,-0.0361829213798046,-0.0033070398494601,0.0313807427883148,0.0001958850771188,-0.0114958193153142,0.0343010984361171,-0.0170720480382442,-0.0501915216445922,-0.0262210518121719,0.0150606669485569,-0.0537643283605575,0.0205346997827291,-0.0230475924909114,-0.0215071067214012,-0.030864018946886,-0.0220234952867031
CID000004885,-0.0039394246414303,-0.0298430193215608,-0.022338967770338,0.0241614039987325,-0.0160838607698678,-0.0212797354906797,0.0384897217154502,-0.0216618478298187,-0.0316428169608116,0.0146404365077614,0.0237177908420562,0.0253693535923957,-0.0283675752580165,0.0336714163422584,-0.0233475882560014,-0.0335808768868446,0.0083286948502063,-0.0468403473496437,0.0003524664789438,0.0256310813128948,-0.0190310236066579,-0.0109021877869963,0.0198080353438854,0.0083531737327575,-0.028557663783431,0.0138268209993839,-0.0031671822071075,0.0311417505145072,-0.003470838535577,-0.0012125085340812,-0.0251766797155141,-0.0128199495375156,-0.0207928232848644,-0.0031555094756186,-0.0024437580723315,-0.008885946124792,0.0359236374497413,-0.0244811810553073,0.0029439851641654,0.0264307707548141,0.0299923904240131,0.0049046031199395,-0.0371172577142715,0.0319056436419487,0.0188589226454496,-0.0166891030967235,-0.040810152888298,-0.0144938025623559,-0.0145112806931138,-0.0144656952470541,-0.036141887307167,0.0474906638264656,4.3023377656936646e-05,0.0070130135864019,-0.0035656611435115,-0.0285444222390651,0.0098889637738466,-0.0419606566429138,0.0140927908942103,0.0291446838527917,0.0540009140968322,0.0410405881702899,-0.0513837188482284,0.016759430989623,0.0458374097943306,0.0294142700731754,0.0102181639522314,0.0035168207250535,0.0015248819254338,-0.0182382836937904,-0.0244596898555755,-0.0330362506210804,0.0434947200119495,-0.0128185022622346,-0.0056950794532895,0.0112453754991292,0.0114425793290138,0.0524564906954765,0.0072881882078945,-0.0345460847020149,0.0185779780149459,0.047868575900793,-0.0169916357845067,0.0070175509899854,0.017775597050786,-0.0189046114683151,0.0158387441188097,-0.0206632297486066,0.0295425057411193,0.0390265993773937,-0.0085423290729522,-0.0173940062522888,-0.0124763380736112,0.0215513110160827,-0.0226188357919454,0.0014928989112377,0.0100157456472516,-0.041427869349718,-0.0019550581928342,-0.0288263484835624,0.0266836155205965,0.0156668554991483,-0.0061197048053145,-0.0322645641863346,-0.0259950142353773,-0.0004726201295852,0.0166500285267829,0.0601252056658268,-0.0239042751491069,-0.0062103308737277,0.007597210817039,0.0104971770197153,0.0420028865337371,-0.000867532682605,-0.0200412701815366,-0.0300310980528593,0.0142912287265062,-0.019939012825489,-0.0278169065713882,0.0057882270775735,-0.0412350371479988,-0.038377434015274,-0.0044369995594024,0.0383333414793014,0.0293540358543396,0.0127557115629315,0.0471431910991668,0.0048955641686916,0.033244501799345,0.0247855372726917,-0.0201044343411922,-0.0203767605125904,-0.0112925376743078,0.0401211604475975,-0.0261907652020454,-0.0271401982754468,-0.0100988177582621,0.0283974036574363,0.0336790718138217,-0.0466557443141937,-0.0075024031102657,-0.0188613925129175,0.0046824449673295,0.0003867177292704,-0.0290919207036495,0.016153072938323,0.028457598760724,-0.0036200424656271,-0.023261085152626,0.0126952584832906,0.0078250234946608,-0.0281330496072769,0.011545330286026,0.019059669226408,0.0271950829774141,-0.0298138111829757,0.0247935205698013,0.0182614773511886,0.0121262548491358,-0.0306916311383247,-0.0195144489407539,0.0512983947992324,0.0206691995263099,0.0150879118591547,-0.0240852683782577,-0.0032694186083972,0.0241844691336154,-0.0243108719587326,-0.0065240077674388,0.0150120379403233,0.0209483057260513,0.003747216425836,0.0311851203441619,0.0433719269931316,-0.011558580212295,-0.0360242053866386,0.056088950484991,-0.0268846563994884,-0.0324784368276596,0.048627782613039,-0.0466556958854198,-0.0199175253510475,-0.0203475579619407,-0.0412045158445835,-0.0031717580277472,-0.0306224711239337,0.0396661832928657,0.0186052192002534,-0.013050228357315,-0.0125013003125786,-0.0171112045645713,-0.0007500555366277,0.044149849563837,0.0178816076368093,0.0198432281613349,0.0021158871240913,0.0088140331208705,0.0302007943391799,-0.0034323828294873,0.0201706811785697,0.0112976245582103,0.0137581368908286,0.0219682659953832,-0.0210070796310901,0.0393793545663356,-0.0407407768070697,-0.0188062768429517,0.0148958880454301,-0.0411318875849247,-0.0400520898401737,0.0334946103394031,-0.0399153903126716,-0.0206217914819717,0.0251436829566955,-0.036325316876173,-0.0261620078235864,0.0301241483539342,-0.0118254078552126,0.0166876390576362,0.015063646249473,0.0196794886142015,0.0351467169821262,-0.0510876514017581,0.0501797720789909,0.0030114986002445,-0.0045709763653576,0.0372201688587665,0.0108076445758342,-0.0265522003173828,0.0072279293090105,-0.0258174836635589,-0.0167830362915992,0.0484315864741802,0.0392599031329155,0.0021834298968315,0.0276288911700248,-0.0244467910379171,0.0067160762846469,-0.0063579119741916,0.0426566489040851,-0.0406255647540092,0.007449104450643,-0.0035360895562916,0.0220872163772583,0.0225438587367534,-0.035819511860609,0.0173946525901556,-0.0138494670391082,-0.0074609378352761,0.0031032164115458,0.0112468339502811,-0.0286680199205875,0.0401905551552772,-0.0117840636521577,-0.0464619696140289,-0.0309961605817079
CID000003961,-0.0210036821663379,-0.0413399934768676,0.0269282441586256,0.0003267433494329,0.0443663187325,0.0539561435580253,0.0196274816989898,0.0304461233317852,-0.0128442468121647,-0.0419070199131965,0.0425562933087348,-0.011428483761847,0.0594583749771118,0.0398567989468574,-0.0124390926212072,0.0055046193301677,0.0471229776740074,0.0487505570054054,-0.0055512534454464,-0.0407614186406135,-0.0415995828807354,-0.0007795902201905,0.0100057665258646,0.0415365099906921,-0.0336005240678787,0.0391211621463298,-0.0022052489221096,-0.0140546075999736,0.0456934794783592,0.0229670573025941,-0.0263913683593273,-0.0467670708894729,0.0077289128676056,-0.0450828671455383,-0.0086601683869957,0.0191057659685611,0.0216822437942028,0.044626660645008,-0.0335765928030014,0.0160309597849845,0.0079988790675997,-0.001548274885863,0.0189396664500236,0.0244704447686672,0.0523748993873596,0.046119425445795,0.0341342873871326,-0.0192623063921928,-0.0122993662953376,0.0501859858632087,-0.0109007153660058,-0.0145469335839152,0.031045464798808,0.0072487965226173,-0.0017676171846687,-0.0207042507827281,0.0169078093022108,0.0444482304155826,-0.0256535932421684,-0.0164672583341598,-0.0282888822257518,0.0125019717961549,0.0137121891602873,-0.0509118698537349,0.0296399258077144,-0.0186843853443861,0.0224164761602878,-0.0194204859435558,0.0276811122894287,0.0515863485634326,0.0161689724773168,-0.0176430866122245,0.0457444414496421,0.0190102942287921,0.0122494921088218,0.050000824034214,-0.021616231650114,-0.0062788068316876,0.0664080306887626,0.0405383631587028,0.0013117725029587,-0.0332259871065616,0.0046668713912367,-0.0003405855968594,-0.0070212390273809,-0.0315219163894653,0.038592129945755,0.0204192455857992,0.0049378219991922,0.0364974960684776,-0.021860621869564,0.0269079804420471,0.0434083044528961,-0.0176149699836969,-0.0247557517141103,0.0059839896857738,-0.0360462069511413,-0.0006060349987819,-0.0461925081908702,0.0114406934008002,0.0653954446315765,0.0375114306807518,0.0021051852963864,-0.0323597677052021,-0.0198768712580204,0.0037215203046798,0.0049158297479152,0.0111080966889858,0.0480680055916309,-0.0279719736427068,-0.0342902764678001,-0.0186725072562694,0.0352303385734558,0.0389543958008289,-0.0367945432662963,-0.0165855176746845,-0.013489774428308,0.0067221983335912,-0.0158252175897359,-0.0051516857929527,-0.0021915459074079,0.0409433282911777,0.0430585443973541,-0.0231136251240968,0.0433081686496734,0.0414845123887062,0.0222238563001155,-0.0175257511436939,-0.0440129414200782,-0.0012646841350942,-0.0011217198334634,0.0145658496767282,0.0568877607583999,0.0389970690011978,0.0281175579875707,-0.0294571109116077,-0.0181413833051919,-0.01859962195158,-0.0333740338683128,0.0065582171082496,-0.0020115412771701,-0.0198785495012998,-0.0033540416043251,-0.0085605029016733,0.0119360983371734,0.0218725651502609,-0.0206000283360481,-0.0044450145214796,0.0224154219031333,0.0308552403002977,0.0491221584379673,-0.0101595595479011,0.0059173326008021,0.0261141695082187,0.0345715507864952,0.004267640877515,-0.0349674262106418,-0.0142117654904723,-0.0245053581893444,0.0433803498744964,-0.0212149992585182,-0.0072241444140672,0.0276300031691789,-0.0062407511286437,-0.0519810132682323,0.0544862039387226,0.0175698045641183,0.0521656610071659,-0.0239972695708274,0.0072952033951878,-0.0237632505595684,0.0353841632604599,-0.042490754276514,0.0007199384272098,-0.0083388024941086,-0.0212529189884662,0.0268601402640342,-0.0313287787139415,0.037362303584814,-0.0255703255534172,0.0288413166999816,-0.0604697503149509,-0.0145190525799989,-0.0319464206695556,-0.0316651128232479,0.0243590753525495,0.0217595417052507,0.0599382668733596,0.0110818184912204,0.0483564734458923,-0.0128126693889498,-0.0219705663621425,-0.0003532911650836,0.013506706804037,0.0296473987400531,0.0470329076051712,-0.0414280742406845,0.0088906344026327,0.0047980500385165,-0.0329107567667961,0.0356772653758525,-0.0307542644441127,-0.0181567538529634,-0.0286710858345031,-0.031657874584198,0.0106418710201978,-0.0032879365608096,0.0067371921613812,0.0097593134269118,0.0003719953820109,0.0446307547390461,-0.0034239348024129,0.0202745161950588,0.0477494969964027,-0.0351591669023036,-0.0180373135954141,0.0039156777784228,0.0405315198004245,0.0003760020190384,-0.0030049467459321,0.0291478112339973,-0.02417603880167,-0.0272769294679164,-0.0323928669095039,0.0025421758182346,-0.0153106953948736,0.0232789292931556,0.0441222488880157,-0.02193059399724,-0.0009963123593479,-0.0508760511875152,0.0180602762848138,0.0240889750421047,-0.0214084088802337,-0.0013532545417547,0.0489756651222705,0.0018817912787199,-0.0152651229873299,0.0471876636147499,0.0277848355472087,-0.0368464663624763,0.0070301201194524,-0.0276561863720417,-0.0538241937756538,-0.0111466785892844,-0.0267444998025894,-0.0338428206741809,0.029577225446701,0.0057840691879391,0.0159034691751003,0.055695317685604,0.0138774076476693,-0.006002614274621,0.0240240022540092,0.0321033336222171,-0.0241406187415123
CID000060835,0.0362092368304729,0.0395146384835243,0.0022035553120076,-0.0472870245575904,0.040295585989952,0.0074648172594606,0.003390148980543,-0.0288186948746442,0.0220861453562974,0.0424858555197715,0.0254189930856227,0.0393931902945041,0.0064808502793312,0.0163388811051845,-0.0227849446237087,0.0061001786962151,0.0068685133010149,-0.0225221570581197,-0.0090000955387949,0.0132046593353152,0.0001638885587453,0.0173923280090093,0.0195826143026351,0.0133105814456939,-0.0187120977789163,-0.0016470509581267,-0.0321374349296093,-0.0271439440548419,-0.0083220219239592,0.0157140679657459,0.0447448417544364,0.0260074026882648,-0.0290324799716472,-0.0470641404390335,-0.0149382911622524,-0.0301088262349367,0.0120558906346559,-0.0192122533917427,0.0119288517162203,0.051978014409542,-0.0408426187932491,-0.0322709083557128,0.0003755169454962,0.0153705868870019,0.0430579148232936,0.0256086084991693,0.0404918268322944,0.0410859286785125,0.0019755414687097,-0.03067540936172,0.0296941213309764,-0.0120147485285997,-0.0318738967180252,-0.0307344123721122,-0.030155349522829,0.0295662134885787,0.0551424175500869,-0.0127095272764563,0.0551012977957725,0.010020762681961,-0.0172515586018562,0.0128730647265911,0.0386370457708835,-0.0522752925753593,-0.0055603287182748,0.037974365055561,0.0185765326023101,-0.0219371039420366,0.0571467615664005,-0.0053532239980995,0.028564479202032,-0.0441911965608596,-0.0389426983892917,-0.0347735732793808,0.0168137345463037,-0.0338567271828651,-0.0180672798305749,-0.00585672352463,-0.0230863615870475,-0.0276791974902153,0.023774117231369,-0.0421631895005703,-0.0284745451062917,-0.0198993794620037,0.0567284151911735,-0.0127437766641378,0.0356854423880577,-0.0398856550455093,0.0061333300545811,-0.0274730771780014,0.0071105295792222,0.0059800250455737,-0.0282277278602123,0.0132315028458833,-0.0369105413556098,0.0111693926155567,0.0276148840785026,-0.0084229940548539,-0.0091793416067957,-0.0044376840814948,-0.0007224190048873,-0.0312138069421052,-0.0358781963586807,-0.0030823303386569,-0.0144931357353925,-0.0313468351960182,-0.0029141437262296,-0.0333721712231636,0.0269854553043842,0.0240933410823345,0.0383388698101043,-0.0427481047809124,0.012314461171627,-0.0102273002266883,-0.0027831755578517,-0.0155221140012145,-0.0264355968683958,0.0179281048476696,0.0109917055815458,0.0344717465341091,0.03321398422122,-0.009901444427669,0.0095360539853572,0.0011716203298419,-0.036504752933979,0.0441801622509956,0.0413515828549861,0.034639436751604,-0.040497787296772,0.0163778997957706,0.0039890655316412,-0.0408648923039436,0.0422354452311992,0.007565664127469,0.0198625773191452,-0.0126375677064061,-0.0105300368741154,0.0240537337958812,-0.039291501045227,0.0199038181453943,0.0225850287824869,-0.0013354243710637,0.0258718598634004,0.0476347096264362,-0.0050925179384648,0.0453357324004173,0.0373148880898952,-0.0480448827147483,-0.0144968004897236,-0.0372588187456131,-0.0474919006228446,0.0139180561527609,-0.008880304172635,-0.0210227314382791,0.0206251926720142,-0.0043144631199538,-0.0272337682545185,0.0387643910944461,0.0286893248558044,-0.0305343270301818,0.0026336379814893,-0.0056023797951638,-0.0061578787863254,-0.0045258533209562,-0.0387629903852939,0.0063948864117264,-0.0221214294433593,-0.0212194100022315,0.0075607188045978,0.0203731171786785,0.004447360523045,-0.0382486209273338,0.027075883001089,0.0221075639128685,0.0423102676868438,0.0505291298031806,0.0203954353928565,-0.0560577251017093,0.0183696243911981,0.0367712900042533,-0.0057819834910333,0.0191720984876155,-0.0208538472652435,-0.0106475744396448,0.0005172351375222,0.0018470252398401,0.0256038233637809,0.0036831095349043,-0.0405522249639034,-0.0414118245244026,-0.0219766274094581,-0.0375030003488063,-0.034137025475502,-0.0204267613589763,-0.0205778926610946,0.0006993683055043,0.0076445406302809,0.0172483325004577,0.0014118974795565,0.0325027778744697,-0.0144030544906854,-0.0012038657441735,-0.0219322983175516,0.0226284302771091,0.0115606803447008,0.0307822506874799,0.0227226465940475,-0.0262290555983781,-0.0269841644912958,0.0235105343163013,0.014013759791851,-0.0084192156791687,0.016214121133089,-0.0209031663835048,-0.0236241482198238,0.0237119868397712,-0.0266590323299169,0.0354866720736026,-0.0417453795671463,0.031692337244749,-0.0365010052919387,0.0548784956336021,-0.0066089695319533,-0.0141188176348805,0.0450976826250553,-0.0324917584657669,-0.0431470200419425,-0.0349878631532192,0.0119568649679422,-0.0444717891514301,-0.0097703151404857,-0.0146349100396037,0.0303347539156675,-0.0073258811607956,0.0265634935349226,-0.0517470985651016,0.0006212801090441,-0.0461312159895896,-0.0352682657539844,-0.039785012602806,-0.0083495508879423,-0.0022174618206918,-0.0564270466566085,0.033183965831995,-0.0412622280418872,0.0311779156327247,-0.0337879434227943,-0.0157294459640979,0.0580879524350166,-0.0293181985616683,0.0214929468929767,0.0267711617052555,0.0455431006848812,0.0047475206665694,-0.0146835520863533,0.018256913870573
CID000002622,0.0120862536132335,-0.0078325318172574,-0.0335005298256874,-0.0012232079170644,0.0394051596522331,0.0205209944397211,0.0154973771423101,-0.0321386009454727,0.0359077230095863,0.0458994433283805,0.0280063450336456,0.0505099445581436,-0.013289931230247,-0.0129053462296724,-0.018116133287549,0.0149233844131231,0.0324948988854885,0.0212897695600986,-0.0338826850056648,0.03135746717453,-0.0069816089235246,-0.011164741590619,0.0227957107126712,-0.0211731120944023,0.0210871510207653,-0.0362153500318527,0.0406991690397262,-0.0203528646379709,-0.0193851869553327,-0.0185143798589706,0.0242031496018171,-0.0176191665232181,-0.0021606935188174,0.0310502871870994,0.0122919222339987,-0.0496841371059417,0.0519466362893581,0.0302470996975898,-0.002968412823975,0.0469562150537967,-0.0186481084674596,0.0038555450737476,0.0034678259398788,0.0019937930628657,0.0033517039846628,0.0424183011054992,-0.0284322202205657,0.0241422355175018,0.0126732448115944,0.0158754307776689,-0.0223092716187238,0.0217635799199342,-0.0276271123439073,-0.0488644167780876,-0.0064185899682343,-0.0333441086113452,0.0296958070248365,0.0233010575175285,0.0384853333234787,0.0391918569803237,0.0017539942637085,0.0446543917059898,-0.0433780513703823,-0.0217581801116466,-0.0083016250282526,0.0226043127477169,0.0344847291707992,0.0347782000899314,-0.0359069854021072,0.0507497675716877,-0.0458297282457351,-0.0337514877319335,0.0311154592782259,0.0397032648324966,-0.0173691846430301,0.0212436690926551,-0.0326264016330242,-0.0093414168804883,-0.0051907673478126,-0.0298255961388349,0.0310443267226219,-0.0228343717753887,-0.0103060882538557,-0.0329503268003463,0.0019344305619597,0.0168001893907785,-0.0219829510897398,-0.0131020015105605,0.02951823733747,-0.0366427972912788,-0.0017184931784868,-0.0274907629936933,0.0108513049781322,-0.0343913771212101,0.0143428081646561,0.0016707145841792,-0.0336951352655887,0.0016602578107267,0.0046240575611591,-0.0157030131667852,-0.0289132613688707,0.0198139734566211,0.05066504701972,-0.0214756280183792,0.0425936616957187,0.0277428962290287,0.0280665662139654,-0.034341525286436,-0.0289185997098684,-0.0093346927314996,-0.0326816514134407,-0.0367307439446449,0.0158556010574102,-0.0190246906131505,0.0115007627755403,-0.0434319041669368,-0.0167452059686183,0.0010886429809033,0.0215438269078731,-0.0077406503260135,0.0011184765025973,-0.0067732720635831,0.0081533305346965,0.0174616258591413,-0.0047821258194744,-0.0181691534817218,-0.0004605455324053,-0.0179139636456966,0.0216579120606184,-0.019327450543642,-0.0216773338615894,0.0478971041738987,-0.0447387248277664,0.0252723842859268,0.0265206415206193,-0.0090407943353056,0.0272706542164087,-0.0322524718940258,0.0024383403360843,-0.0098317926749587,-0.0144574586302042,-0.0458374880254268,-0.0275242552161216,0.0396739952266216,0.0008577872067689,-0.0214389003813266,-0.0291427448391914,-0.0239714235067367,0.0338236168026924,-0.0041658179834485,-0.0389754846692085,-0.0015765291173011,0.0254137273877859,-0.0415980704128742,-0.0013518892228603,0.004272342659533,-0.0358783975243568,0.0483171269297599,-0.0072014420293271,-0.0095537034794688,-0.0020318194292485,0.0180267877876758,-0.0210461430251598,0.0276110917329788,0.0249151121824979,-0.0061285998672246,-0.0281024258583784,-0.0435688756406307,0.0279509108513593,0.023137817159295,0.0230405591428279,0.0202525109052658,-0.0315331779420375,0.0032305452041327,-0.0357052758336067,-0.017229164019227,0.0274462178349494,0.0021361936815083,0.0410453751683235,0.0298313237726688,-0.0248691383749246,-0.0117140114307403,-0.0366593450307846,0.0485173985362052,0.0037750750780105,-0.0353754423558712,0.0208175741136074,-0.0172090772539377,0.0056394306011497,0.0472386591136455,0.0214589815586805,0.0098900347948074,0.0419850535690784,-0.040939275175333,0.0162770301103591,-0.0211783275008201,-0.011147272773087,0.0197840817272663,-0.0465424880385398,-0.0004357383586466,-0.0287197194993495,-0.0100149977952241,0.0022896500304341,-0.0028240736573934,0.0188892688602209,-0.0200955942273139,-0.0390239208936691,-0.0109760053455829,0.0259431507438421,-0.0001292009837925,-0.0281911920756101,-0.0161202326416969,0.0039480598643422,0.0532016120851039,0.0316089317202568,-0.0213935710489749,0.0030368696898221,-0.020263684913516,-0.0077664460986852,-0.0263127349317073,0.012620985507965,0.0108177633956074,-0.0234167911112308,-0.0314481481909751,-0.0010122070088982,-0.0096255736425518,0.0020103612914681,0.0414876826107502,-0.02577855437994,-0.0179393999278545,-0.0403095409274101,0.00664793420583,0.0252509843558073,-0.0029295873828232,0.0116984862834215,-0.0425675101578235,-0.0092939212918281,-0.0327728576958179,0.04979894682765,0.0148123269900679,0.0418924391269683,-0.0257579106837511,0.018532209098339,-0.0432438217103481,-0.0213127080351114,-0.0189177747815847,-0.0379040874540805,-0.0094250813126564,-0.0049059493467211,0.0006839851848781,-0.0421756096184253,-0.0235214550048112,0.0208042282611131,-0.0308902449905872,0.0059306882321834,-0.0411079786717891
